{"Layers":[{"NeuronCount":32,"LayerName":"NNN.Dense, NNN, Version=1.0.0.0, Culture=neutral, PublicKeyToken=null","Weights":{"Data":[{"Value":0.9285715361206829},{"Value":-0.9773839950911265},{"Value":-0.05036386285156344},{"Value":-1.1421374938632187},{"Value":0.45617313357115724},{"Value":-0.3012063901993078},{"Value":1.7439366472713271},{"Value":0.7916917126203648},{"Value":-0.16472958140998328},{"Value":0.29154368137510084},{"Value":-0.5392623903474844},{"Value":-0.05173044592676373},{"Value":0.3627503286762089},{"Value":-0.28039378349292937},{"Value":0.2169664492337399},{"Value":-0.9952001088078694},{"Value":-0.3369170877812261},{"Value":1.5409172400564906},{"Value":-0.09746110644811376},{"Value":0.5745564516219647},{"Value":-0.1795214831792033},{"Value":-1.0387279149473254},{"Value":-0.8982176212088354},{"Value":0.7480891996894542},{"Value":0.6048445123337011},{"Value":0.49105330613687065},{"Value":-0.6000576257395679},{"Value":0.10177895260990963},{"Value":-0.5545044469454516},{"Value":-0.29691625309275965},{"Value":-1.1425504239871698},{"Value":-0.08774800817041145},{"Value":-0.027794416443290854},{"Value":1.4109844160285407},{"Value":0.3815324745687629},{"Value":-0.33772035273048967},{"Value":-0.957429696261836},{"Value":0.4199197544514765},{"Value":0.32692814340664994},{"Value":-0.8394325264060829},{"Value":0.48380719942129347},{"Value":0.42877291805598533},{"Value":-0.7059673818443595},{"Value":-0.01028234840877563},{"Value":0.7575931622555919},{"Value":0.8255197518040255},{"Value":0.8688900865956605},{"Value":-1.121448133866864},{"Value":0.08269832814328455},{"Value":-0.8730704041054204},{"Value":0.10505089157807965},{"Value":-0.2253361538501706},{"Value":-0.2003225747812248},{"Value":0.12209192450883875},{"Value":-0.23267125792323393},{"Value":-0.2930180464569921},{"Value":-0.7883922516300474},{"Value":-0.5470177256914865},{"Value":0.3187881728336249},{"Value":0.6954478219760031},{"Value":-0.3204388381751655},{"Value":0.26127010366686115},{"Value":0.6090021026654515},{"Value":-0.13046848870429129},{"Value":-0.7666743257893209},{"Value":-0.10272637129142313},{"Value":1.2451469791023975},{"Value":0.9693632084304817},{"Value":-0.9005724530484372},{"Value":-1.2086005665886914},{"Value":-0.3115918638780599},{"Value":1.4038216603540996},{"Value":-0.23832701324797187},{"Value":0.8001734768969739},{"Value":0.7727834344420117},{"Value":-0.6261420627894377},{"Value":0.1916744889624857},{"Value":-0.020189744283418277},{"Value":-0.06822179170756748},{"Value":0.005660387843778495},{"Value":0.20717832035774034},{"Value":1.5862152255342459},{"Value":-0.14302354662135316},{"Value":-0.9780251398787609},{"Value":0.015503508361900148},{"Value":0.9561564824172832},{"Value":-0.6744568544402083},{"Value":0.10377621744873441},{"Value":0.1052513410914718},{"Value":0.33454237722799485},{"Value":1.9746472117268599},{"Value":-0.162181997612654},{"Value":-1.5874342081992694},{"Value":-0.139601516552629},{"Value":0.5241319168068187},{"Value":0.5354793147071241},{"Value":-0.7797963936435713},{"Value":0.4969164503823402},{"Value":-0.02348647930279661},{"Value":0.11382134224621243},{"Value":0.049327656824339705},{"Value":0.6851094432391167},{"Value":-0.06379810469741941},{"Value":0.4382597713495178},{"Value":0.6007718934745998},{"Value":0.735634716362836},{"Value":-0.33032429280993636},{"Value":-1.104157559324367},{"Value":0.9422905050367617},{"Value":0.2548842468585916},{"Value":-0.344600245809981},{"Value":0.4520870609486724},{"Value":-0.4651276940447323},{"Value":0.00031649946474118464},{"Value":0.43387907361282674},{"Value":-0.3601171228842905},{"Value":-0.14294747678673572},{"Value":0.3411846885367586},{"Value":-0.632957142610101},{"Value":-0.8079016518420281},{"Value":-0.34321987038163904},{"Value":-0.9588268020822424},{"Value":0.7293465432088151},{"Value":-1.3999299255567401},{"Value":-0.6117101363793338},{"Value":0.8018845977874981},{"Value":0.2402543940119044},{"Value":0.687229660442748}],"Dimensions":[4,32],"Multipliers":[32,1],"Rank":2,"ElementCount":128},"Biases":{"Data":[{"Value":0.007434324225997324},{"Value":0.012546298456651856},{"Value":0.009898137544527306},{"Value":0.012578928511486929},{"Value":0.007475011884893537},{"Value":0.0099820440144007},{"Value":0.010394391160926431},{"Value":0.0073854151100987584},{"Value":0.01025814331389167},{"Value":0.012462077210248251},{"Value":0.012577595125438705},{"Value":0.007436996342488686},{"Value":0.00749545241011521},{"Value":0.010182024172084836},{"Value":0.010080990031074313},{"Value":0.012344079090940959},{"Value":0.010036402504927747},{"Value":0.01263909204581879},{"Value":0.009994626233964462},{"Value":0.012592198148594226},{"Value":0.009978194998562815},{"Value":0.01259626599285466},{"Value":0.007470890892252642},{"Value":0.007505881692431315},{"Value":0.007370770531972094},{"Value":0.009979900483861007},{"Value":0.007432866618204576},{"Value":0.012522858642740515},{"Value":0.007470881476329725},{"Value":0.009941826832059708},{"Value":0.010051766263610989},{"Value":0.012601080924295821}],"Dimensions":[32],"Multipliers":[1],"Rank":1,"ElementCount":32},"Activation":"NNN.LeakyReLU, NNN, Version=1.0.0.0, Culture=neutral, PublicKeyToken=null"},{"NeuronCount":32,"LayerName":"NNN.Dense, NNN, Version=1.0.0.0, Culture=neutral, PublicKeyToken=null","Weights":{"Data":[{"Value":-0.13440825633587297},{"Value":-0.1180489055852878},{"Value":-0.31977813733047183},{"Value":0.25449752269029485},{"Value":0.03617683272854642},{"Value":-0.44867576553233923},{"Value":-0.005415893792936092},{"Value":-0.18151333679079293},{"Value":-0.44328428424067057},{"Value":-0.2501042281616882},{"Value":0.06581575099710267},{"Value":-0.4326615279098758},{"Value":-0.29614268483686584},{"Value":-0.23536563047136547},{"Value":0.03579061662566948},{"Value":0.31892773718460277},{"Value":-0.24815959998182754},{"Value":-0.13377157505339285},{"Value":-0.19178926335101124},{"Value":-0.13870903024348802},{"Value":-0.05104991352345244},{"Value":-0.1579408585110786},{"Value":0.00888076164353568},{"Value":-0.5266984722210934},{"Value":-0.2507401875372688},{"Value":-0.1250705936495549},{"Value":-0.00839916558957659},{"Value":0.41253501254421027},{"Value":0.36154342657417554},{"Value":-0.015070226080057418},{"Value":-0.2653155257314252},{"Value":0.14612300059256222},{"Value":-0.3219818563476129},{"Value":-0.08417370012719677},{"Value":0.2738317249317252},{"Value":0.10282985722266481},{"Value":-0.14200463430185578},{"Value":0.09065949642139214},{"Value":0.27459056923792585},{"Value":-0.04315286755791748},{"Value":0.13852477843869365},{"Value":0.19025449952019952},{"Value":0.21826348588329086},{"Value":-0.017079437819690586},{"Value":-0.2404259949187694},{"Value":0.1092732415371003},{"Value":0.08410359383567682},{"Value":0.38010707480096073},{"Value":0.1455137634212719},{"Value":1.7176202842736472},{"Value":0.14168425664413623},{"Value":0.19638602737791236},{"Value":-0.2626112418766786},{"Value":0.09474939983912914},{"Value":-0.1704149505815297},{"Value":0.29442026074608196},{"Value":0.12891781021382454},{"Value":0.08968833318114403},{"Value":-0.17551623831415708},{"Value":0.21444096605832774},{"Value":0.4491602153691536},{"Value":0.035262246993869054},{"Value":0.1280740351016957},{"Value":-0.06325023847342245},{"Value":-0.2184107441710349},{"Value":0.0841124725607568},{"Value":0.046203638093377984},{"Value":-0.15136938172967573},{"Value":-0.37152232855589057},{"Value":0.2058987305830562},{"Value":-0.007481109142749593},{"Value":0.053442626181628296},{"Value":-0.05005229838268318},{"Value":-0.341160135291351},{"Value":0.3594282939174051},{"Value":-0.11407731459513483},{"Value":0.1336302563814171},{"Value":0.018551532848913255},{"Value":0.058957334953758676},{"Value":0.08564679761195083},{"Value":0.2643192570031678},{"Value":-0.02479716709065257},{"Value":-0.5723054020760868},{"Value":-0.2346423960090717},{"Value":-0.30657047797081904},{"Value":-0.0206424092599699},{"Value":0.3472797461966549},{"Value":0.143239825558948},{"Value":0.25976086977258084},{"Value":0.4166298261746833},{"Value":0.002131149711099178},{"Value":-0.15945106727934152},{"Value":-0.10611300432570868},{"Value":-0.17529186545046202},{"Value":-0.10096270744030944},{"Value":-0.00867741769377244},{"Value":0.5605257282883676},{"Value":-0.09022187203951372},{"Value":-0.5717457368040632},{"Value":-0.4854119268963349},{"Value":-0.3979891056187519},{"Value":-0.12428297894484568},{"Value":-0.2880934525694726},{"Value":0.12261728247823338},{"Value":-0.07471988354998747},{"Value":0.09862617505992297},{"Value":0.20572908720837024},{"Value":0.1405146873702683},{"Value":-0.05301512635210423},{"Value":0.06305111419662363},{"Value":0.009698206669440946},{"Value":0.3460834063090269},{"Value":0.07459935613286567},{"Value":0.3099640207553091},{"Value":-0.38354174692357623},{"Value":-0.30109180934560437},{"Value":-0.25597737403356197},{"Value":-0.009536994998470223},{"Value":-0.2023113208590664},{"Value":0.4051180209305696},{"Value":-0.3063740668578621},{"Value":0.6564838991893317},{"Value":-0.12630033609271452},{"Value":0.28550053473768067},{"Value":-0.21083174593617673},{"Value":0.13728571796531008},{"Value":0.5642560474568268},{"Value":0.21294061397690633},{"Value":-0.3025884591492099},{"Value":-0.17496105360328867},{"Value":0.2055961744087949},{"Value":-0.1869688493436713},{"Value":0.012837235807090579},{"Value":0.3106955333816819},{"Value":-0.22534508764219327},{"Value":0.1336937210867986},{"Value":0.27019669157259524},{"Value":0.36525147489120535},{"Value":0.11566207705139726},{"Value":-0.03648698635443892},{"Value":-0.20133564733439546},{"Value":0.2568035970501443},{"Value":0.23323871964894172},{"Value":0.4277465771857981},{"Value":-0.607081679673593},{"Value":-0.16949092968863658},{"Value":0.3126768826671724},{"Value":0.3562353585051113},{"Value":-0.23396943825099922},{"Value":0.2527177402517809},{"Value":-0.15132774335916688},{"Value":0.07679059502219909},{"Value":0.21958306264019165},{"Value":0.12044577991182108},{"Value":-0.17968489549297723},{"Value":-0.013557939568179106},{"Value":-0.4643176665842384},{"Value":-0.030662175146585882},{"Value":0.25454831978434905},{"Value":0.28400137979923723},{"Value":0.2652797468483516},{"Value":0.12226058914867173},{"Value":0.19395624464028746},{"Value":0.12392225572820338},{"Value":-0.29944800571646685},{"Value":-0.21299803597155026},{"Value":0.06056242516864709},{"Value":0.07214830517756693},{"Value":0.09216456294722765},{"Value":-0.25134413327323885},{"Value":0.1294224603823367},{"Value":0.07758489121450039},{"Value":-0.0021118984039176073},{"Value":-0.3252514299486142},{"Value":-0.3136447374244044},{"Value":0.061894007913672514},{"Value":0.1734117969676701},{"Value":-0.4683518039884632},{"Value":-0.131342029093596},{"Value":-0.24178256308000398},{"Value":-0.1313821099194664},{"Value":-0.33846739401578224},{"Value":-0.30830285260887846},{"Value":-0.025882521005816075},{"Value":-0.2612685657761837},{"Value":-0.13692707470961948},{"Value":-0.03181595587012538},{"Value":-0.11085152123738166},{"Value":-0.009081961519299386},{"Value":0.056554806245494416},{"Value":-0.1330853269456154},{"Value":-0.1026888761335043},{"Value":0.10387569735166395},{"Value":0.1561884645073501},{"Value":0.1189260634656541},{"Value":0.14435492225865748},{"Value":-0.14452434065631323},{"Value":0.11501378089529057},{"Value":-0.043253983233451976},{"Value":-0.1793056039248745},{"Value":0.16494798241169992},{"Value":0.14707353202850018},{"Value":-0.09812681546806368},{"Value":-0.42654852571729995},{"Value":-0.16513896439885886},{"Value":0.01348656128993681},{"Value":-0.01466573926261158},{"Value":0.14538653554958453},{"Value":-0.5285733968954326},{"Value":0.4360274955827875},{"Value":0.3446417916042855},{"Value":-0.11238126240496625},{"Value":-0.11916845969948343},{"Value":-0.038719242767631466},{"Value":0.1257120162332408},{"Value":0.4021510622471709},{"Value":0.33880662707141973},{"Value":0.2871681345979909},{"Value":-0.1317995018334255},{"Value":-0.45204013292921796},{"Value":-0.38719255192149127},{"Value":0.13790496007846892},{"Value":0.02789948474581452},{"Value":-0.7219709529483743},{"Value":-0.15175664431415767},{"Value":0.41487668761675195},{"Value":0.07988497947112126},{"Value":0.3598315281201463},{"Value":-0.20367850867918286},{"Value":-0.3578296980733313},{"Value":0.4087207540974242},{"Value":-0.2533289106612222},{"Value":-0.1853308507214608},{"Value":-0.12146854529909491},{"Value":0.2799619969595622},{"Value":-0.3289642829855748},{"Value":0.11790408549302565},{"Value":0.1430925317704665},{"Value":0.0723423690869789},{"Value":-0.2618413850992963},{"Value":0.1793128351375287},{"Value":-0.5172709197618798},{"Value":-0.2670860518708166},{"Value":-0.16488049755305034},{"Value":-0.5929421981225349},{"Value":0.15182883757217874},{"Value":-0.09212730061328517},{"Value":0.3064177144927915},{"Value":0.1988035044120449},{"Value":0.014755662413911937},{"Value":-0.11889178103358324},{"Value":-0.42982407311540566},{"Value":0.07168105571353345},{"Value":-0.3006820850653023},{"Value":-0.060769957864260385},{"Value":0.05959598961742434},{"Value":-0.14769428352212224},{"Value":-0.09379423180415855},{"Value":-0.27323344073688116},{"Value":-0.055470046681575604},{"Value":0.07848836826243737},{"Value":0.13155995207130466},{"Value":-0.0682652619800611},{"Value":0.15482099071233302},{"Value":-0.09071887191073556},{"Value":-0.31926223936919373},{"Value":0.22392828660687542},{"Value":-0.365466672609668},{"Value":-0.12692818731950944},{"Value":-0.18640756990112625},{"Value":-0.2896229930196843},{"Value":-0.03585486618178854},{"Value":-0.13422785574321627},{"Value":-0.3190118059251911},{"Value":0.36894696736495136},{"Value":-0.19479865731909413},{"Value":0.21192918098130756},{"Value":0.16305580267813796},{"Value":0.14015353794157417},{"Value":0.05140850970701559},{"Value":-0.35951971598827875},{"Value":0.32093385013280473},{"Value":-0.1693318699445},{"Value":-0.23384166370680878},{"Value":-0.01372233674374682},{"Value":-0.17461394005520892},{"Value":0.3388864651860149},{"Value":0.32285392485933484},{"Value":-0.32685362361414694},{"Value":0.04887278050893742},{"Value":0.011722623804822398},{"Value":0.2089398041010004},{"Value":0.25080806914881015},{"Value":0.022211749800941365},{"Value":0.497940121988972},{"Value":0.1165263865550143},{"Value":0.32305440354040277},{"Value":0.3824503795851672},{"Value":0.3412021665532148},{"Value":0.0315502250226603},{"Value":-0.21242103217930133},{"Value":0.49575790935069974},{"Value":-0.12983600284218008},{"Value":0.16898449380664518},{"Value":0.3761077651157251},{"Value":5.507058439542542},{"Value":0.41489283049994347},{"Value":0.15967142310653637},{"Value":-0.6613715312474457},{"Value":-0.029874221375597327},{"Value":-0.4172392110937893},{"Value":-0.003973967201782644},{"Value":0.005177376854141016},{"Value":-0.0652228832763431},{"Value":0.12914713351019855},{"Value":0.5008926279149929},{"Value":0.1739202634810025},{"Value":0.0398421802004655},{"Value":0.052826011551946134},{"Value":0.3771793855805048},{"Value":-0.29932146249936326},{"Value":0.20997364119956316},{"Value":-0.10818329806631809},{"Value":0.2576975811567073},{"Value":0.025225611348654507},{"Value":-0.2046851602637912},{"Value":0.20642510913667783},{"Value":0.3121158929016953},{"Value":0.21660181637377054},{"Value":0.3450965589438738},{"Value":-0.15691115561892377},{"Value":0.5448379872107068},{"Value":0.4589325653367686},{"Value":-0.7262237305452467},{"Value":-0.13350859460192457},{"Value":0.23607371802214322},{"Value":0.763096833804799},{"Value":0.04088898742246232},{"Value":-0.4823028926094194},{"Value":0.2597154299521249},{"Value":-0.22368480163590426},{"Value":0.04521137155259723},{"Value":0.0487411272667884},{"Value":0.20981243881872602},{"Value":0.19831751274253182},{"Value":0.065021651706684},{"Value":0.1242461191483837},{"Value":0.08545087790095436},{"Value":-0.03567512671402113},{"Value":-0.11103889490277583},{"Value":0.30225987361175827},{"Value":0.4593323559968469},{"Value":0.1701416711824086},{"Value":0.08394665586815199},{"Value":0.06032402908936293},{"Value":-0.10704176354604655},{"Value":0.1444481702614597},{"Value":0.1094172735886121},{"Value":-0.011282917161846219},{"Value":0.18298283500167908},{"Value":-0.4549698692802506},{"Value":0.21026585704624937},{"Value":-0.22776496833944654},{"Value":-0.14783804888017738},{"Value":-0.09679641063431235},{"Value":0.24169536161574012},{"Value":-0.26498277656161673},{"Value":-0.05196874837480803},{"Value":0.10703278213424333},{"Value":-0.13217412916047372},{"Value":-0.406526421872436},{"Value":0.12440109375217008},{"Value":0.6901314885026892},{"Value":0.044743783772574944},{"Value":-0.28040372127485985},{"Value":0.12877570925388243},{"Value":0.5446279112804991},{"Value":-0.049026830825507496},{"Value":-0.0830696922522197},{"Value":0.03228474677102466},{"Value":0.11848412598408767},{"Value":-0.10043388371787118},{"Value":-0.5024329829474408},{"Value":0.1363762435847166},{"Value":-0.11017842830367047},{"Value":0.03252212722598352},{"Value":0.3519734465553806},{"Value":0.052022874652174075},{"Value":0.020355777621600835},{"Value":-0.06993528919787452},{"Value":-0.14690724890208146},{"Value":0.026257678562769157},{"Value":-0.07537894775305179},{"Value":-0.42900549012748057},{"Value":0.03781560252682702},{"Value":-0.2394864110335397},{"Value":0.5627218161018154},{"Value":0.36672191512782965},{"Value":0.18940235702845684},{"Value":-0.1315974797682809},{"Value":-0.08320345513785773},{"Value":-3.888591885933289},{"Value":-0.011979464457867219},{"Value":-0.11973948713084892},{"Value":-0.221862832042882},{"Value":-0.19820893029790013},{"Value":-0.0698947428424662},{"Value":-0.14653195266194316},{"Value":-0.03833329498584695},{"Value":0.1853254963364133},{"Value":-0.10853971886022895},{"Value":0.2507703134271331},{"Value":0.0907045611493314},{"Value":0.12143752211793353},{"Value":0.058038254887622244},{"Value":-0.1416200307235565},{"Value":0.2869199247594671},{"Value":0.07954469398076242},{"Value":-7.158743364639519E-05},{"Value":-0.07339710831585797},{"Value":-0.05060032007756884},{"Value":-0.039634138928673845},{"Value":-0.1952291983514845},{"Value":0.05251319821525836},{"Value":0.1129397192661872},{"Value":-0.07493838349373144},{"Value":-0.17532449231287828},{"Value":-0.10528402179131058},{"Value":0.24639980815027612},{"Value":-0.36175974632099916},{"Value":-0.11347441880785249},{"Value":-0.1899234843476908},{"Value":0.08786902170118802},{"Value":-0.42910141257179685},{"Value":-0.00015813664422212697},{"Value":-0.03539265749656319},{"Value":-0.21402131013083198},{"Value":0.3263937728939741},{"Value":0.460104331333311},{"Value":-0.2890512341286396},{"Value":0.05097912665451671},{"Value":-0.04153724043098701},{"Value":0.09602634400360686},{"Value":0.575341122435862},{"Value":-0.206082272823638},{"Value":-0.25755639355131754},{"Value":-0.2992750469574656},{"Value":-0.12567471413127787},{"Value":0.014651639750513897},{"Value":0.35688502072076833},{"Value":-0.30726959995738573},{"Value":-0.11674631092676874},{"Value":0.05569371633789284},{"Value":0.036628752408142236},{"Value":-0.26877763422549583},{"Value":0.32518549171712774},{"Value":0.25781353806943663},{"Value":-0.044008686110497804},{"Value":0.3352921337365468},{"Value":0.11227247114720607},{"Value":-0.28000203656128975},{"Value":0.07095296328482632},{"Value":0.3150998001045813},{"Value":0.2969892472747363},{"Value":0.2421572783685207},{"Value":-0.7246949338615293},{"Value":0.6046514870409249},{"Value":0.2670150606639802},{"Value":0.1281448417651678},{"Value":0.3966458618072255},{"Value":0.15681911329159376},{"Value":0.18238399841565264},{"Value":0.5706948698036274},{"Value":0.029821612999511804},{"Value":0.05225645801008345},{"Value":0.1700038134919762},{"Value":0.2708950946209885},{"Value":0.02800949874401966},{"Value":-0.40099813772075393},{"Value":0.22310239442926755},{"Value":0.015126114502779823},{"Value":-0.08509141914470741},{"Value":-0.2158026941166188},{"Value":-0.06688929710221685},{"Value":-0.4781030349984507},{"Value":-3.0721319533680114},{"Value":0.06807241305713785},{"Value":0.07920183572911488},{"Value":0.3284023175719458},{"Value":-0.16485255519127875},{"Value":0.11388014712545116},{"Value":-0.15608029970461648},{"Value":0.3824604382936607},{"Value":-0.04549357940676415},{"Value":0.0782148150933042},{"Value":0.011014811370182155},{"Value":-0.4775382848621692},{"Value":-0.13355038982986828},{"Value":0.47603350849382253},{"Value":0.013068555558012807},{"Value":-0.010644200141773093},{"Value":-0.34745683285219303},{"Value":0.15498644783507046},{"Value":0.3561328843368832},{"Value":-0.07882284504603501},{"Value":0.2531725269797683},{"Value":-0.35290577110850263},{"Value":-0.28850758241226404},{"Value":-0.20124087360428025},{"Value":0.16509455439081752},{"Value":0.12423494212077041},{"Value":-0.17173984771529463},{"Value":0.06927951685427654},{"Value":-0.49887646954670006},{"Value":0.30203663776518624},{"Value":-0.20579938760856795},{"Value":0.2289651822134941},{"Value":0.02253461757399413},{"Value":-0.0651894526889856},{"Value":0.05311649683477634},{"Value":0.24071945042703752},{"Value":-0.19578065093720057},{"Value":-0.3833741871379759},{"Value":-0.10668115062805847},{"Value":-0.18019909421653565},{"Value":0.011620120425551021},{"Value":0.31512737711055616},{"Value":-0.39694797233751683},{"Value":-0.26868939947225984},{"Value":0.4361667971077471},{"Value":0.15594372530534056},{"Value":0.11162840499943727},{"Value":0.20487380584580914},{"Value":-0.04921881816921563},{"Value":-0.14979638151347985},{"Value":-0.29258764305931395},{"Value":0.18661125285228652},{"Value":-0.09905146788611358},{"Value":0.049284827183890885},{"Value":0.020805442124543463},{"Value":-0.23894851500708503},{"Value":-0.12462747358285384},{"Value":-0.4448103675242554},{"Value":-0.06404310480480284},{"Value":-0.25641617382605164},{"Value":-0.11311190277038458},{"Value":0.027153510724690324},{"Value":-0.2214659809816744},{"Value":0.12416280179643693},{"Value":0.10870058146311855},{"Value":0.21730113077951305},{"Value":0.11842028330191479},{"Value":0.4483590105268663},{"Value":0.07754132756069769},{"Value":-0.2543066437353253},{"Value":0.5599642072674068},{"Value":-0.19248984508890382},{"Value":-0.07001179434987573},{"Value":-0.05615710935218458},{"Value":-0.13605003069749955},{"Value":0.09747213673271057},{"Value":0.2048226786555933},{"Value":0.25266491039375916},{"Value":0.20683966560322814},{"Value":0.12062607807105827},{"Value":-0.2617130135178256},{"Value":0.11677974451858394},{"Value":0.1418068603504315},{"Value":-0.08658089627777538},{"Value":0.17859695306632445},{"Value":-0.21908576797487922},{"Value":0.041391182155461316},{"Value":-0.1854443741313499},{"Value":0.07749987578382411},{"Value":-0.1561183480025719},{"Value":-0.19648049795014247},{"Value":-0.05454329082149561},{"Value":-0.16500416707832669},{"Value":0.13361456125532084},{"Value":0.3043901641313328},{"Value":0.04763512270460539},{"Value":0.06361684008167234},{"Value":0.21856322522133884},{"Value":0.47466550605031615},{"Value":-0.09359346458193},{"Value":-0.40753638470387793},{"Value":-0.09794059003681889},{"Value":0.0005594701365539277},{"Value":-0.04311384633531597},{"Value":0.06661755388470855},{"Value":-0.06987682556613803},{"Value":-0.048414916568708645},{"Value":-0.04880464000043194},{"Value":-0.11130500847619756},{"Value":-0.30775658266710587},{"Value":-0.14426184006339737},{"Value":0.13700463382515868},{"Value":0.24292114813026905},{"Value":0.07088248622728972},{"Value":0.08900262830029647},{"Value":0.32402743614310375},{"Value":-0.1993316449325127},{"Value":-0.19248262601389632},{"Value":-0.06318168681951873},{"Value":0.1665577322113473},{"Value":0.1592603163044248},{"Value":-0.08452174940739675},{"Value":-0.15852522060625088},{"Value":-0.05252225278152443},{"Value":0.1265867609119576},{"Value":0.13008214877483365},{"Value":0.3885529177216747},{"Value":0.15622459053257182},{"Value":-0.2680602664552299},{"Value":0.25803248903554893},{"Value":0.010756003981381683},{"Value":0.24507266800167588},{"Value":0.12149822898581877},{"Value":0.35858643121597833},{"Value":0.23664721511161627},{"Value":0.24880061425416103},{"Value":0.22735290077457396},{"Value":-0.004753072358085483},{"Value":0.15053845961598775},{"Value":-0.005796717175865258},{"Value":-0.1615843078277288},{"Value":0.19588884327487527},{"Value":-0.06376476006094146},{"Value":0.2823740351104666},{"Value":0.31600784005730703},{"Value":0.17046319139632474},{"Value":0.2711873750212126},{"Value":-0.15277685708833091},{"Value":-0.23233956069859887},{"Value":0.2571753933181206},{"Value":0.018141011503114396},{"Value":0.5643011719746214},{"Value":-0.05987279450524798},{"Value":-0.26496608599708066},{"Value":-0.4537847228063003},{"Value":-0.13763230520299857},{"Value":-0.17775483489083163},{"Value":0.11054663615990602},{"Value":0.1730695130546365},{"Value":0.35978495431149127},{"Value":-0.1259731515472201},{"Value":0.17964033939166799},{"Value":0.04692717072107042},{"Value":-0.6255122628560987},{"Value":0.3926222984301112},{"Value":-0.31588804084933586},{"Value":-0.061579589109991166},{"Value":0.14198284658245033},{"Value":0.22821139480162417},{"Value":0.13754777038850055},{"Value":-0.09505434694495939},{"Value":-0.4207834603388432},{"Value":0.3189428995256785},{"Value":-0.4260590988102304},{"Value":0.2760921624467389},{"Value":0.1823134331230265},{"Value":-0.20412050960454725},{"Value":-0.029051046151247314},{"Value":-0.09906032600547156},{"Value":0.33015212139016253},{"Value":0.01945550913210741},{"Value":0.29987111653226994},{"Value":-0.254148753835478},{"Value":-0.1453934603340638},{"Value":0.5024897213959032},{"Value":-0.08233704366291271},{"Value":0.11456937682191354},{"Value":0.08123761683697804},{"Value":0.21820719764686133},{"Value":-0.3150336638503757},{"Value":-0.11119469224768835},{"Value":0.0029874351771326945},{"Value":0.1088783013870549},{"Value":-0.04919638605014709},{"Value":-0.3152663377248865},{"Value":0.3616000079513465},{"Value":-0.12698511934735437},{"Value":-0.1243312284061382},{"Value":0.2886705079430248},{"Value":0.10500094622859876},{"Value":0.3260854163715817},{"Value":0.21184899865291104},{"Value":-0.19089985588327385},{"Value":0.06473380285937091},{"Value":-0.37043068289356423},{"Value":0.23084504735703731},{"Value":-0.15308491756057882},{"Value":-0.00862079283487603},{"Value":0.4454310315272831},{"Value":0.07729585057190011},{"Value":0.078180418358102},{"Value":0.16928030145982792},{"Value":-0.2399582619905787},{"Value":-0.04788365681394088},{"Value":-0.11718559999234605},{"Value":-0.12112651204957833},{"Value":-0.12056025027238443},{"Value":-0.15787929076906748},{"Value":0.4126779944872479},{"Value":0.18966213438376883},{"Value":-0.1556153022338822},{"Value":-0.10057233342194419},{"Value":-0.2551474190782469},{"Value":0.1032052275425779},{"Value":0.07241108556002816},{"Value":-0.25110180787331376},{"Value":-0.020305088533009802},{"Value":-0.381104439336132},{"Value":-0.18856683729511522},{"Value":-0.21564425882406588},{"Value":0.18693198002185038},{"Value":0.10832430204043608},{"Value":-0.12586672681852784},{"Value":-0.07755695748636048},{"Value":-0.03952926973897586},{"Value":-0.21943343892713313},{"Value":0.05283014561351195},{"Value":0.2890667375395468},{"Value":-0.1769872022747499},{"Value":0.19202664636633482},{"Value":0.10475488955204974},{"Value":0.40057500746072705},{"Value":-0.062469269315365006},{"Value":0.2442387107707707},{"Value":0.2349967822340671},{"Value":0.24607270902411893},{"Value":-0.47001994695160776},{"Value":-0.14042418361593406},{"Value":0.5324365226431768},{"Value":0.20303074308192706},{"Value":0.35872420206464467},{"Value":-0.03312805160867973},{"Value":0.40176739732828703},{"Value":0.23871588506633817},{"Value":-0.009518928015851288},{"Value":0.22346698789897518},{"Value":0.044301061681794165},{"Value":-0.19980068577634078},{"Value":0.09103790430479385},{"Value":-0.5588476732233598},{"Value":0.43610787344423785},{"Value":0.307113316427094},{"Value":0.17272788233193734},{"Value":0.11237629116705405},{"Value":0.30225923942411975},{"Value":-0.16329319618762556},{"Value":-0.19150263059271663},{"Value":0.2781315341126535},{"Value":-0.45684814288863085},{"Value":0.3828993519450963},{"Value":-0.09940467788254088},{"Value":-0.1762304018647768},{"Value":0.19035728204064997},{"Value":0.17445300955074947},{"Value":0.05265533950331802},{"Value":0.2874885348883162},{"Value":0.15333912004104477},{"Value":0.17155025997362647},{"Value":0.093329851817991},{"Value":0.15922613180742665},{"Value":0.017464787882830693},{"Value":-0.10242068786729337},{"Value":0.14376713213342032},{"Value":0.09495709301322112},{"Value":0.17210509112988434},{"Value":0.487151360673159},{"Value":0.022477519573104746},{"Value":-0.01504513528841392},{"Value":-0.11893346787873095},{"Value":-0.027872607460881636},{"Value":0.026562190568373136},{"Value":-0.003429421074943531},{"Value":-0.16440245278130436},{"Value":0.3038584035283803},{"Value":-0.27963975145792985},{"Value":-0.4622246052441936},{"Value":0.0714351316646219},{"Value":0.12240854173035819},{"Value":-0.1749804078047167},{"Value":0.1222298051127573},{"Value":0.29409040696903804},{"Value":0.2071351453402759},{"Value":-0.2614048438935244},{"Value":0.3211235027637093},{"Value":-0.5076142047918194},{"Value":-0.2701687932952767},{"Value":-0.16319832411480717},{"Value":0.2090574146418654},{"Value":-0.17550186045117555},{"Value":0.12732886320800907},{"Value":-0.349566273545085},{"Value":0.04737682157538706},{"Value":-0.2118581806271482},{"Value":0.11306742551220443},{"Value":0.16714277909670633},{"Value":-0.30892652470644655},{"Value":-0.10802226989004902},{"Value":-0.47622409657248377},{"Value":-0.2553255372175051},{"Value":0.0444362670152241},{"Value":0.10705024460995423},{"Value":-0.22671931164451445},{"Value":-0.09747540161462083},{"Value":-0.517434997670676},{"Value":-0.28462235769412264},{"Value":0.14686542506820782},{"Value":0.030213163880062965},{"Value":0.23073764356374063},{"Value":-0.009131316410594587},{"Value":-0.09509641846848438},{"Value":-0.07683892212999241},{"Value":0.12990609081423488},{"Value":0.10865829207117167},{"Value":0.23442912359577076},{"Value":-0.07241015811823258},{"Value":0.061490297946262},{"Value":0.0635775686655101},{"Value":-0.12975020053686068},{"Value":0.38861760493581027},{"Value":-0.06478998927400292},{"Value":-0.16261253982179916},{"Value":0.10438552118905894},{"Value":0.07548031631165598},{"Value":0.5987519818738686},{"Value":-0.01299975519511999},{"Value":-0.03643977223002864},{"Value":-0.24081298818460378},{"Value":-0.2139577360608798},{"Value":0.13610013782466884},{"Value":0.16458270059351474},{"Value":0.1651642139385727},{"Value":-0.28238976506912844},{"Value":-0.09230168655405854},{"Value":0.568845556760245},{"Value":-0.0929420973998982},{"Value":0.10284153934592333},{"Value":-0.44989800527081186},{"Value":-0.0691836719447407},{"Value":0.019650881843090384},{"Value":0.19022239817114786},{"Value":-0.0633632129700943},{"Value":0.11772860449261702},{"Value":-0.14178986250346665},{"Value":0.26531208844906573},{"Value":-0.38119138887440857},{"Value":0.23177458202170445},{"Value":0.04907310689588941},{"Value":-0.20037808860748138},{"Value":-0.19594682116828044},{"Value":-0.3154701695103878},{"Value":0.0876664768319577},{"Value":0.06867833851631078},{"Value":-0.36466053362699763},{"Value":-0.04895749363208574},{"Value":-0.13938309227272674},{"Value":0.02421300422191563},{"Value":-0.1965210442617029},{"Value":0.05825581686371863},{"Value":0.006275712310407565},{"Value":0.046953561741298756},{"Value":0.11710465058313163},{"Value":0.23608383810406502},{"Value":0.4143445535098358},{"Value":-0.06578066169931929},{"Value":0.03934063020745318},{"Value":0.09173161636341887},{"Value":-0.12363788939726073},{"Value":0.05768734441935958},{"Value":-0.02904993738231268},{"Value":-0.31932343764214877},{"Value":0.47504334334122444},{"Value":0.2707390521864125},{"Value":0.5091730581812947},{"Value":0.42639620360663294},{"Value":0.2241193111415992},{"Value":0.09217373959012615},{"Value":-0.13648253303761107},{"Value":-0.17028080299075907},{"Value":-0.19013786677853844},{"Value":-0.35261601378169855},{"Value":-0.29321866800009083},{"Value":0.2510251232908073},{"Value":0.18287821749668415},{"Value":0.32776199753803587},{"Value":0.09560172197136801},{"Value":0.1518675213742438},{"Value":0.07497395174959685},{"Value":-0.18810657992522006},{"Value":-0.43935227175761554},{"Value":0.014680755485997591},{"Value":0.3164403847748498},{"Value":-0.012926124487463778},{"Value":-0.013069025116516185},{"Value":-0.4400988873838238},{"Value":-0.3033006141917225},{"Value":-0.07653037362851726},{"Value":-0.14525629931995376},{"Value":0.05950054710300933},{"Value":-0.14760234466204564},{"Value":-0.21642680572648},{"Value":-0.09462204196409499},{"Value":0.10616248457816865},{"Value":-0.027228368067422966},{"Value":-0.02332332168879523},{"Value":0.03279530917897147},{"Value":-0.39862264170303247},{"Value":0.2529961906228822},{"Value":0.017030516738620133},{"Value":-0.11150461470323925},{"Value":0.12966531222316763},{"Value":0.007859321362554413},{"Value":0.2881499441091894},{"Value":0.6188206803611835},{"Value":0.042857909663657816},{"Value":0.2882613174853868},{"Value":0.5241528617841681},{"Value":0.17849606247726946},{"Value":0.4113294859072391},{"Value":0.35096782814816796},{"Value":0.1288735489940896},{"Value":-0.5435663379219929},{"Value":0.20375761365162257},{"Value":-0.3927995296991389},{"Value":0.09067078988237538},{"Value":0.09094924671504348},{"Value":0.24113812488366418},{"Value":0.4243119552825973},{"Value":0.0652423703661057},{"Value":-0.27721548073009594},{"Value":0.25790607703673424},{"Value":0.2375643948352247},{"Value":-0.19173782246937707},{"Value":0.1135094163856154},{"Value":0.1094032931198876},{"Value":-0.1084333519185889},{"Value":-0.33022985304984065},{"Value":-0.106562766915842},{"Value":-0.06345909154379131},{"Value":-0.08082935754127368},{"Value":0.14986916054719468},{"Value":2.181594531571493},{"Value":0.13267774004690416},{"Value":-0.13704003247867966},{"Value":0.08747497892373586},{"Value":-0.03425953925154067},{"Value":-0.10994297377714},{"Value":0.48220250051836633},{"Value":-0.470462876955344},{"Value":-0.26964157799373084},{"Value":-0.1313814095286538},{"Value":0.042276678155684366},{"Value":0.05797870068509113},{"Value":-0.24104564192709593},{"Value":-0.018437921910746047},{"Value":0.141922212980808},{"Value":0.32006545677787634},{"Value":0.019112451585925085},{"Value":0.13590820508670148},{"Value":0.13737624175185642},{"Value":0.06358602042356785},{"Value":-0.07423054364759563},{"Value":-0.12607240989637905},{"Value":0.3014807582536827},{"Value":0.0707049814266465},{"Value":0.8438194935222579},{"Value":0.15159619008860314},{"Value":-0.20726213061469395},{"Value":0.04543788206924976},{"Value":-0.0384980621268521},{"Value":0.1581518314064451},{"Value":-0.0573135342998319},{"Value":-0.34073732131140566},{"Value":-0.07075492848228072},{"Value":0.1691619921948982},{"Value":0.31337818349929436},{"Value":0.028438862114842485},{"Value":-0.6344678135804364},{"Value":0.14085308676265001},{"Value":-0.028438846678449977},{"Value":0.0034793264820653542},{"Value":-0.24075312447006325},{"Value":-0.042446171826931646},{"Value":-0.06571624050969778},{"Value":-0.25561942598613613},{"Value":0.29292496462791817},{"Value":0.34418294074969663},{"Value":0.30896978768928635},{"Value":-0.4401072462871725},{"Value":-0.13849054351115522},{"Value":-0.6882974573346952},{"Value":0.16653336749343978},{"Value":0.372344236348855},{"Value":0.005973831949055417},{"Value":0.15972007780434336},{"Value":0.11637790657199018},{"Value":0.07744558709684103},{"Value":0.26681672574049153},{"Value":0.16807285472932076},{"Value":0.6798784018994115},{"Value":0.18298598698576518},{"Value":0.1896147755452711},{"Value":-0.03063772991502557},{"Value":0.004337894815467917},{"Value":0.26182646392134645},{"Value":0.6518837583091399},{"Value":-0.23686815797594696},{"Value":0.2780387018038297},{"Value":-0.3309857747883548},{"Value":-0.0337444729381271},{"Value":0.21394863814195725},{"Value":-0.3157925891328188},{"Value":0.39401415527869305},{"Value":-0.02241665580385637},{"Value":-1.1630669902174064},{"Value":0.1128132461796668},{"Value":0.30524691984968455},{"Value":-0.43590920999621996},{"Value":0.03667762674247246},{"Value":-0.1624262392607699}],"Dimensions":[32,32],"Multipliers":[32,1],"Rank":2,"ElementCount":1024},"Biases":{"Data":[{"Value":0.0074055220710965534},{"Value":0.009910690071044474},{"Value":0.009938207348258864},{"Value":0.009835499479799333},{"Value":0.007428233632709357},{"Value":0.013113532091073415},{"Value":0.007322281119529282},{"Value":0.010003267953400369},{"Value":0.012624064035659863},{"Value":0.009981738153135519},{"Value":0.009988885776383759},{"Value":0.0126157385107253},{"Value":0.012520470636063468},{"Value":0.012594159274532677},{"Value":0.012612983198531012},{"Value":0.007425166696489577},{"Value":0.01277366900159638},{"Value":0.010671872566857336},{"Value":0.010068467569248406},{"Value":0.009983737827427598},{"Value":0.007449425918848868},{"Value":0.010097205234849822},{"Value":0.007436595361719539},{"Value":0.00986022930160855},{"Value":0.010027696617099615},{"Value":0.010006326889340831},{"Value":0.009991791367559377},{"Value":0.01004034278302181},{"Value":0.009962050859823577},{"Value":0.009651657063491498},{"Value":0.010020335400828457},{"Value":0.012610735883641632}],"Dimensions":[32],"Multipliers":[1],"Rank":1,"ElementCount":32},"Activation":"NNN.LeakyReLU, NNN, Version=1.0.0.0, Culture=neutral, PublicKeyToken=null"},{"NeuronCount":4,"LayerName":"NNN.Dense, NNN, Version=1.0.0.0, Culture=neutral, PublicKeyToken=null","Weights":{"Data":[{"Value":0.0429656657387272},{"Value":0.09322696865608993},{"Value":0.17472149246430388},{"Value":-0.3005828108594988},{"Value":0.3314994332134765},{"Value":-0.14349785051017833},{"Value":0.12156786606133813},{"Value":-0.20761893795505917},{"Value":0.23964236987441528},{"Value":-0.41852852284749675},{"Value":0.05972859362914312},{"Value":0.06900720925000126},{"Value":0.20409135486104935},{"Value":-0.2225614512869325},{"Value":0.04558031144373652},{"Value":-0.21093356374845013},{"Value":-0.18556265526823842},{"Value":0.2530898728564004},{"Value":-0.12348499189826244},{"Value":-0.13061559156134156},{"Value":-0.3665631975680752},{"Value":-0.07802441997546414},{"Value":0.0010566576828201586},{"Value":0.006264722375336186},{"Value":0.392925407753699},{"Value":0.06614124188092176},{"Value":-0.16983262569167007},{"Value":-0.011886347097838874},{"Value":0.0308846539495122},{"Value":-0.07289694287315175},{"Value":-0.2661624423412827},{"Value":0.17834056272452},{"Value":-0.10404910445345451},{"Value":0.2335491657799981},{"Value":-0.4503137362001857},{"Value":-0.1665269827672648},{"Value":0.25871596309239914},{"Value":0.0713087837130198},{"Value":-0.15510323057124212},{"Value":-0.1338049195424575},{"Value":0.2751003334986944},{"Value":-0.07258966946106384},{"Value":-0.6330449924109771},{"Value":-0.42982166286261475},{"Value":-0.13863774040007826},{"Value":0.2758470814992653},{"Value":-0.05341268691946175},{"Value":-0.060096675043271305},{"Value":-0.12456535059082549},{"Value":-0.19857060205213484},{"Value":0.24766959762673116},{"Value":0.5022362657104295},{"Value":0.20725682609183627},{"Value":0.03637967732793608},{"Value":0.17028802087091774},{"Value":0.0679583749096689},{"Value":-0.5951703386370661},{"Value":-0.09624256299413829},{"Value":-0.34728280107236786},{"Value":-0.020730998989088822},{"Value":-0.13211821252841752},{"Value":-0.03261621010888821},{"Value":-0.052890093631566895},{"Value":-0.15911570271546055},{"Value":0.030735310368065715},{"Value":0.04793234266965481},{"Value":-0.28380108992234737},{"Value":-0.1906482294443368},{"Value":-0.2737537289312151},{"Value":0.4470306958675819},{"Value":0.20213752745406743},{"Value":-0.20431603881844027},{"Value":0.17211401767763154},{"Value":0.16489301671582254},{"Value":-0.14060872619547296},{"Value":0.37104236632308146},{"Value":0.11451003540076614},{"Value":-0.021301745947007907},{"Value":-0.193848743611148},{"Value":0.6474247403748784},{"Value":-0.1936575758553322},{"Value":0.15146823770482742},{"Value":-0.42732676641967327},{"Value":-0.1381425546561511},{"Value":0.01807226672795388},{"Value":-0.10399250717621612},{"Value":-0.4594129562928287},{"Value":0.5248778149294785},{"Value":0.060145059323129406},{"Value":0.2613261690504683},{"Value":0.2677698020498116},{"Value":0.023599930022513708},{"Value":0.5055147890991496},{"Value":-0.047717240195324945},{"Value":0.24492913530049049},{"Value":-0.4982374630943409},{"Value":-0.3108503735106464},{"Value":0.1778311193590981},{"Value":0.11712282763302764},{"Value":0.2637873198820886},{"Value":-0.08153768192086243},{"Value":0.07734503078095667},{"Value":0.29745170882484484},{"Value":0.08919111127924689},{"Value":0.17804422048250013},{"Value":0.20089662171737674},{"Value":0.03154337602172338},{"Value":-0.15714975800193345},{"Value":0.03583535168889394},{"Value":0.15410296036058665},{"Value":0.03948424098322444},{"Value":0.5723755909778939},{"Value":0.17360110329825115},{"Value":-0.051234096827028126},{"Value":-0.21855908944663718},{"Value":-0.38412644375046734},{"Value":-0.0030605185360223263},{"Value":-0.14629031697170466},{"Value":0.14649014300580182},{"Value":-1.195871192749454},{"Value":-0.06936491799308041},{"Value":0.09708626821221064},{"Value":0.5136082530722297},{"Value":-0.08363796570987458},{"Value":-0.4858577266005616},{"Value":0.3028488109743135},{"Value":0.02026575695829036},{"Value":0.10868083996008465}],"Dimensions":[32,4],"Multipliers":[4,1],"Rank":2,"ElementCount":128},"Biases":{"Data":[{"Value":0.009759298233166652},{"Value":0.01006661204035936},{"Value":0.011856482725892408},{"Value":0.011883454711838192}],"Dimensions":[4],"Multipliers":[1],"Rank":1,"ElementCount":4},"Activation":"NNN.Linear, NNN, Version=1.0.0.0, Culture=neutral, PublicKeyToken=null"}]}