{"Layers":[{"NeuronCount":32,"LayerName":"NNN.Dense, NNN, Version=1.0.0.0, Culture=neutral, PublicKeyToken=null","Weights":{"Data":[{"Value":0.929897580161877},{"Value":-0.9760678087705134},{"Value":-0.05162585593402741},{"Value":-1.1434148035246507},{"Value":0.4574780517001786},{"Value":-0.3024950267621629},{"Value":1.745174945755324},{"Value":0.7929576287271174},{"Value":-0.1635509835723253},{"Value":0.2903739959384146},{"Value":-0.5405173104520208},{"Value":-0.05043978740862},{"Value":0.361505132186715},{"Value":-0.2790981794409392},{"Value":0.2182147693689174},{"Value":-0.9965556811737519},{"Value":-0.33552454558794736},{"Value":1.5404443388552094},{"Value":-0.09872998114880763},{"Value":0.5732601799418042},{"Value":-0.1807428720103252},{"Value":-1.0399873608309294},{"Value":-0.8969109590476985},{"Value":0.7492559076129427},{"Value":0.6061242614071383},{"Value":0.48974439695259325},{"Value":-0.5987981736517837},{"Value":0.1005095657660799},{"Value":-0.5532266081382614},{"Value":-0.2956651967727561},{"Value":-1.1438481658445923},{"Value":-0.08927934750318242},{"Value":-0.026431003039190964},{"Value":1.4097156259900974},{"Value":0.38026840804393586},{"Value":-0.33897734610536584},{"Value":-0.9559616516444697},{"Value":0.4186507991296459},{"Value":0.3256340961380013},{"Value":-0.8382013332541083},{"Value":0.48499247334099166},{"Value":0.4275341926596006},{"Value":-0.7071467535149306},{"Value":-0.0090089520733835},{"Value":0.7588164754913513},{"Value":0.8267947711409139},{"Value":0.8701484092118684},{"Value":-1.1202483179276008},{"Value":0.0839820035169481},{"Value":-0.8743242694485083},{"Value":0.10375805929975576},{"Value":-0.22662264034191473},{"Value":-0.20159174794051843},{"Value":0.12086905828349298},{"Value":-0.23139120336041746},{"Value":-0.29180465410345996},{"Value":-0.7871842968459705},{"Value":-0.5459817532170386},{"Value":0.3200154233691018},{"Value":0.6941863981109877},{"Value":-0.31917826680289535},{"Value":0.25999592934118565},{"Value":0.6102664256320331},{"Value":-0.1317529945231538},{"Value":-0.7679553635829284},{"Value":-0.10148095755608329},{"Value":1.2441448668481345},{"Value":0.9680750359513012},{"Value":-0.9019410007381022},{"Value":-1.2073225715493694},{"Value":-0.3103141351638719},{"Value":1.4051032185623418},{"Value":-0.2370765172582213},{"Value":0.7988842310137607},{"Value":0.7714867741745377},{"Value":-0.6274269892028673},{"Value":0.19298543766851},{"Value":-0.021458651412571365},{"Value":-0.06948682782639866},{"Value":0.006976808110352163},{"Value":0.20590064761604093},{"Value":1.5848878805421176},{"Value":-0.1417520135195366},{"Value":-0.9767382276131005},{"Value":0.014230236213451536},{"Value":0.9548692091347485},{"Value":-0.6757408761663928},{"Value":0.10506578054670922},{"Value":0.10651971059124282},{"Value":0.3358425742133575},{"Value":1.9759221573451133},{"Value":-0.1634489641665444},{"Value":-1.5887099871548733},{"Value":-0.14158827925285367},{"Value":0.52287794726202},{"Value":0.5341501353620572},{"Value":-0.7810772840225885},{"Value":0.49818557262349034},{"Value":-0.024747421910861316},{"Value":0.11508190224806525},{"Value":0.04797597288534046},{"Value":0.6863951612256601},{"Value":-0.0624793196075284},{"Value":0.43699502383145794},{"Value":0.5995044844573242},{"Value":0.7368891672673917},{"Value":-0.3290438717076496},{"Value":-1.105439344562417},{"Value":0.9410371318754447},{"Value":0.2536144448915754},{"Value":-0.3458765222091984},{"Value":0.45074550272558606},{"Value":-0.46649334455988456},{"Value":0.0015672164089965124},{"Value":0.4327063383175489},{"Value":-0.3588384067823365},{"Value":-0.1417025898826835},{"Value":0.34244635815741925},{"Value":-0.6342365121753304},{"Value":-0.8091244431297621},{"Value":-0.3445097302470485},{"Value":-0.9575220426172008},{"Value":0.7280834682821364},{"Value":-1.3986570761672419},{"Value":-0.6129856343876586},{"Value":0.8031495107917604},{"Value":0.24152259388788974},{"Value":0.6885125625578448}],"Dimensions":[4,32],"Multipliers":[32,1],"Rank":2,"ElementCount":128},"Biases":{"Data":[{"Value":0.008711053013003832},{"Value":0.011286712604040232},{"Value":0.008707070082501387},{"Value":0.011291658165572118},{"Value":0.008829849227671549},{"Value":0.008700919946524565},{"Value":0.009107597010823778},{"Value":0.008672456348638117},{"Value":0.008915302214213728},{"Value":0.011173876615283778},{"Value":0.01127370640128956},{"Value":0.008714493229406038},{"Value":0.008791601228950514},{"Value":0.01146865129788538},{"Value":0.011345770142067852},{"Value":0.011142978965955471},{"Value":0.011341932313267807},{"Value":0.011310806148825707},{"Value":0.008718579956094994},{"Value":0.011314139112987672},{"Value":0.011271699225699863},{"Value":0.011300633943602416},{"Value":0.00874683958231318},{"Value":0.008725558629081396},{"Value":0.008657617051831122},{"Value":0.008715396017799209},{"Value":0.008712161045003199},{"Value":0.011248657305190441},{"Value":0.008750322510284923},{"Value":0.008687080636658689},{"Value":0.011349629932899973},{"Value":0.011284793343472503}],"Dimensions":[32],"Multipliers":[1],"Rank":1,"ElementCount":32},"Activation":"NNN.LeakyReLU, NNN, Version=1.0.0.0, Culture=neutral, PublicKeyToken=null"},{"NeuronCount":32,"LayerName":"NNN.Dense, NNN, Version=1.0.0.0, Culture=neutral, PublicKeyToken=null","Weights":{"Data":[{"Value":-0.1331454357695577},{"Value":-0.11934252827381928},{"Value":-0.32109086906960943},{"Value":0.2532040473956976},{"Value":0.03746993816983682},{"Value":-0.44992297914814383},{"Value":-0.006686862599768191},{"Value":-0.182791687365915},{"Value":-0.4444379030273436},{"Value":-0.2513948354968532},{"Value":0.064521079621121},{"Value":-0.4336683473849148},{"Value":-0.2974193714652532},{"Value":-0.2366668120462144},{"Value":0.03732430004945333},{"Value":0.320221432218189},{"Value":-0.24910649520030265},{"Value":-0.13502573393629655},{"Value":-0.19062177478899234},{"Value":-0.1399744935974353},{"Value":-0.04976179049591249},{"Value":-0.15922654061989774},{"Value":0.01016007196719398},{"Value":-0.5279945305888784},{"Value":-0.249448114893492},{"Value":-0.12377997079268416},{"Value":-0.00738089891326569},{"Value":0.41381474475310687},{"Value":0.36025015397695187},{"Value":-0.014015543580078942},{"Value":-0.2640296842565985},{"Value":0.14653702412171787},{"Value":-0.32071051537762446},{"Value":-0.08543897577174057},{"Value":0.27257237195547235},{"Value":0.10156294490533682},{"Value":-0.1407362208047057},{"Value":0.08946920089159097},{"Value":0.2733260354713824},{"Value":-0.04441872072871765},{"Value":0.13724998664575275},{"Value":0.1889346933259222},{"Value":0.21699615958171928},{"Value":-0.015829186633693596},{"Value":-0.2391450294875846},{"Value":0.10800044552966724},{"Value":0.0853788794862283},{"Value":0.3813738236245517},{"Value":0.1442424222389362},{"Value":1.7163045095653264},{"Value":0.14038610769791868},{"Value":0.19766838525869534},{"Value":-0.26134233239508453},{"Value":0.09347692283902305},{"Value":-0.1691428210770826},{"Value":0.29315269182280324},{"Value":0.13018739966539591},{"Value":0.09095667086957647},{"Value":-0.17426334096871396},{"Value":0.2157042641159359},{"Value":0.4478935720926794},{"Value":0.03434991495141062},{"Value":0.12677990240602124},{"Value":-0.062005204274111825},{"Value":-0.21972793790792722},{"Value":0.08539022091023613},{"Value":0.04748508926553004},{"Value":-0.1500916886462493},{"Value":-0.3731142065591497},{"Value":0.20463758631258813},{"Value":-0.006218399227121346},{"Value":0.054727421010131234},{"Value":-0.051385468594198236},{"Value":-0.339786653131264},{"Value":0.36070267876360945},{"Value":-0.11537365417841673},{"Value":0.1351651425717487},{"Value":0.019816028091216336},{"Value":0.057694237375931684},{"Value":0.08695749293279216},{"Value":0.2623532391302615},{"Value":-0.026079307625769335},{"Value":-0.5710715737840593},{"Value":-0.23333625983166603},{"Value":-0.30531149905715915},{"Value":-0.02190800600084685},{"Value":0.3460263196720492},{"Value":0.14451072713538157},{"Value":0.258481015837438},{"Value":0.4153440970612325},{"Value":0.0008705183670100262},{"Value":-0.16072210267122403},{"Value":-0.10484093425681283},{"Value":-0.1742045770135225},{"Value":-0.1022931922810748},{"Value":-0.009958489774983406},{"Value":0.5618745898504975},{"Value":-0.08891346788163938},{"Value":-0.5704550234659747},{"Value":-0.48412053861948323},{"Value":-0.398921175140347},{"Value":-0.12291797373641454},{"Value":-0.2868511356384641},{"Value":0.12394643577485487},{"Value":-0.07605912334280145},{"Value":0.09843012650913921},{"Value":0.20702684573674393},{"Value":0.1391592263597022},{"Value":-0.05165328405046936},{"Value":0.06175687559773884},{"Value":0.00845990756223277},{"Value":0.34734295049373476},{"Value":0.07323214901933728},{"Value":0.30866771058351516},{"Value":-0.3848298032928593},{"Value":-0.29977767878846745},{"Value":-0.2545920110913356},{"Value":-0.01094780834459395},{"Value":-0.20356712819280076},{"Value":0.4064059600775051},{"Value":-0.30768313824389126},{"Value":0.6551537364077624},{"Value":-0.12757418742391954},{"Value":0.28422812225229555},{"Value":-0.20952680008578267},{"Value":0.13637360749846233},{"Value":0.5629225345503127},{"Value":0.2116263832679324},{"Value":-0.30130731113620224},{"Value":-0.17624943827255046},{"Value":0.2043089229583625},{"Value":-0.18829327116822175},{"Value":0.014169541652678851},{"Value":0.3106955333816819},{"Value":-0.22658898517979825},{"Value":0.13241415432941056},{"Value":0.2715462241050217},{"Value":0.36397423141199864},{"Value":0.1143790348839689},{"Value":-0.03518086777905759},{"Value":-0.2026287887434272},{"Value":0.2555234192439584},{"Value":0.2345542025823344},{"Value":0.42902516200858354},{"Value":-0.6082510964579557},{"Value":-0.16821281789297193},{"Value":0.3114648666657279},{"Value":0.3549736757870559},{"Value":-0.23267994465727287},{"Value":0.2514168648725864},{"Value":-0.15003379704979222},{"Value":0.07550984630973825},{"Value":0.2208689547532945},{"Value":0.12173439654689251},{"Value":-0.18090259316469257},{"Value":-0.012209729439619788},{"Value":-0.4656020735870883},{"Value":-0.03157176441046905},{"Value":0.25582813294455137},{"Value":0.28526190035484},{"Value":0.26655286330700856},{"Value":0.12098455565892079},{"Value":0.19268884718316476},{"Value":0.12264441900290662},{"Value":-0.2981653516152653},{"Value":-0.21358735560878628},{"Value":0.05930131111352161},{"Value":0.07087306237296875},{"Value":0.09351680396535803},{"Value":-0.25264332149987273},{"Value":0.1281465887636831},{"Value":0.0788559146067585},{"Value":-0.003399591148418296},{"Value":-0.3265338662608828},{"Value":-0.3123700698403993},{"Value":0.0631696224597158},{"Value":0.17216196715525123},{"Value":-0.4670757445536594},{"Value":-0.1300633961180882},{"Value":-0.24310673969581548},{"Value":-0.1301064795592524},{"Value":-0.33974505948853706},{"Value":-0.30702770091069703},{"Value":-0.027158243625648826},{"Value":-0.2599912164555922},{"Value":-0.13564960636266327},{"Value":-0.030569670621719208},{"Value":-0.10957943614137129},{"Value":-0.01035714999300931},{"Value":0.05564466512109296},{"Value":-0.1318072789097719},{"Value":-0.10142559352674846},{"Value":0.10513534164113184},{"Value":0.15487851610135328},{"Value":0.12001087296275414},{"Value":0.14305563080790232},{"Value":-0.1432314938993545},{"Value":0.11375494079310498},{"Value":-0.04199842782357032},{"Value":-0.1806213126594141},{"Value":0.1662013528258585},{"Value":0.1457812048039865},{"Value":-0.09944323344461761},{"Value":-0.42782084072268356},{"Value":-0.16639755756284758},{"Value":0.012111534149066018},{"Value":-0.01588439127426441},{"Value":0.1466858093735757},{"Value":-0.5273104289807616},{"Value":0.4347678657297791},{"Value":0.3458689450911644},{"Value":-0.11364860070942306},{"Value":-0.1178799868770751},{"Value":-0.040002616637645726},{"Value":0.1269953853015838},{"Value":0.4008235452028898},{"Value":0.34011130255165745},{"Value":0.2884660410806057},{"Value":-0.13314126943358695},{"Value":-0.4507601404752851},{"Value":-0.38849641170692717},{"Value":0.13896255077231},{"Value":0.029160680027334244},{"Value":-0.72323357525956},{"Value":-0.15252040912511436},{"Value":0.41617025034793437},{"Value":0.08118097004191153},{"Value":0.3611220575151129},{"Value":-0.20280915757599147},{"Value":-0.35909428341892363},{"Value":0.4099913034508565},{"Value":-0.2519835486487181},{"Value":-0.1867570646648271},{"Value":-0.12261827914645387},{"Value":0.2812501341610746},{"Value":-0.33027992772823117},{"Value":0.11676563415571974},{"Value":0.14436570972186316},{"Value":0.07107250834922733},{"Value":-0.26057768913676765},{"Value":0.18046560163479153},{"Value":-0.5185694107021779},{"Value":-0.2658276126377408},{"Value":-0.16611716495584494},{"Value":-0.591666716794714},{"Value":0.1504314420617604},{"Value":-0.09338519589212588},{"Value":0.30770037427692853},{"Value":0.19750691345487853},{"Value":0.013451425602126445},{"Value":-0.12014890900572774},{"Value":-0.42855126311755243},{"Value":0.07296939004692747},{"Value":-0.29911435504365547},{"Value":-0.062312319070523536},{"Value":0.058293250793841775},{"Value":-0.14641186910883228},{"Value":-0.09506131982737741},{"Value":-0.27450400933147334},{"Value":-0.05674173601651811},{"Value":0.0797595294692212},{"Value":0.13045839069246598},{"Value":-0.06953009733261581},{"Value":0.15354981286206},{"Value":-0.0894316855508543},{"Value":-0.32055636787814523},{"Value":0.2226589719766961},{"Value":-0.36421556597304944},{"Value":-0.1282023628978287},{"Value":-0.18768448110277136},{"Value":-0.28833828225802133},{"Value":-0.034592552697231},{"Value":-0.135595069547799},{"Value":-0.3177401939125673},{"Value":0.37023753662354025},{"Value":-0.1934685508604139},{"Value":0.2131990972728548},{"Value":0.16177771106692124},{"Value":0.14143220186231345},{"Value":0.05013964774145312},{"Value":-0.35824564057952657},{"Value":0.3222074010560708},{"Value":-0.1706277595414608},{"Value":-0.23256673497428773},{"Value":-0.01498562949049211},{"Value":-0.17552423004418385},{"Value":0.3401465914093464},{"Value":0.3240989953502208},{"Value":-0.3281902864201486},{"Value":0.05015501714470582},{"Value":0.013020867555863484},{"Value":0.21023875255566565},{"Value":0.25171401157385115},{"Value":0.020951124646938137},{"Value":0.499199579115815},{"Value":0.11553163461231651},{"Value":0.3215551417876391},{"Value":0.38117159362217473},{"Value":0.3424784379583713},{"Value":0.03022818546988007},{"Value":-0.2136042133964292},{"Value":0.49701542706217133},{"Value":-0.13109328188916708},{"Value":0.1702835358703037},{"Value":0.3773050080952826},{"Value":5.505738124240407},{"Value":0.41612897747081656},{"Value":0.16153950690105134},{"Value":-0.6613715312474457},{"Value":-0.03043976688201056},{"Value":-0.41847158625435954},{"Value":-0.002704079587196555},{"Value":0.0038945221285864797},{"Value":-0.06652161516616424},{"Value":0.12789265187076487},{"Value":0.5021623236238748},{"Value":0.17520259396579246},{"Value":0.04050245853824852},{"Value":0.05146517854585715},{"Value":0.3758768566448828},{"Value":-0.2989952965627661},{"Value":0.21127406059859052},{"Value":-0.10688928482060032},{"Value":0.25897964108885735},{"Value":0.026220490282458247},{"Value":-0.2059553372633507},{"Value":0.20769366549742027},{"Value":0.3134486657102106},{"Value":0.21523156292933307},{"Value":0.34394683424334116},{"Value":-0.15561718574830288},{"Value":0.5435194859939274},{"Value":0.4605697177371096},{"Value":-0.7249341452913147},{"Value":-0.13477597279058043},{"Value":0.23732561659549709},{"Value":0.7616149301736529},{"Value":0.039605147591420684},{"Value":-0.48345814455129715},{"Value":0.2584812581289088},{"Value":-0.2223934970543813},{"Value":0.043797192821588025},{"Value":0.04746393759083138},{"Value":0.2111012417183537},{"Value":0.19701282714197646},{"Value":0.06370942087292265},{"Value":0.12298965819817935},{"Value":0.08418067649188544},{"Value":-0.03437731909069836},{"Value":-0.11195705729071073},{"Value":0.30088156398424887},{"Value":0.45802521452119793},{"Value":0.17140643750395917},{"Value":0.08265720316121192},{"Value":0.059040067070494855},{"Value":-0.10833112754038778},{"Value":0.1457391787475226},{"Value":0.10851566710927393},{"Value":-0.012546405536232376},{"Value":0.18171387776308565},{"Value":-0.45573693997676545},{"Value":0.20897447868005753},{"Value":-0.22905517477385978},{"Value":-0.14646056006458932},{"Value":-0.09806737533875372},{"Value":0.24039928886333184},{"Value":-0.2635983380054358},{"Value":-0.050677938829830675},{"Value":0.1058057261394149},{"Value":-0.13343127954888842},{"Value":-0.4052788270773016},{"Value":0.1231319147243616},{"Value":0.691417743551614},{"Value":0.043459372944066293},{"Value":-0.2791274880381954},{"Value":0.1274845855302026},{"Value":0.5459156281033187},{"Value":-0.047740326631725685},{"Value":-0.08182823185180342},{"Value":0.033562641208068775},{"Value":0.11719434787000745},{"Value":-0.1012935920082843},{"Value":-0.5011407668881849},{"Value":0.13760982396180144},{"Value":-0.11143619642641393},{"Value":0.03126633862811598},{"Value":0.3507131859764683},{"Value":0.050770644304343665},{"Value":0.021631624682870408},{"Value":-0.07119349037234884},{"Value":-0.14567153993485057},{"Value":0.024982948171887783},{"Value":-0.07414440654113819},{"Value":-0.4302639231669961},{"Value":0.03654066153651231},{"Value":-0.24115418431985725},{"Value":0.5614749681876451},{"Value":0.3679397749197468},{"Value":0.1881697345217242},{"Value":-0.13032819024313905},{"Value":-0.08195988526700736},{"Value":-3.887363712169684},{"Value":-0.010733751053518245},{"Value":-0.12098679045519058},{"Value":-0.22059456407681866},{"Value":-0.19949324039657815},{"Value":-0.0685817258283815},{"Value":-0.14607565749866208},{"Value":-0.03705560196030348},{"Value":0.1865919334191788},{"Value":-0.10980009758983957},{"Value":0.2520443492482201},{"Value":0.08946415088053407},{"Value":0.12204554053344795},{"Value":0.05667716399585939},{"Value":-0.14081876817706593},{"Value":0.28818556186602134},{"Value":0.0782712741770932},{"Value":-0.001339173772451461},{"Value":-0.07467002485755854},{"Value":-0.04932518857964673},{"Value":-0.04088422704677609},{"Value":-0.19649963651474536},{"Value":0.051241212859076436},{"Value":0.11167393332357789},{"Value":-0.07623135451821154},{"Value":-0.17659925674195004},{"Value":-0.1040300782274568},{"Value":0.24605261662614356},{"Value":-0.3630409244965686},{"Value":-0.11218744427109607},{"Value":-0.18864954332520045},{"Value":0.08659947512720112},{"Value":-0.4303572233867637},{"Value":0.0008846383920321087},{"Value":-0.034107028128630854},{"Value":-0.21275012896347753},{"Value":0.3251222420374936},{"Value":0.46137537558249503},{"Value":-0.29032693863175835},{"Value":0.0522543215693118},{"Value":-0.04026417330510045},{"Value":0.09725655302807346},{"Value":0.5766087897746541},{"Value":-0.2073532597684856},{"Value":-0.25694677101783575},{"Value":-0.3005618834879261},{"Value":-0.12443110580548775},{"Value":0.01591524703562056},{"Value":0.3555961008265699},{"Value":-0.30856336959548786},{"Value":-0.1180297257327351},{"Value":0.056977628363890025},{"Value":0.03537303893919411},{"Value":-0.27008223737774956},{"Value":0.3238925189667458},{"Value":0.2565070510763975},{"Value":-0.045302988389012394},{"Value":0.3340002835594111},{"Value":0.11103363779291106},{"Value":-0.2812501326234558},{"Value":0.0696440437083042},{"Value":0.31398421792903325},{"Value":0.29827862028424657},{"Value":0.24346171339060396},{"Value":-0.7259549079822416},{"Value":0.6058786226330048},{"Value":0.266040066196411},{"Value":0.1294233405698859},{"Value":0.3953715946468513},{"Value":0.15809373250387573},{"Value":0.18108820531161898},{"Value":0.5719819332234041},{"Value":0.03110520717566089},{"Value":0.05338007777060475},{"Value":0.17127481588969803},{"Value":0.2696077035486553},{"Value":0.029061336760197592},{"Value":-0.4023040688904723},{"Value":0.2217068273554618},{"Value":0.01642489809980089},{"Value":-0.08629301728662347},{"Value":-0.2170124009644189},{"Value":-0.06781201440822789},{"Value":-0.4767678496550428},{"Value":-0.29215752497185754},{"Value":0.06951115584694328},{"Value":0.07794391000871256},{"Value":0.32955847010988126},{"Value":-0.16610448176069895},{"Value":0.11262609286905535},{"Value":-0.15542858998453177},{"Value":0.38120118291911986},{"Value":-0.046754994725457764},{"Value":0.07694547710022642},{"Value":0.01226210115568283},{"Value":-0.47656237932938134},{"Value":-0.13228471223489893},{"Value":0.47739480947922636},{"Value":0.011818958419337857},{"Value":-0.00936406097373517},{"Value":-0.34875374412462967},{"Value":0.15627221144916525},{"Value":0.3548815442702105},{"Value":-0.07756270628032245},{"Value":0.254432309387631},{"Value":-0.3515711421313118},{"Value":-0.287100812440777},{"Value":-0.20250588602626082},{"Value":0.1641841311578418},{"Value":0.12549363134411523},{"Value":-0.17094105471843},{"Value":0.0705528305307924},{"Value":-0.49760224237524775},{"Value":0.3033136917303985},{"Value":-0.20454310963354283},{"Value":0.23022514638378958},{"Value":0.02127663201349807},{"Value":-0.06392604996549321},{"Value":0.05441126849490197},{"Value":0.23939688176614915},{"Value":-0.19703273141883146},{"Value":-0.38210606832234695},{"Value":-0.10796548403905346},{"Value":-0.17884386851935125},{"Value":0.012882629316001325},{"Value":0.31386977930094156},{"Value":-0.39567389149271237},{"Value":-0.27004652973860316},{"Value":0.4348996799144313},{"Value":0.15725310949606067},{"Value":0.11296470528273553},{"Value":0.20615618172266945},{"Value":-0.05050664448747057},{"Value":-0.15099959617189013},{"Value":-0.2913215607478941},{"Value":0.18533445205711876},{"Value":-0.10033469513257497},{"Value":0.04803132543418701},{"Value":0.022085150027314884},{"Value":-0.23768208341958413},{"Value":-0.12401981706971653},{"Value":-0.4461248452910408},{"Value":-0.06532775835640822},{"Value":-0.25767674352007475},{"Value":-0.11182937588966192},{"Value":0.028439931963852135},{"Value":-0.22018850369903523},{"Value":0.12535774688875084},{"Value":0.10743751803844002},{"Value":0.21857140276094217},{"Value":0.11971895129698187},{"Value":0.44697379759922307},{"Value":0.07631366690632359},{"Value":-0.25302788186093317},{"Value":0.5586626811354801},{"Value":-0.1936564109022392},{"Value":-0.06874323825813028},{"Value":-0.05742363743829957},{"Value":-0.13477032222811267},{"Value":0.09865793761595484},{"Value":0.20353855991108388},{"Value":0.2539309221099407},{"Value":0.20559074185399578},{"Value":0.12192204933277072},{"Value":-0.26317836539885686},{"Value":0.11553133925257142},{"Value":0.14308230424238624},{"Value":-0.08786558973556971},{"Value":0.17730670932318673},{"Value":-0.22034606498121945},{"Value":0.04268474721919269},{"Value":-0.18416674256642024},{"Value":0.07855534293104618},{"Value":-0.15756898822117565},{"Value":-0.1977697868589329},{"Value":-0.05324743899877786},{"Value":-0.16624680776022283},{"Value":0.13229812710277494},{"Value":0.3031208022930178},{"Value":0.04869353273394786},{"Value":0.06302745950807971},{"Value":0.21731980558443337},{"Value":0.4733926438040069},{"Value":-0.09230674997399198},{"Value":-0.4088585461616525},{"Value":-0.09920357910113321},{"Value":0.0017949841879663728},{"Value":-0.04439145224676275},{"Value":0.06534158767707468},{"Value":-0.06789045842720354},{"Value":-0.04717544982862709},{"Value":-0.047585065877162415},{"Value":-0.11003465037000894},{"Value":-0.3064629014720749},{"Value":-0.14296750420737023},{"Value":0.13827694422497072},{"Value":0.24163170857136226},{"Value":0.07217283231564017},{"Value":0.08774381290477917},{"Value":0.3253036526675619},{"Value":-0.19805506140486923},{"Value":-0.19120597661387773},{"Value":-0.06188415694649279},{"Value":0.1653085670911778},{"Value":0.15835016429669085},{"Value":-0.0832557672791188},{"Value":-0.15730294061184172},{"Value":-0.05125829387025378},{"Value":0.12529750811181187},{"Value":0.12879714275474746},{"Value":0.3872633710049264},{"Value":0.15752146617317359},{"Value":-0.2689658373639444},{"Value":0.25676439026107395},{"Value":0.009482027900453402},{"Value":0.2464945707380665},{"Value":0.12020769504768396},{"Value":0.3572983844908929},{"Value":0.23796011123757402},{"Value":0.2475196687628643},{"Value":0.2260608116640631},{"Value":-0.003431195306709116},{"Value":0.15182903021398444},{"Value":-0.007025623358071423},{"Value":-0.16031559923422856},{"Value":0.19445838218020384},{"Value":-0.06503050507089826},{"Value":0.2836605877923729},{"Value":0.3147226637668922},{"Value":0.1717403461399623},{"Value":0.2698987274197637},{"Value":-0.151490150407334},{"Value":-0.2310532290965291},{"Value":0.25840720132969663},{"Value":0.019420036343945974},{"Value":0.563013089568156},{"Value":-0.06078093965071232},{"Value":-0.26368828486257606},{"Value":-0.45251675670714603},{"Value":-0.13633762630535468},{"Value":-0.17887173794336264},{"Value":0.1098206045996816},{"Value":0.17433126075270672},{"Value":0.36103000130795754},{"Value":-0.12518390876207144},{"Value":0.1809601244303783},{"Value":0.04572759699733517},{"Value":-0.6270156140363848},{"Value":0.3913850886027516},{"Value":-0.31712013306892656},{"Value":-0.06300575199500189},{"Value":0.14075719618403015},{"Value":0.2269626125912622},{"Value":0.13627631034194815},{"Value":-0.09379912510237519},{"Value":-0.422570724755418},{"Value":0.3202197327791381},{"Value":-0.4270568807901309},{"Value":0.2748345141311285},{"Value":0.1836038873334974},{"Value":-0.20544158221059675},{"Value":-0.02776842207710332},{"Value":-0.10028660900826387},{"Value":0.33137890400287046},{"Value":0.020682312656598534},{"Value":0.2986880839033939},{"Value":-0.25518816122844434},{"Value":-0.1466491123275707},{"Value":0.5015789921565593},{"Value":-0.08108473803309531},{"Value":0.11317141950923493},{"Value":0.08256479253105121},{"Value":0.21951443618352162},{"Value":-0.313743267962732},{"Value":-0.10989850584663921},{"Value":0.0020675541506545375},{"Value":0.11029912425143477},{"Value":-0.048013591623099976},{"Value":-0.3139493012485519},{"Value":0.36027296898730254},{"Value":-0.12607835505739332},{"Value":-0.12303135890867},{"Value":0.2873132487593029},{"Value":0.10633137850574798},{"Value":0.3247848331537177},{"Value":0.2107183113606469},{"Value":-0.18963417887543818},{"Value":0.06339982786513389},{"Value":-0.3717333667479135},{"Value":0.2295292121382809},{"Value":-0.1517867675472477},{"Value":-0.0073169780201323125},{"Value":0.444092331131942},{"Value":0.07604199736883235},{"Value":0.07946965341071124},{"Value":0.16797605454350198},{"Value":-0.24128631296388336},{"Value":-0.04914789869393983},{"Value":-0.11846256981040229},{"Value":-0.11982765537029644},{"Value":-0.121474118125937},{"Value":-0.1592062610448325},{"Value":0.41136797457010355},{"Value":0.1909377468643564},{"Value":-0.1568954894357926},{"Value":-0.10184219207561632},{"Value":-0.2564319302197007},{"Value":0.10449975938304619},{"Value":0.07305240323840181},{"Value":-0.2523652459242218},{"Value":-0.021580149575169974},{"Value":-0.37977605104642376},{"Value":-0.1898529027663229},{"Value":-0.2169236385783875},{"Value":0.188209493598716},{"Value":0.10704595567473353},{"Value":-0.1271479760377856},{"Value":-0.0762258729933953},{"Value":-0.03825556336249508},{"Value":-0.220688565995624},{"Value":0.05411061985340659},{"Value":0.29036783252777393},{"Value":-0.17825891724266665},{"Value":0.1933075946836363},{"Value":0.10346961733289525},{"Value":0.4018525878958628},{"Value":-0.06374778337004283},{"Value":0.24551791306502763},{"Value":0.23627639523844848},{"Value":0.24734954501744186},{"Value":-0.46873890154092057},{"Value":-0.14170321384870435},{"Value":0.5315258582295743},{"Value":0.20431336417705986},{"Value":0.3599916508802011},{"Value":-0.0318627401879893},{"Value":0.4028180482619424},{"Value":0.23998864025325717},{"Value":-0.008386482119621364},{"Value":0.22475864854850533},{"Value":0.0430401815098175},{"Value":-0.19852732401065873},{"Value":0.09231596346430099},{"Value":-0.5601733115817874},{"Value":0.4348268501003477},{"Value":0.3081392198889093},{"Value":0.17144805536042332},{"Value":0.1112000969412774},{"Value":0.3032904819989716},{"Value":-0.16454560036353363},{"Value":-0.19020930522491022},{"Value":0.27932061695787097},{"Value":-0.4581187850741827},{"Value":0.3841879823276069},{"Value":-0.10066586075957304},{"Value":-0.1749339105889442},{"Value":0.1890556921493865},{"Value":0.17577646713483397},{"Value":0.05374912378239093},{"Value":0.28668747516801996},{"Value":0.1553123303788147},{"Value":0.17028435039955409},{"Value":0.09462784622622301},{"Value":0.15779423698419776},{"Value":0.03800633191308783},{"Value":-0.10116824267334108},{"Value":0.142486302101688},{"Value":0.09369352060687906},{"Value":0.1733972758055509},{"Value":0.48844591856653935},{"Value":0.02373519440920028},{"Value":-0.013738034669556302},{"Value":-0.12019856632601217},{"Value":-0.026587842063072718},{"Value":0.028135027104360583},{"Value":-0.004799965578676996},{"Value":-0.1656653311686111},{"Value":0.30515132259374705},{"Value":-0.2809491328391594},{"Value":-0.46341928555410283},{"Value":0.07016172369948849},{"Value":0.12114729148479406},{"Value":-0.17370391763420678},{"Value":0.12321081120405172},{"Value":0.29280893217581444},{"Value":0.20593908856006438},{"Value":-0.26266322992395646},{"Value":0.32242248973185295},{"Value":-0.5089611389788161},{"Value":-0.27133102122096947},{"Value":-0.1618785198707267},{"Value":0.20774377821046433},{"Value":-0.17681450138087942},{"Value":0.12607628560000678},{"Value":-0.3506218912276214},{"Value":0.04607603982804646},{"Value":-0.2127166258860585},{"Value":0.11432103917266255},{"Value":0.16583567868824037},{"Value":-0.30765078352604547},{"Value":-0.10675929643706705},{"Value":-0.4749464891759865},{"Value":-0.25407742659603993},{"Value":0.04572842195545467},{"Value":0.10578684979924179},{"Value":-0.22544469315442953},{"Value":-0.09618110648813306},{"Value":-0.5187830054395408},{"Value":-0.2858919523428274},{"Value":0.14812291512046497},{"Value":0.02892457794721797},{"Value":0.22964209884409492},{"Value":-0.007886267940458222},{"Value":-0.09635483843083495},{"Value":-0.07555439573069772},{"Value":0.13090661650612806},{"Value":0.10738593396610303},{"Value":0.2363204029637927},{"Value":-0.07366926581352677},{"Value":0.06279347441717444},{"Value":0.06224462977452692},{"Value":-0.13092628979786947},{"Value":0.38987451494032077},{"Value":-0.06605423178973814},{"Value":-0.1638805452828357},{"Value":0.10312808978937739},{"Value":0.07684827627608001},{"Value":0.5999867898139091},{"Value":-0.011912512764517501},{"Value":-0.0353034008213012},{"Value":-0.242099756430549},{"Value":-0.2153240420235227},{"Value":0.13738616120865368},{"Value":0.16587005498255464},{"Value":0.16645318298655673},{"Value":-0.2833152427792313},{"Value":-0.09356453873856475},{"Value":0.5701045790548195},{"Value":-0.09163672801451661},{"Value":0.10149579673416875},{"Value":-0.4489940082475626},{"Value":-0.06790287615571784},{"Value":0.018336221003592702},{"Value":0.19166434169493182},{"Value":-0.062103527727585595},{"Value":0.1164702272667995},{"Value":-0.14050353753970923},{"Value":0.2637945542167039},{"Value":-0.38248902052030054},{"Value":0.23293371914772806},{"Value":0.05038448152962072},{"Value":-0.21230014369584016},{"Value":-0.18405279898805976},{"Value":-0.3167286370793813},{"Value":0.08894064221016214},{"Value":0.06739016791301564},{"Value":-0.3659595829841509},{"Value":-0.050218201641412434},{"Value":-0.1406706595474856},{"Value":0.025487857476409005},{"Value":-0.19591271798796575},{"Value":0.05691661825127113},{"Value":0.004983269348655407},{"Value":0.04821843845527095},{"Value":0.11580776561362961},{"Value":0.23729879028582895},{"Value":0.4130511304609377},{"Value":-0.06449450989063274},{"Value":0.03808672456325735},{"Value":0.09297927307733345},{"Value":-0.12534678632932972},{"Value":0.05640702404111037},{"Value":-0.030344668338842844},{"Value":-0.32062441554259297},{"Value":0.47379760895583706},{"Value":0.2703821329188666},{"Value":0.507852755172313},{"Value":0.425211330301966},{"Value":0.22541231237504472},{"Value":0.09093591258917318},{"Value":-0.137743046734189},{"Value":-0.16904041720963398},{"Value":-0.19137529228202133},{"Value":-0.35133255939749924},{"Value":-0.29449832981533397},{"Value":0.2523038995799685},{"Value":0.18157335197766533},{"Value":0.3290567227872895},{"Value":0.09689293444558389},{"Value":0.14994630079501214},{"Value":0.0762491838565234},{"Value":-0.18940382188775956},{"Value":-0.4382650274017898},{"Value":0.01339133849335011},{"Value":0.3151620196058418},{"Value":-0.011654913010852573},{"Value":-0.014354950579597363},{"Value":-0.4413768095296005},{"Value":-0.3045874813492969},{"Value":-0.07523348295816537},{"Value":-0.14461645826954408},{"Value":0.058235180629576784},{"Value":-0.1488805188687044},{"Value":-0.21507138201834064},{"Value":-0.09591355039114378},{"Value":0.10487849371350581},{"Value":-0.02593233136068172},{"Value":-0.024609661302276493},{"Value":0.03150669843808815},{"Value":-0.39729522285756863},{"Value":0.2542801696914404},{"Value":0.015808613954286323},{"Value":-0.11022641779389544},{"Value":0.13094168274055337},{"Value":0.006590829181575959},{"Value":0.2894325496357528},{"Value":0.6175369985630725},{"Value":0.044135684911115046},{"Value":0.28697721826564876},{"Value":0.5254362793543157},{"Value":0.17977961734278358},{"Value":0.4125953126815428},{"Value":0.3522467965233354},{"Value":0.1275897134050117},{"Value":-0.5444765915801903},{"Value":0.20503934588705822},{"Value":-0.39152408922374937},{"Value":0.09196790803320416},{"Value":0.08973069894293637},{"Value":0.2424108704169336},{"Value":0.4230594368412345},{"Value":0.06630080203792736},{"Value":-0.27631029178243216},{"Value":0.2566691780725922},{"Value":0.23629608445395384},{"Value":-0.1904593707320712},{"Value":0.11222956256613789},{"Value":0.10814576499388394},{"Value":-0.10721072927609904},{"Value":-0.3315043547467329},{"Value":-0.10783670620610553},{"Value":-0.06174751034218489},{"Value":-0.07959270985471424},{"Value":0.15084764821026875},{"Value":2.182860128810527},{"Value":0.13396684112675658},{"Value":-0.13573824491312203},{"Value":0.08874663896914943},{"Value":-0.035549603984952105},{"Value":-0.10865118889231702},{"Value":0.4809493423601385},{"Value":-0.46918917192674015},{"Value":-0.268368559775694},{"Value":-0.1301046667793682},{"Value":0.04359167648559711},{"Value":0.05673664039390461},{"Value":-0.2419559472136604},{"Value":-0.01718122641455278},{"Value":0.14311667934910957},{"Value":0.32136367968322144},{"Value":0.01858893490818391},{"Value":0.13726816468687342},{"Value":0.138696029047494},{"Value":0.06479529669202602},{"Value":-0.072740676015241},{"Value":-0.1273384967118392},{"Value":0.30281043185285894},{"Value":0.06940746120938256},{"Value":-0.3587482790909651},{"Value":0.15038401784347458},{"Value":-0.20901022538337133},{"Value":0.0467353174194296},{"Value":-0.039770061070419783},{"Value":0.1594390619445425},{"Value":-0.0560539718404578},{"Value":-0.342034690218118},{"Value":-0.07204791967860635},{"Value":0.1678667527285807},{"Value":0.3146652979963571},{"Value":0.02970988849179402},{"Value":-0.6357550288609944},{"Value":0.14214479844500658},{"Value":-0.02968267122813258},{"Value":0.0044562453244831055},{"Value":-0.2395740207855789},{"Value":-0.04341736861152092},{"Value":-0.06699037225483696},{"Value":-0.256873267118868},{"Value":0.2920118199643559},{"Value":0.3428824438620846},{"Value":0.30760373058956897},{"Value":-0.4387824852504706},{"Value":-0.1371410325012635},{"Value":-0.6869585448579929},{"Value":0.16796083855990698},{"Value":0.37290567751567194},{"Value":0.004701230352928916},{"Value":0.16098629649979965},{"Value":0.11544237546593494},{"Value":0.07578398806195606},{"Value":0.2659125811106749},{"Value":0.16939922827576834},{"Value":0.6783893816723436},{"Value":0.18188377142040488},{"Value":0.1908678023102622},{"Value":-0.03189473569024573},{"Value":0.0055872347292806965},{"Value":0.2628641495828959},{"Value":0.650238319894807},{"Value":-0.2356509739229208},{"Value":0.2794720900554155},{"Value":-0.3296828556745026},{"Value":-0.03507753013893373},{"Value":0.2153876421862898},{"Value":-0.314490559863587},{"Value":0.3926592171962969},{"Value":-0.023848980728143527},{"Value":-0.1360590516771504},{"Value":0.11406830567365636},{"Value":0.30667404535410175},{"Value":-0.43681960328254765},{"Value":0.03525218209602382},{"Value":-0.16381882197270212}],"Dimensions":[32,32],"Multipliers":[32,1],"Rank":2,"ElementCount":1024},"Biases":{"Data":[{"Value":0.008683977515351615},{"Value":0.008632230651250542},{"Value":0.011261867484536756},{"Value":0.008535656455056077},{"Value":0.008714413857211122},{"Value":0.01185474578690775},{"Value":0.008622292609764135},{"Value":0.008739372238488077},{"Value":0.011292420082810178},{"Value":0.00870831735978181},{"Value":0.008705876867538197},{"Value":0.011296194153644887},{"Value":0.011277423585066025},{"Value":0.011301297117695699},{"Value":0.011361997090358558},{"Value":0.008703178993839664},{"Value":0.011210797827052333},{"Value":0.009400689942166437},{"Value":0.01136946671907507},{"Value":0.008730530085892581},{"Value":0.00873076210384136},{"Value":0.008807723471855608},{"Value":0.008722573468839007},{"Value":0.008576696134034322},{"Value":0.01130651801165443},{"Value":0.01128444402691885},{"Value":0.00872549308385937},{"Value":0.011328359976753062},{"Value":0.008680339574605697},{"Value":0.008741693557050704},{"Value":0.01128510179427819},{"Value":0.01128501063200795}],"Dimensions":[32],"Multipliers":[1],"Rank":1,"ElementCount":32},"Activation":"NNN.LeakyReLU, NNN, Version=1.0.0.0, Culture=neutral, PublicKeyToken=null"},{"NeuronCount":4,"LayerName":"NNN.Dense, NNN, Version=1.0.0.0, Culture=neutral, PublicKeyToken=null","Weights":{"Data":[{"Value":0.0416871133611046},{"Value":0.09450141355184105},{"Value":0.17411389014037926},{"Value":-0.3011515859002223},{"Value":0.3326453977106854},{"Value":-0.14228118203999038},{"Value":0.12219264071099384},{"Value":-0.2081771521272481},{"Value":0.2409124660357728},{"Value":-0.4173559458126967},{"Value":0.060547749242740305},{"Value":0.06844909886863522},{"Value":0.20278798352144295},{"Value":-0.22129455729644712},{"Value":0.04620508608347784},{"Value":-0.21149285213648203},{"Value":-0.1868562837660918},{"Value":0.2544595802677013},{"Value":-0.12286022589273064},{"Value":-0.1311847111017772},{"Value":-0.36534649631453575},{"Value":-0.07659701334664268},{"Value":0.001875817192160917},{"Value":0.005567603470505019},{"Value":0.3942000570285288},{"Value":0.06474831281778574},{"Value":-0.17044017774996856},{"Value":-0.012444410540706989},{"Value":0.02964134245765852},{"Value":-0.07164593529046259},{"Value":-0.2667708429380316},{"Value":0.17778263710416112},{"Value":-0.10277976821441273},{"Value":0.23208919290368954},{"Value":-0.4509221288624233},{"Value":-0.1565659470977968},{"Value":0.25743360157414075},{"Value":0.07269276504630745},{"Value":-0.15447846593581777},{"Value":-0.13437403898133102},{"Value":0.2738154924931368},{"Value":-0.07134310396025005},{"Value":-0.6336520458499452},{"Value":-0.43037976354819524},{"Value":-0.13736186041069667},{"Value":0.2745271635231769},{"Value":-0.054021077836096894},{"Value":-0.06065473837005544},{"Value":-0.12329331816386338},{"Value":-0.19994785074534402},{"Value":0.24706119749242889},{"Value":0.5016782058391085},{"Value":0.20591265575693285},{"Value":0.03765865217072678},{"Value":0.1709127959560791},{"Value":0.0673997485128242},{"Value":-0.5939071404639906},{"Value":-0.09753834944224354},{"Value":-0.3466580277519556},{"Value":-0.021289543188089507},{"Value":-0.1334043889157547},{"Value":-0.03133596366064132},{"Value":-0.05348462642698637},{"Value":-0.15968483082193027},{"Value":0.03200995955037413},{"Value":0.046605351097241884},{"Value":-0.28298192564777774},{"Value":-0.1912062933736992},{"Value":-0.2724784283732762},{"Value":0.4456656035927198},{"Value":0.20152912672308126},{"Value":-0.20487410178520854},{"Value":0.17082217869568425},{"Value":0.16617689996016596},{"Value":-0.14120931372753714},{"Value":0.3704837491196995},{"Value":0.11326490902543093},{"Value":-0.022603632122982734},{"Value":-0.1994526099266221},{"Value":0.5897582072345001},{"Value":-0.19495021377382984},{"Value":0.15275627207808162},{"Value":-0.4279350762234881},{"Value":-0.1372523062335958},{"Value":0.01678595403475072},{"Value":-0.10271398211909283},{"Value":-0.4600073639051781},{"Value":0.5243086918444861},{"Value":0.05884411117172437},{"Value":0.26260630052113565},{"Value":0.267197665356673},{"Value":0.023035774362673588},{"Value":0.5040042131532474},{"Value":-0.04647879104297611},{"Value":0.24432722048110014},{"Value":-0.4987956055312159},{"Value":-0.31215622610541954},{"Value":0.17910430287236845},{"Value":0.11655973007719207},{"Value":0.26322902323538394},{"Value":-0.080335401857832},{"Value":0.0786017194485015},{"Value":0.2968472210539196},{"Value":0.08863294721140627},{"Value":0.176752569013893},{"Value":0.2021784057610775},{"Value":0.03216814840392652},{"Value":-0.15771888342958196},{"Value":0.0345526583851062},{"Value":0.15537588498133867},{"Value":0.04010901445782351},{"Value":0.5718064640132753},{"Value":0.17231167604709144},{"Value":-0.04995365631049549},{"Value":-0.21793431529167756},{"Value":-0.3846850034012506},{"Value":-0.003806992916526376},{"Value":-0.145115436024439},{"Value":0.14588175402651993},{"Value":-0.34008847927255315},{"Value":-0.07045633186619388},{"Value":0.0982152988317085},{"Value":0.5129998508911191},{"Value":-0.08274777549116073},{"Value":-0.48454539050284984},{"Value":0.3015187144182002},{"Value":0.0196573649846003},{"Value":0.10812278584900167}],"Dimensions":[32,4],"Multipliers":[4,1],"Rank":2,"ElementCount":128},"Biases":{"Data":[{"Value":0.008474101173228},{"Value":0.011337314036440364},{"Value":0.011261840029637907},{"Value":0.011325265845046936}],"Dimensions":[4],"Multipliers":[1],"Rank":1,"ElementCount":4},"Activation":"NNN.Linear, NNN, Version=1.0.0.0, Culture=neutral, PublicKeyToken=null"}]}