{"Layers":[{"NeuronCount":32,"LayerName":"NNN.Dense, NNN, Version=1.0.0.0, Culture=neutral, PublicKeyToken=null","Weights":{"Data":[{"Value":0.7818982259726723},{"Value":0.5147664008124055},{"Value":-0.2344826364467676},{"Value":0.4350959353969619},{"Value":0.2929316155278356},{"Value":-0.8667526780558334},{"Value":-0.690946193090998},{"Value":-0.15913432235958894},{"Value":0.052755490796948495},{"Value":-0.29449699131150076},{"Value":-1.0835681964167767},{"Value":0.20460465124601787},{"Value":0.5005569715561232},{"Value":1.3852762682535156},{"Value":0.22644118513553724},{"Value":0.6682460111293872},{"Value":-0.4199772145979537},{"Value":-0.9337805800228941},{"Value":0.6675818576680593},{"Value":-0.012712745034509795},{"Value":-1.0271841158104216},{"Value":0.3967364213924419},{"Value":-0.0514765071048554},{"Value":0.677532543354483},{"Value":-0.3312555867455339},{"Value":1.4464476131547355},{"Value":-0.6195534410022745},{"Value":0.8578108215786402},{"Value":-1.3794216167619733},{"Value":0.20077380535571976},{"Value":0.5537161936641883},{"Value":0.9769490922863328},{"Value":-0.09107297294284794},{"Value":-0.07070380533920756},{"Value":-1.703568520299312},{"Value":0.6658445345598579},{"Value":1.0092863263423208},{"Value":0.2161489828405878},{"Value":0.1486722170897259},{"Value":-0.393976125203773},{"Value":0.971576961826018},{"Value":-0.39350060422642136},{"Value":1.1558306715452673},{"Value":0.5395405993309219},{"Value":0.2634763369480337},{"Value":-0.19404876454454748},{"Value":-1.5424286132107419},{"Value":0.36714656439868065},{"Value":-0.3327721175959604},{"Value":-0.6723581800737213},{"Value":-0.49579082150466336},{"Value":0.23287218182241995},{"Value":-0.4499764777678582},{"Value":0.12265084769879588},{"Value":-0.5341963222780773},{"Value":-1.3224855707388146},{"Value":1.1870137323813352},{"Value":-0.22358540023175288},{"Value":0.00959257167182405},{"Value":-0.9258740308211032},{"Value":0.2676647706156213},{"Value":-0.11838223561723574},{"Value":1.0742886900884119},{"Value":-0.00729566278499557},{"Value":0.5101789402340431},{"Value":0.318123962060029},{"Value":-1.4265469035535951},{"Value":-0.03306812566577049},{"Value":1.1144406111277072},{"Value":0.9359512722895977},{"Value":-0.10575494026462381},{"Value":-0.16258087385059328},{"Value":0.5982149542274512},{"Value":-0.30727372482296533},{"Value":0.8097932237718053},{"Value":0.17975322786750134},{"Value":0.06238274840553084},{"Value":-0.6450916609611728},{"Value":-0.9561514326874161},{"Value":0.09577416376810212},{"Value":0.3011887449230538},{"Value":-0.7240904437251896},{"Value":0.03280262672902983},{"Value":0.06569552954469293},{"Value":-0.8525656489938342},{"Value":0.5809451602199369},{"Value":-0.26315200265784017},{"Value":1.802219568223122},{"Value":-0.13760942610177113},{"Value":-0.3701079894902612},{"Value":-0.16727833645321197},{"Value":-0.2541903783896614},{"Value":0.35852998011245624},{"Value":-0.33298509787188313},{"Value":0.43966238474201735},{"Value":0.20490944443770356},{"Value":-0.12150895175643264},{"Value":0.4034225369725522},{"Value":-0.4247985623580773},{"Value":0.6240866600848215},{"Value":-0.33434373787335847},{"Value":0.876065335724209},{"Value":0.1275099117910896},{"Value":-1.6141584019027777},{"Value":-0.39867062041723567},{"Value":-1.0565859306465248},{"Value":0.1343952361003481},{"Value":0.20962076722774578},{"Value":-1.0261993773026725},{"Value":0.45394226969675794},{"Value":-0.620806741230888},{"Value":-0.00635662861036683},{"Value":-0.01768882573735951},{"Value":-0.008909118748935681},{"Value":0.10871140260843928},{"Value":0.8401316706390738},{"Value":-0.24180388696122998},{"Value":0.4945354265856356},{"Value":0.13965295531644994},{"Value":-0.09944990066976304},{"Value":0.3291708784209638},{"Value":0.20205679661288722},{"Value":0.22561564166505899},{"Value":-1.2349589425018044},{"Value":0.2277966146046316},{"Value":-1.6701699585947312},{"Value":0.171729151396883},{"Value":-0.6281258300968245}],"Dimensions":[4,32],"Multipliers":[32,1],"Rank":2,"ElementCount":128},"Biases":{"Data":[{"Value":0.00872222779740808},{"Value":0.008821146849530401},{"Value":0.00873622686597879},{"Value":0.00869458449301325},{"Value":0.008719793009128767},{"Value":0.01121191681289058},{"Value":0.011291361880559752},{"Value":0.008721227854699191},{"Value":0.008681077532862447},{"Value":0.008726229951562562},{"Value":0.008698445135437573},{"Value":0.009068317464381737},{"Value":0.011298597915962851},{"Value":0.00873729581348438},{"Value":0.008734623084273462},{"Value":0.011227855017972334},{"Value":0.011245409290066559},{"Value":0.011283202111422742},{"Value":0.008718539314382151},{"Value":0.008744145761945911},{"Value":0.008730125649111825},{"Value":0.0112688047366773},{"Value":0.008741649976138018},{"Value":0.008722295178969178},{"Value":0.011290840865559487},{"Value":0.011243281474493534},{"Value":0.008689148162912918},{"Value":0.011240296987435675},{"Value":0.008725375407735013},{"Value":0.008706731898738836},{"Value":0.011303578683768396},{"Value":0.011263771945931863}],"Dimensions":[32],"Multipliers":[1],"Rank":1,"ElementCount":32},"Activation":"NNN.LeakyReLU, NNN, Version=1.0.0.0, Culture=neutral, PublicKeyToken=null"},{"NeuronCount":32,"LayerName":"NNN.Dense, NNN, Version=1.0.0.0, Culture=neutral, PublicKeyToken=null","Weights":{"Data":[{"Value":-0.09720524697510352},{"Value":-0.21345409361817627},{"Value":-0.11602424621336446},{"Value":0.19479496733621976},{"Value":-0.587876741413988},{"Value":-0.3737886605795843},{"Value":0.06323960762578658},{"Value":-0.13916654756185723},{"Value":-0.16803656644264375},{"Value":0.06723588790430281},{"Value":0.12744688904144125},{"Value":-0.4427143636595538},{"Value":0.0869050453727234},{"Value":0.25470081193213046},{"Value":-0.4748108319755466},{"Value":0.26102776248881954},{"Value":0.11558178753669816},{"Value":-0.11708590713602036},{"Value":0.3326012181923922},{"Value":0.0342683145322962},{"Value":-0.41329117440452584},{"Value":-0.05713667628592947},{"Value":0.040069261182775234},{"Value":0.5448339090437939},{"Value":0.11555180201076383},{"Value":-0.1335794399306353},{"Value":0.21740050265813804},{"Value":0.18816528652913977},{"Value":0.2424506568057066},{"Value":-0.08253541125188646},{"Value":-0.2674682497102964},{"Value":-0.7981560615986856},{"Value":0.49526238331538175},{"Value":-0.008750684185828726},{"Value":-0.10029470532716057},{"Value":-0.39542385194966406},{"Value":0.0675118910570228},{"Value":0.10051597281937089},{"Value":0.011773561088930738},{"Value":-0.0790674231556372},{"Value":-0.10058476539351212},{"Value":0.27928900060766676},{"Value":0.4151185663333585},{"Value":-0.10270352576685965},{"Value":0.36946169988052807},{"Value":-0.3458805631945418},{"Value":0.29085661684406305},{"Value":-0.1775781728780476},{"Value":-0.00620166516469343},{"Value":0.07944959291058742},{"Value":-0.25677675299586616},{"Value":-0.07123745182231983},{"Value":0.03225365921423444},{"Value":0.1303924564155186},{"Value":0.12957514744487464},{"Value":0.11140090512784814},{"Value":0.10143979752517808},{"Value":-0.1683187559119577},{"Value":-0.12052474146548511},{"Value":-0.47328334504833786},{"Value":0.16345143848119112},{"Value":-0.27504490690998834},{"Value":-0.4590148016726669},{"Value":0.034060274931157944},{"Value":0.40268144486085916},{"Value":-0.16078032705165626},{"Value":-0.3009633788366445},{"Value":0.0003064143459667673},{"Value":-0.33566076731393407},{"Value":-0.06896731727811482},{"Value":-0.25760842561487746},{"Value":0.03215798818685129},{"Value":-0.17868652023706752},{"Value":-0.11830939958885935},{"Value":0.19233436179447239},{"Value":-0.2400486007418361},{"Value":-0.11151136708273961},{"Value":-0.05493949035644136},{"Value":0.12357711161368143},{"Value":0.14663236425170875},{"Value":-0.0742086307778885},{"Value":0.08982618359664744},{"Value":-0.020517078408540647},{"Value":-0.01844199105440934},{"Value":0.017513215770418623},{"Value":-0.30441459391883713},{"Value":0.07414297164206915},{"Value":-0.32602525530977444},{"Value":-0.6440082171578914},{"Value":0.2542026451665225},{"Value":-0.25581855576045853},{"Value":-0.430266786362508},{"Value":-0.4800415459262746},{"Value":-0.13476909448741375},{"Value":-0.28727685532286046},{"Value":0.26428916158831894},{"Value":-0.07949634582843339},{"Value":0.028771771102857505},{"Value":-0.2022410061271149},{"Value":0.11534152023369022},{"Value":0.1858783628652275},{"Value":-0.26503793700173717},{"Value":-0.03536801560312137},{"Value":-0.042668358906264484},{"Value":0.12375693298282053},{"Value":-0.11138718658355608},{"Value":-0.06509635200052545},{"Value":0.11628408285275864},{"Value":0.022401244688894182},{"Value":0.5703855730151739},{"Value":-0.31965886983738695},{"Value":0.1876662747954051},{"Value":0.0957525054476545},{"Value":-0.345515298046072},{"Value":0.041987175808108144},{"Value":-0.0062205211649090635},{"Value":-0.09073394653941808},{"Value":-0.04632728115580921},{"Value":-0.0456328439560013},{"Value":0.13140371124622607},{"Value":0.20040865234178243},{"Value":0.051364958217678836},{"Value":-0.40117543359072266},{"Value":0.03496387826387393},{"Value":0.042336132787148324},{"Value":-0.02575683684411847},{"Value":0.46733303830092743},{"Value":0.12963803605440805},{"Value":0.39499062721760614},{"Value":0.10947166529545474},{"Value":0.16955630948277428},{"Value":0.3282579768822629},{"Value":-0.24813349080081035},{"Value":0.09282723621944351},{"Value":-0.14753846179536925},{"Value":-0.0303566016019031},{"Value":0.17958953157336988},{"Value":-0.46817510065847223},{"Value":-0.26170078079373316},{"Value":0.3036870441716423},{"Value":-0.3388367660881263},{"Value":0.10145255553203227},{"Value":-0.32865407816783815},{"Value":0.05757096701327974},{"Value":0.22409773930493324},{"Value":0.28550057196009326},{"Value":-0.14642668573645864},{"Value":0.14858698370993687},{"Value":0.03235974878741445},{"Value":-0.22203407747138063},{"Value":0.2014417713210947},{"Value":-0.0575193690032748},{"Value":0.38535509465213647},{"Value":-0.1686468763264911},{"Value":-0.053431012410453296},{"Value":-0.062454278049194054},{"Value":-0.09884513676989562},{"Value":0.13243955133076862},{"Value":0.16060919053613718},{"Value":0.1739583301681556},{"Value":0.031604554624073904},{"Value":0.14775967793361372},{"Value":0.014549289964198913},{"Value":0.24385430340851427},{"Value":0.6309131467341855},{"Value":0.20719019599137775},{"Value":0.3860946302978198},{"Value":0.19709837328772414},{"Value":0.19182700041131864},{"Value":0.28011331811121776},{"Value":0.04756093827889805},{"Value":-0.33618869152800723},{"Value":0.07015995473840983},{"Value":-0.11641493144080951},{"Value":-0.1949321501218744},{"Value":-0.12903878673654165},{"Value":0.06446537818173789},{"Value":-0.1429418256679156},{"Value":0.04746045305119179},{"Value":0.12349775250210893},{"Value":-0.39018857517907274},{"Value":-0.029671446091890475},{"Value":-0.49644396130605734},{"Value":0.28153619600783814},{"Value":-0.3547847700999304},{"Value":-0.295009430011421},{"Value":-0.12695918705643827},{"Value":0.0853223271487766},{"Value":0.1674115845337136},{"Value":0.1787903043531395},{"Value":-0.04781023478900823},{"Value":-0.16498589349846113},{"Value":-0.3283464085604662},{"Value":0.13060468427204652},{"Value":-0.23612247978619222},{"Value":-0.07659648752439065},{"Value":-0.015311444966812051},{"Value":0.15386261936745146},{"Value":0.0054845491213340565},{"Value":-0.1391333939019861},{"Value":0.20785248690422353},{"Value":0.09883402419276581},{"Value":-0.24008122615874838},{"Value":-0.878187637210309},{"Value":0.40892633231250064},{"Value":-0.3682075079304554},{"Value":-0.04077488820610343},{"Value":-0.15224794460255744},{"Value":-0.42141524671170955},{"Value":0.16758247072319274},{"Value":0.1485668924046227},{"Value":0.30948734888680046},{"Value":0.44418461049955377},{"Value":-0.19279349408728227},{"Value":0.03615738232331795},{"Value":0.2731927951400549},{"Value":-0.3112100023899495},{"Value":0.21403748753977317},{"Value":0.15948756521245094},{"Value":-0.36190877211348954},{"Value":-0.3555040964752172},{"Value":-0.13244407227628363},{"Value":-0.24239555867768617},{"Value":0.22705064978190043},{"Value":0.2237268570237169},{"Value":-0.03307419215495153},{"Value":0.06096816238434082},{"Value":0.04940058384076449},{"Value":-0.3226900271623984},{"Value":0.043927042696015224},{"Value":0.015919678055763282},{"Value":0.029402634251788597},{"Value":-0.0727364434046054},{"Value":0.15048428285810836},{"Value":-0.12944033964709614},{"Value":0.011800884602816062},{"Value":-0.00763333209561767},{"Value":-0.022062212548851125},{"Value":-0.28274469755974746},{"Value":0.0656713028339871},{"Value":-0.060622876300639686},{"Value":0.3831191623012288},{"Value":0.22331743984383043},{"Value":0.04128049696463244},{"Value":0.0569086701544351},{"Value":0.1794556733689861},{"Value":0.2537735613712366},{"Value":0.010293877647120791},{"Value":-0.08733451820728871},{"Value":0.019013366719614334},{"Value":-0.1748351671630733},{"Value":-0.34215345394690316},{"Value":0.04112910681280315},{"Value":0.01033949652785342},{"Value":0.07779792836316055},{"Value":-0.24374288414132475},{"Value":0.5095203868167653},{"Value":-0.48697487971332676},{"Value":0.021324810210282957},{"Value":0.42678661788675865},{"Value":0.09224061158977663},{"Value":0.16132957932015204},{"Value":0.11709809979755037},{"Value":-0.3392807429983644},{"Value":0.29345746987688903},{"Value":0.11974645539117654},{"Value":-0.010297024488140842},{"Value":-0.21799333742924357},{"Value":0.34354797846726304},{"Value":0.08215085945598624},{"Value":0.5824082342555931},{"Value":0.7117731474509362},{"Value":-0.10283093180233129},{"Value":-0.3477297153575793},{"Value":0.19906049340639817},{"Value":0.1232414654723232},{"Value":0.2501208215375795},{"Value":0.14063040350080638},{"Value":-0.2526691864754036},{"Value":0.1251043961175393},{"Value":-0.30219098109919806},{"Value":-0.3622383260030984},{"Value":-0.15483784926367222},{"Value":0.098388404440124},{"Value":-0.0501739952742902},{"Value":0.14782836094027368},{"Value":-0.7061128262069859},{"Value":0.10147778924764463},{"Value":0.05332528828877573},{"Value":-0.005905674362997817},{"Value":-0.1573136421518609},{"Value":0.364926854081808},{"Value":0.3742793014852339},{"Value":-0.08927548132448476},{"Value":0.12185750195624401},{"Value":0.3867682148089617},{"Value":0.7272014820745771},{"Value":0.26143862120965},{"Value":-0.06051611989696573},{"Value":0.053720576108251684},{"Value":0.3478000797731941},{"Value":-0.2076545886171584},{"Value":-0.09086070038662397},{"Value":0.8324843941487908},{"Value":-0.11267588415155304},{"Value":0.052728004696979844},{"Value":0.09611314443789676},{"Value":-0.40018684723386116},{"Value":-0.19567185607630103},{"Value":-0.07304655763195345},{"Value":0.4678383123990843},{"Value":-0.03199142466036425},{"Value":-0.05823787275081732},{"Value":-0.19479578233667896},{"Value":0.3180626154888377},{"Value":-0.23970813739923194},{"Value":0.05444382676090095},{"Value":-0.015638534708651574},{"Value":0.03244223020322206},{"Value":0.2160409053856752},{"Value":0.2551765408424942},{"Value":-0.009360013585085977},{"Value":0.07036134116887661},{"Value":0.1762503313288459},{"Value":0.23610332546909935},{"Value":0.03109330432951455},{"Value":0.3727003387242318},{"Value":-0.18189444875792862},{"Value":-0.31516274051647186},{"Value":-0.0033780385153179245},{"Value":0.11526100416877162},{"Value":0.09884354574067267},{"Value":0.046487471953310315},{"Value":0.09895066124166531},{"Value":0.4002897513873488},{"Value":0.24697979315456448},{"Value":-0.23800429083988622},{"Value":-0.1568710499854688},{"Value":-0.11722127152034083},{"Value":0.014688078994722567},{"Value":-0.17071203172677865},{"Value":0.12831442669055562},{"Value":0.29856692337061497},{"Value":0.05601926564777152},{"Value":0.023461429991766522},{"Value":0.06410474530068899},{"Value":-0.017476429296532446},{"Value":-0.061626900649273356},{"Value":0.15344425225891933},{"Value":0.1184707436413573},{"Value":0.02836693770535542},{"Value":-0.11979766181293416},{"Value":-0.12665985339047073},{"Value":0.3723813884687242},{"Value":-0.034943732938955196},{"Value":-0.10425315561805858},{"Value":-0.15827527857402285},{"Value":-0.19138076454379988},{"Value":0.30606429637971655},{"Value":-0.040500965750399694},{"Value":0.029205832845527923},{"Value":0.30463335547515386},{"Value":0.06640208320561551},{"Value":-0.1699088654223774},{"Value":-0.011277231256880646},{"Value":-0.10982136541806267},{"Value":-0.12184630839966276},{"Value":0.18639202576780015},{"Value":-0.03914088923838026},{"Value":0.03319320006995713},{"Value":-0.043813489994294595},{"Value":0.19800700991396386},{"Value":0.2269484434144529},{"Value":0.2330929520668229},{"Value":-0.3706955265449182},{"Value":-0.1719120487472681},{"Value":0.2374129323743164},{"Value":0.19585536883743745},{"Value":0.052996720307665834},{"Value":-0.11207708844168944},{"Value":0.21039007533308782},{"Value":-0.1842547576409507},{"Value":0.2502870444746839},{"Value":0.0755966019320237},{"Value":0.1179455892081361},{"Value":0.08352574801219073},{"Value":-0.11759326679648292},{"Value":-0.30389483347305735},{"Value":-0.1739297818410909},{"Value":0.22132435358394711},{"Value":-0.18929677681327164},{"Value":0.020374101843268804},{"Value":-0.084690261998747},{"Value":0.1538714937155996},{"Value":-0.08518106939315465},{"Value":-0.11069780779282413},{"Value":0.06523315565957503},{"Value":-0.0808993410487021},{"Value":-0.24035053404638615},{"Value":-0.11082312582605319},{"Value":-0.3646525030700861},{"Value":0.09166900475904889},{"Value":-0.06520081389968167},{"Value":0.22026720516812645},{"Value":0.02321302689082901},{"Value":0.099175761407361},{"Value":0.35985305049023436},{"Value":-0.12830971481939038},{"Value":-0.3086538503794447},{"Value":0.021118243188447267},{"Value":-0.033385374307699854},{"Value":-0.21147308799908932},{"Value":-0.2241807363987491},{"Value":-0.28797549734655925},{"Value":0.08554650481462643},{"Value":-0.003267336274127433},{"Value":0.04967133463598489},{"Value":0.07023091950786244},{"Value":-0.19777927841986914},{"Value":-0.29772382351246296},{"Value":-0.1036691455041887},{"Value":-0.11948082621092934},{"Value":-0.24503091480731348},{"Value":-0.41889840750319496},{"Value":-0.4295576898847036},{"Value":-0.38323152353878676},{"Value":0.1269446392786184},{"Value":0.12461821442717602},{"Value":-0.18874142091968177},{"Value":-0.10882808554813601},{"Value":-0.44612020516369677},{"Value":0.023389951910885283},{"Value":0.21575963660412364},{"Value":0.03305019689314449},{"Value":0.3003121581360149},{"Value":-0.2802417837732773},{"Value":-0.09172714182000943},{"Value":-0.42662000803795397},{"Value":-0.3449919347379284},{"Value":-0.24384523088123267},{"Value":-0.317325578554582},{"Value":0.3971426759212564},{"Value":-0.344221442592749},{"Value":0.19570692648492077},{"Value":-0.09712290906182873},{"Value":0.09918595625933056},{"Value":-0.13428072199764052},{"Value":-0.36603383677589507},{"Value":0.02852637147735508},{"Value":0.05647533870740271},{"Value":-0.01882903933658737},{"Value":-0.0010276117352821836},{"Value":-0.06670831433597979},{"Value":-0.12119135123902108},{"Value":-0.2715492071976595},{"Value":-0.18361262115722418},{"Value":0.029294426747810704},{"Value":-0.20451496551037604},{"Value":-0.07989050758326173},{"Value":0.15764399209938768},{"Value":-0.08132662020573211},{"Value":0.025193638482899447},{"Value":0.06122427508181151},{"Value":0.09896132811472808},{"Value":0.4222341911654294},{"Value":0.49026087803314605},{"Value":0.18844698507079677},{"Value":-0.31965528428942863},{"Value":-0.0465647363684062},{"Value":0.026264828812586054},{"Value":0.22771826302072481},{"Value":0.2917827928992357},{"Value":0.012812443543017603},{"Value":-0.11134554671157934},{"Value":0.2003460675783258},{"Value":-0.5525879178512644},{"Value":0.23676688246196362},{"Value":0.2717431406184207},{"Value":-0.07241953004612098},{"Value":0.25703355665667577},{"Value":-0.22767528826041225},{"Value":-0.014999018339685722},{"Value":0.3764337571678712},{"Value":-0.3720359694194344},{"Value":0.1156657398402059},{"Value":-0.014101338040213976},{"Value":0.28687113239965895},{"Value":0.33754247124625913},{"Value":-0.16894707929132607},{"Value":-0.17566445089420002},{"Value":-0.3260241548238009},{"Value":-0.15132032846274002},{"Value":-0.16173185077347385},{"Value":-0.10275700128849928},{"Value":-0.18075390453379359},{"Value":-0.03225425511389281},{"Value":0.20370468919550352},{"Value":0.09841226054730101},{"Value":-0.48705916657989695},{"Value":-0.15309956674600103},{"Value":-0.06205844832818145},{"Value":-0.13567499939997363},{"Value":0.1289699432835341},{"Value":-0.025790094373251696},{"Value":0.07342748550378062},{"Value":0.40650393666903667},{"Value":-0.03738839176991354},{"Value":0.021243276948167113},{"Value":0.11891044722816455},{"Value":0.052066227547491045},{"Value":-0.010543812194728119},{"Value":-0.03351189592055476},{"Value":0.35247254238588444},{"Value":-0.2575938814686022},{"Value":-0.059068602635397816},{"Value":0.38420526286538836},{"Value":0.01597188103499398},{"Value":0.31310652413025986},{"Value":0.10086494720573774},{"Value":0.41804519254702033},{"Value":-0.1350717036714088},{"Value":0.05333838951191518},{"Value":0.3161822517572209},{"Value":0.08671537725536621},{"Value":-0.0967676391133574},{"Value":-0.21268251652653214},{"Value":0.011746112608542173},{"Value":-0.1292905431986086},{"Value":0.5344506135726762},{"Value":-0.4906218258808077},{"Value":0.008962570596254221},{"Value":0.03512375710926288},{"Value":-0.19836912120150849},{"Value":-0.20832293986423425},{"Value":0.2736740664153509},{"Value":0.07065373583187538},{"Value":-0.032068238136482824},{"Value":-0.1551900445022885},{"Value":0.130443145765091},{"Value":-0.19560754139031292},{"Value":-0.45026609899083964},{"Value":0.22427433948498898},{"Value":-0.11361194065314158},{"Value":-0.16001621436508878},{"Value":-0.2806199149832651},{"Value":0.23491474742425167},{"Value":-0.24513348859727432},{"Value":-0.32197194224142084},{"Value":-0.22661351470910293},{"Value":0.29250731485791237},{"Value":0.10836322197096596},{"Value":-0.17346791165294353},{"Value":-0.1974135129918684},{"Value":0.24865564187097783},{"Value":-0.02242836910210001},{"Value":-0.0024347857754189292},{"Value":-0.504603876591089},{"Value":-0.6706388572241705},{"Value":-0.39252341050546485},{"Value":0.019168033625490487},{"Value":-0.3775317475918184},{"Value":0.20800916865844937},{"Value":-0.16175364686178972},{"Value":-0.021002869697853498},{"Value":0.17554525224553358},{"Value":0.0678654806836443},{"Value":0.9499036223171379},{"Value":-0.2628270296928556},{"Value":0.06975499879921808},{"Value":-0.11818716884869149},{"Value":0.13971822465967595},{"Value":-0.13562154318519218},{"Value":-0.21354810639561006},{"Value":0.016503820786939547},{"Value":-0.05666842764727765},{"Value":0.54770841040198},{"Value":0.034676743360987916},{"Value":-0.2786258424148363},{"Value":0.20919343523979048},{"Value":0.09155591470740472},{"Value":0.00872824706899436},{"Value":-0.320017804730581},{"Value":0.18473565171525766},{"Value":0.1694957997335195},{"Value":0.16966399737230156},{"Value":0.24650791215033602},{"Value":0.057285761682244814},{"Value":0.2696301364354399},{"Value":-0.4524235774421296},{"Value":-0.5706807965955282},{"Value":-0.07485286262325096},{"Value":0.041374900410745125},{"Value":-0.04854023056778543},{"Value":0.42897125707045425},{"Value":-0.04021674648225173},{"Value":-0.09028276078603543},{"Value":-0.2253676885720413},{"Value":-0.20264070917388663},{"Value":-0.39545097469213025},{"Value":0.3418251001660794},{"Value":0.4367814736656718},{"Value":-0.19155564425863103},{"Value":0.07030068380634427},{"Value":0.44155834572864616},{"Value":0.20718465919987977},{"Value":0.5370769690906837},{"Value":-0.2795747535789862},{"Value":0.004177299006138199},{"Value":0.353799427877222},{"Value":-0.13019949180651705},{"Value":0.00890660560236238},{"Value":0.22122483243128185},{"Value":-0.1757054765804819},{"Value":0.059979906630501206},{"Value":0.3914671622875757},{"Value":0.11718351044394554},{"Value":0.03020703892719704},{"Value":-0.13380979830915665},{"Value":-0.23600066795421087},{"Value":0.08195038521652578},{"Value":-0.06091729910071314},{"Value":-0.4454829665568272},{"Value":-0.677760567061428},{"Value":0.3400092271046782},{"Value":-0.18574214951399473},{"Value":0.4234517871860441},{"Value":0.10173488680889145},{"Value":-0.06990580870152889},{"Value":0.4942162298090677},{"Value":0.33793559674551044},{"Value":-0.2594235419507165},{"Value":-0.11666343715045742},{"Value":-0.3185084023310164},{"Value":0.12854561126095512},{"Value":-0.2565772424184015},{"Value":0.15488149690057051},{"Value":-0.0976394271422474},{"Value":-0.09819835845704943},{"Value":0.049106851161561514},{"Value":0.25326964883075775},{"Value":-0.4839082963811567},{"Value":-0.23550751246733262},{"Value":0.13423428802427337},{"Value":-0.23701865910302078},{"Value":-0.27644488342684925},{"Value":0.13812559589585374},{"Value":-0.21617486136453937},{"Value":0.302421737269288},{"Value":0.05521341578076849},{"Value":-0.16307455843165042},{"Value":-0.10945642697840766},{"Value":0.04254836994419833},{"Value":0.081653936648217},{"Value":0.27328106667154817},{"Value":0.1883636798234644},{"Value":-0.11804608937519043},{"Value":-0.05771465597620205},{"Value":-0.024003311646398646},{"Value":0.06518107476700698},{"Value":-0.008163048443067665},{"Value":-0.20753222672566687},{"Value":-0.30431589764922234},{"Value":0.5936532150591324},{"Value":-0.19806285854597086},{"Value":-0.03759026281419312},{"Value":0.12779796794145823},{"Value":-0.08198675782799277},{"Value":-0.13364891178345803},{"Value":0.26129886211923226},{"Value":-0.116497470312336},{"Value":0.08465146156944774},{"Value":-0.3462562532653266},{"Value":0.043193393134677766},{"Value":-0.40027330506545616},{"Value":-0.43744356557930314},{"Value":0.0771147879375289},{"Value":0.006644366069692608},{"Value":0.26794405623540796},{"Value":0.3494847200822785},{"Value":0.39182289712070323},{"Value":0.09137227568112931},{"Value":-0.28530235076028904},{"Value":-0.2775964081606474},{"Value":-0.5210238716782752},{"Value":-0.34751431182060627},{"Value":-0.33431893054869716},{"Value":-0.5030843190330202},{"Value":-0.3331920872370087},{"Value":-0.10306341817816632},{"Value":-0.07466530314724155},{"Value":0.20410500833809503},{"Value":0.011890608609593463},{"Value":-0.24917395941613427},{"Value":-0.136643688316184},{"Value":-0.04702929558506916},{"Value":-0.019758480847201856},{"Value":-0.28218813160102957},{"Value":0.06055257465461991},{"Value":-0.14866401595697626},{"Value":0.29197370761013797},{"Value":0.09468120778965418},{"Value":-0.028103409460194566},{"Value":-0.47447251237414895},{"Value":-0.07227146406758232},{"Value":-0.11877448485279675},{"Value":0.09002473391115799},{"Value":0.4546910431820864},{"Value":0.12510355670607687},{"Value":-0.008264528831511506},{"Value":0.14632174323167596},{"Value":0.026188034112575195},{"Value":-0.20426152627811528},{"Value":-0.024268065631377303},{"Value":-0.10290748073335484},{"Value":-0.31628144846848566},{"Value":0.19356767937171998},{"Value":0.2615343505616998},{"Value":0.06695639671507785},{"Value":-0.2470184256948979},{"Value":0.05019068055584402},{"Value":-0.1926944086042984},{"Value":-0.04138912706138735},{"Value":0.0033689964847872906},{"Value":-0.044773134963042936},{"Value":-0.1596524122931382},{"Value":0.14667565169806063},{"Value":-0.15036705579178125},{"Value":-0.03700118570276039},{"Value":-0.10721574023950976},{"Value":0.352093115984195},{"Value":0.3016664149414155},{"Value":0.5531623980878771},{"Value":-0.09632231269181007},{"Value":0.3758916349789812},{"Value":0.0763774937032205},{"Value":0.19644694059796577},{"Value":-0.15374503019042277},{"Value":0.046801333738662076},{"Value":-0.2952407155147638},{"Value":-0.3386145350278438},{"Value":0.00846432142442319},{"Value":-0.5430754757184945},{"Value":-0.20410825810347105},{"Value":0.11545556957486232},{"Value":-0.25880559880962856},{"Value":-0.3044118136436815},{"Value":0.2432477230389248},{"Value":-0.004596351432696371},{"Value":-0.21977234186370492},{"Value":-0.54510510362118},{"Value":0.020885900430943655},{"Value":0.2719478384034809},{"Value":0.4868108846318629},{"Value":-0.07030356097917147},{"Value":-0.3193764924684225},{"Value":0.23059055246153537},{"Value":0.11564937487553262},{"Value":-0.2750573794302669},{"Value":-0.2855986124975944},{"Value":-0.19143855634922927},{"Value":-0.18741983612281532},{"Value":0.43757238870537896},{"Value":0.10400682423403011},{"Value":0.1566042901465338},{"Value":-0.4657450094159567},{"Value":0.013073746292738208},{"Value":0.3116310839309992},{"Value":-0.23545015017418575},{"Value":-0.029272844402732333},{"Value":-0.3130786823755003},{"Value":-0.3152402499170772},{"Value":0.05298811097098792},{"Value":-0.25375408917988473},{"Value":0.6825001576542389},{"Value":0.31305783552337474},{"Value":0.05311042653969018},{"Value":0.23907734137330677},{"Value":-0.06993342720883107},{"Value":-0.06861913010300125},{"Value":-0.4181739917200787},{"Value":0.22796731296133735},{"Value":0.2511572577308843},{"Value":0.28364358419605656},{"Value":0.18839770108607898},{"Value":-0.19788915030871185},{"Value":-0.14351152798695985},{"Value":0.11486203603038603},{"Value":-0.25504539052205333},{"Value":0.13182400958443213},{"Value":-0.18732614211459328},{"Value":0.24253978425397182},{"Value":-0.038854236310410524},{"Value":0.137097599270861},{"Value":0.22479459938548793},{"Value":-0.38212931774147707},{"Value":0.034909535227573965},{"Value":0.1418372362611521},{"Value":-0.0734471920921399},{"Value":0.07531015110478638},{"Value":0.41126806797560933},{"Value":-0.12602099622965712},{"Value":-0.19793947792374622},{"Value":0.1628453898558355},{"Value":0.09561326657797979},{"Value":0.1599455865160208},{"Value":-0.20101897606253058},{"Value":-0.10810768578585157},{"Value":0.24644029286177266},{"Value":0.1642481558206309},{"Value":-0.04233456596361293},{"Value":-0.23957958373408805},{"Value":-0.011498027499501875},{"Value":0.11341460836272099},{"Value":0.18350152431354488},{"Value":0.30509132251487847},{"Value":-0.037070327567883934},{"Value":-0.03626560957776495},{"Value":-0.09360280391501068},{"Value":0.06832659603821348},{"Value":-0.02672375822822948},{"Value":0.18132788888683873},{"Value":0.3484943550153654},{"Value":-0.06734464454039178},{"Value":0.04522023276021105},{"Value":-0.035904998762747234},{"Value":-0.3061037207959382},{"Value":-0.3771666602343771},{"Value":0.19664435847392195},{"Value":-0.1903025392427171},{"Value":0.5092499408553759},{"Value":0.12905475489445908},{"Value":-0.36468633982849585},{"Value":-0.2229855860555454},{"Value":-0.3823111680822908},{"Value":0.08163319679833095},{"Value":0.27609176023620474},{"Value":0.6277708620332292},{"Value":-0.3305678543456603},{"Value":-0.20292389474924005},{"Value":-0.3195919188468136},{"Value":0.07644059139051779},{"Value":0.23042932772455182},{"Value":0.141767895288133},{"Value":0.13129587926098388},{"Value":-0.12896446430713698},{"Value":-0.38852136306103524},{"Value":0.0579847264547152},{"Value":-0.02163549039685928},{"Value":0.056600829637928445},{"Value":-0.43941589507940565},{"Value":-0.23122154670090705},{"Value":0.19203476443224485},{"Value":-0.027707396246902608},{"Value":-0.32801271736828264},{"Value":0.12717615928204445},{"Value":0.08444776366414875},{"Value":0.2719689006606712},{"Value":0.3417433704666979},{"Value":0.1216175813205769},{"Value":0.07178866178128372},{"Value":-0.027286155324808596},{"Value":0.2600317454704109},{"Value":0.020654239242754748},{"Value":-0.18754662816868395},{"Value":-0.26244390540942736},{"Value":-0.10914694043980538},{"Value":0.17896672559538565},{"Value":0.25473804260274546},{"Value":0.4227449047181312},{"Value":-0.06232968445613692},{"Value":0.15387853282198136},{"Value":0.2822619952791258},{"Value":-0.21751089179418678},{"Value":0.3531097880562788},{"Value":-0.2354227176794306},{"Value":0.17596761097728894},{"Value":0.09735100499123121},{"Value":0.34539752641396054},{"Value":-0.4676988677304085},{"Value":-0.11028860470724841},{"Value":-0.28176753929158166},{"Value":-0.13101721255798868},{"Value":-0.05775380055939609},{"Value":-0.09303340487476595},{"Value":0.12127738018040175},{"Value":-0.05670589005521179},{"Value":-0.15135135004421124},{"Value":0.28917828941564333},{"Value":-0.3567179382002047},{"Value":0.32531293232290753},{"Value":-0.01863510916495527},{"Value":0.1507290874768218},{"Value":-0.07760644348639249},{"Value":-0.24076600810952392},{"Value":-0.41121931585813554},{"Value":0.11048641409406547},{"Value":-0.007789376345793209},{"Value":0.3987612356908082},{"Value":-0.0030301596392449366},{"Value":0.3379619982439464},{"Value":-0.31115776073045054},{"Value":0.12383382549581659},{"Value":-0.4295287041932801},{"Value":-0.02607159697965487},{"Value":0.12684877278698192},{"Value":0.09539098101321435},{"Value":-0.06484969067327466},{"Value":0.38484455414663277},{"Value":0.2420145159108734},{"Value":0.046052546264942616},{"Value":0.0981389635317455},{"Value":0.29845251689567315},{"Value":0.19629097758946487},{"Value":-0.01132061613807353},{"Value":0.30668428349131227},{"Value":-0.12580240200526432},{"Value":-0.24668525794619042},{"Value":-0.31894748106609294},{"Value":0.12233921158783727},{"Value":0.030892248297638196},{"Value":-0.1634036637104381},{"Value":-0.07143242968681648},{"Value":0.0018292018731113193},{"Value":-0.27010710001884913},{"Value":0.42616272099192515},{"Value":-0.33876091861944685},{"Value":-0.0721469275005952},{"Value":0.07671623702862915},{"Value":0.1360910573487224},{"Value":-0.08877047842080574},{"Value":-0.07165549074316842},{"Value":0.4796321774638523},{"Value":0.31763507558506415},{"Value":0.07441137982036282},{"Value":-0.1845843224458744},{"Value":-0.42032147221158755},{"Value":-0.8349682885601358},{"Value":0.029716838920621592},{"Value":-0.15679080125894457},{"Value":-0.2943419081880469},{"Value":0.25423149870311296},{"Value":0.5525806209916848},{"Value":0.042491693357133785},{"Value":0.08695994425439768},{"Value":-0.3544704157166209},{"Value":0.33092351893148775},{"Value":-0.26334487885986807},{"Value":-0.5119462211376907},{"Value":-0.18051232172822768},{"Value":0.1540274189847167},{"Value":0.03929444150643153},{"Value":0.4676712146374326},{"Value":0.14373031720612253},{"Value":0.26857931962273357},{"Value":0.28356347834406487},{"Value":-0.609687343411959},{"Value":0.17530357323608164},{"Value":-0.016967428768383485},{"Value":-0.3319758765423288},{"Value":-0.26827947182104667},{"Value":0.1375954825976968},{"Value":0.30624143793951053},{"Value":-0.11110073746232896},{"Value":-0.20340457673017817},{"Value":0.10778392434789022},{"Value":-0.25059619521573495},{"Value":0.1486743097293347},{"Value":-0.14100371249335006},{"Value":0.19784054980315025},{"Value":0.32022958225438186},{"Value":-0.2584776684069391},{"Value":-0.15856726507961935},{"Value":0.19630913109046283},{"Value":-0.4934034467104482},{"Value":-0.0910684885011388},{"Value":0.1267820875578453},{"Value":0.13277895206844512},{"Value":0.16403073316956385},{"Value":-0.23214250866681116},{"Value":-0.5437528950052646},{"Value":-0.18519071796870215},{"Value":-0.3503563691210938},{"Value":-0.2305500220092043},{"Value":-0.1360942322553539},{"Value":-0.5566073223436027},{"Value":-0.5135527521103775},{"Value":-0.11012534012145964},{"Value":0.16735256814119112},{"Value":-0.5586142576916159},{"Value":-0.02747472323488976},{"Value":-0.23014784068145128},{"Value":-0.1606548188540273},{"Value":-0.09717888109413866},{"Value":0.04229623883039713},{"Value":0.027880318085623274},{"Value":-0.2326589890181329},{"Value":-0.058590165562243876},{"Value":-0.07887607857692797},{"Value":0.0761950029414538},{"Value":0.04567472658113537},{"Value":0.18327925005570422},{"Value":-0.016747001272843537},{"Value":-0.49800050741303076},{"Value":-0.023356124924220904},{"Value":-0.040736267390021785},{"Value":-0.040057407686714355},{"Value":-0.09670300507660903},{"Value":0.05524887168234427},{"Value":-0.029387564160176294},{"Value":0.005362888362371294},{"Value":-0.12664845458608653},{"Value":-0.0031944891120457082},{"Value":-0.1562504841288058},{"Value":-0.30113610743709074},{"Value":0.014523795039797631},{"Value":0.5467661286928039},{"Value":-0.2835620582381075},{"Value":-0.03266595231073746},{"Value":0.028301027873613653},{"Value":0.15086157302685907},{"Value":0.06274694462498237},{"Value":0.17012854151699286},{"Value":0.14486363245135034},{"Value":-0.08813772754306501}],"Dimensions":[32,32],"Multipliers":[32,1],"Rank":2,"ElementCount":1024},"Biases":{"Data":[{"Value":0.008712617120324955},{"Value":0.011305014755787275},{"Value":0.008715366285015114},{"Value":0.008706723659860558},{"Value":0.008704918607158468},{"Value":0.011278661224913921},{"Value":0.011274647921378321},{"Value":0.011167691296979457},{"Value":0.011298927180931048},{"Value":0.011280173440999243},{"Value":0.008724207344310493},{"Value":0.011373053366819007},{"Value":0.011440627359523219},{"Value":0.008716125445652442},{"Value":0.008702022346119649},{"Value":0.008717898890823077},{"Value":0.011269573650812737},{"Value":0.008725158656918372},{"Value":0.008749530968402352},{"Value":0.011244290753502282},{"Value":0.010740017380450346},{"Value":0.011282388268225705},{"Value":0.01127456710807964},{"Value":0.011279294873941088},{"Value":0.011292691587323312},{"Value":0.008723472539201249},{"Value":0.008721303902421942},{"Value":0.011285978006057868},{"Value":0.008708893685543355},{"Value":0.00870554438955221},{"Value":0.01192002285153194},{"Value":0.011284431488060642}],"Dimensions":[32],"Multipliers":[1],"Rank":1,"ElementCount":32},"Activation":"NNN.LeakyReLU, NNN, Version=1.0.0.0, Culture=neutral, PublicKeyToken=null"},{"NeuronCount":4,"LayerName":"NNN.Dense, NNN, Version=1.0.0.0, Culture=neutral, PublicKeyToken=null","Weights":{"Data":[{"Value":0.25907217239929964},{"Value":0.05343144456403659},{"Value":-0.16710892492379115},{"Value":-0.3447929629976838},{"Value":-0.10729653808350784},{"Value":-0.15787569169732882},{"Value":-0.4698946362998871},{"Value":0.12154307911557963},{"Value":-0.02681040790521446},{"Value":-0.15480820849496815},{"Value":-0.037350458900451626},{"Value":-0.036990614642862935},{"Value":-0.012347624215383103},{"Value":-0.3498672113891727},{"Value":0.06010399599235059},{"Value":-0.21732698290137822},{"Value":0.01291418369613321},{"Value":-0.13342719976832776},{"Value":0.32951522331001304},{"Value":-0.3214424191831123},{"Value":-0.4197728050747306},{"Value":-0.3002190922653254},{"Value":-0.15532489788369136},{"Value":0.18790041791753245},{"Value":-0.13081482471142222},{"Value":0.3050279464401575},{"Value":0.018919714436566253},{"Value":-0.008722518668484723},{"Value":0.027795867742623995},{"Value":0.3102764822385176},{"Value":0.49930003494603287},{"Value":0.05861260023768319},{"Value":0.10124618249125714},{"Value":0.26700655472178386},{"Value":-0.2096104517652444},{"Value":0.2680014919405155},{"Value":0.0011087534748883815},{"Value":-0.013460785274748558},{"Value":-0.11846977596801125},{"Value":-0.006527032972609235},{"Value":-0.6381984516062973},{"Value":0.018026436930610516},{"Value":-0.4423840095089874},{"Value":-0.4813616154662579},{"Value":0.3417664465787847},{"Value":0.30289710662391356},{"Value":-0.09361596399181663},{"Value":-0.19339571418715132},{"Value":0.4196528068098421},{"Value":0.03956624204647218},{"Value":-0.01860329809203294},{"Value":0.21481594799492432},{"Value":-0.12038706462198355},{"Value":-0.13406653172971977},{"Value":0.47423632122664816},{"Value":-0.21633872608229865},{"Value":0.3236201346160915},{"Value":-0.21701467883492914},{"Value":-0.09843112161086896},{"Value":-0.2695675854497959},{"Value":-0.003653392290244113},{"Value":-0.1812739792967508},{"Value":0.22798447497379754},{"Value":-0.42028687768248313},{"Value":-0.0649214348671855},{"Value":0.025752485764199848},{"Value":0.5762008709376513},{"Value":0.5615876910177382},{"Value":-0.20813385730404413},{"Value":-0.637504874395539},{"Value":0.23112076282247665},{"Value":-0.17921871994461974},{"Value":-0.0785728088306943},{"Value":-0.08047265930332247},{"Value":-0.21084125668679335},{"Value":-0.16053142882599722},{"Value":-0.12199190989308321},{"Value":0.17427200573228732},{"Value":0.35671823464569774},{"Value":-0.04286057319966591},{"Value":-0.2255803305222355},{"Value":0.2016652732851122},{"Value":-0.07442789182900475},{"Value":0.2658849372045131},{"Value":0.03756401457689685},{"Value":0.10461643639832754},{"Value":-0.23895666371119614},{"Value":0.3171554542253356},{"Value":0.15009922112413582},{"Value":0.08139455270295333},{"Value":-0.0044029075963239},{"Value":0.021200577842486048},{"Value":-0.22563847334823914},{"Value":0.022748991787681448},{"Value":-0.37527665596271514},{"Value":-0.02405526014967422},{"Value":0.07287162968215255},{"Value":-0.0271195129867694},{"Value":0.0021794639832755946},{"Value":0.10987191429860094},{"Value":-0.12985127823836792},{"Value":-0.43398234805109165},{"Value":0.16152081632183118},{"Value":-0.000369820376527177},{"Value":-0.32232351218221356},{"Value":-0.2885394733051657},{"Value":0.11334507227795326},{"Value":0.10572786539207847},{"Value":-0.028509485963275853},{"Value":-0.09948319392557832},{"Value":-0.3523100937719426},{"Value":0.09375631868697909},{"Value":0.03695479523579023},{"Value":0.05814089932452021},{"Value":0.3450090165541018},{"Value":-0.27896948845262004},{"Value":-0.31120761906713873},{"Value":-0.2083252940129957},{"Value":0.024222463485307075},{"Value":-0.247569668247713},{"Value":0.11862478904019902},{"Value":0.05447236256014198},{"Value":-0.34372529604785523},{"Value":-0.24086907456376008},{"Value":-0.5589361213068282},{"Value":0.3662498916912595},{"Value":-0.425151405031789},{"Value":0.04643546763357075}],"Dimensions":[32,4],"Multipliers":[4,1],"Rank":2,"ElementCount":128},"Biases":{"Data":[{"Value":0.008752161568445613},{"Value":0.01128045142080821},{"Value":0.008721368107129774},{"Value":0.011283944513186542}],"Dimensions":[4],"Multipliers":[1],"Rank":1,"ElementCount":4},"Activation":"NNN.Linear, NNN, Version=1.0.0.0, Culture=neutral, PublicKeyToken=null"}]}