{"Layers":[{"NeuronCount":64,"LayerName":"NNN.Dense, NNN, Version=1.0.0.0, Culture=neutral, PublicKeyToken=null","Weights":{"Data":[-5.004254651304644,1.1654993863485403,-0.29028337223246636,0.6726509978292171,11.389294126020145,0.6317006899306677,4.548350842546356,-3.795962248810513,3.0761902515796127,0.5862329359525327,0.6936718466842547,-2.2456588620312803,0.014550670938080101,-0.3569903865880886,0.41781818595334846,1.0209105907362308,0.8922764318323558,-0.16323970224642764,-4.034861822983675,0.7056719119660562,0.6986663471881561,0.7246345219127608,0.5111354817192011,-4.479722460727867,1.4160451203460547,0.4715196489917657,-9.695257600249871,-1.572845165591366,0.6044228984319219,-0.7235844741902581,0.3573556690754797,-1.7473520106442657,0.108576867802663,-3.664674118099162,-2.5580950005572998,0.010518620993870213,-0.3551482122017462,1.9105509091053021,1.709924641335701,-0.9439862402100156,-2.7000929551954393,1.031045605743802,-13.174775064245038,-0.6412241047401358,0.23527212044898702,-0.47958531433042606,-0.5654519634652131,0.004909725290071316,-3.4676042724097496,-5.285356527956108,-2.3039756011055146,-1.2419502346338787,1.2468516147875524,-2.562201695162434,1.3556783845327165,0.02047892752704788,0.31495583955541595,-0.48983549866801085,0.006024912583482383,0.051523088695274555,12.754965773654908,-3.3862789814954084,0.5446090730822062,1.4549421379788938,-2.240122498493028,-2.7786884421634492,0.0061656338369392594,-0.7499196318420411,0.4041033294552145,-3.1720915590191603,1.0210536354815265,1.2606982118578975,-1.8874761179824628,-0.7398370471904738,1.7036630027078288,-0.07277294731711287,-1.2159253180164526,0.9302048175510449,1.3813056896687899,0.2446307064117301,-0.022961901517244365,10.751846065588182,1.0510713786636046,0.17215818704198638,-0.7557203771442923,3.3783660797630586,-0.12164597849662206,2.0273355720793194,-0.4745371534748768,0.73498547897402,-0.2430588730230885,-2.3060617817029274,-0.641592469687022,-0.8827168282650756,0.9073894235920439,-1.0700698592331443,-1.6223395682966224,-1.88977547129344,-1.2801793128002406,-1.5708042112196479,0.49753804855486006,0.4530700227600903,2.239794430014573,2.2769296049642356,-2.5745568816777036,-0.28346364079010566,-0.06559780403072081,-1.3847575747732916,-8.699272938488948,0.136397384978857,-0.5594502919046026,-0.057803440807929124,1.1870463202340473,6.3683496775648125,0.860707315246121,1.2292525253411828,0.4153522271389099,1.3947090091075982,1.9086721541070772,1.5464194645602685,1.668373628117107,1.559530867106591,0.1758838513914022,-0.19836165547485235,0.4523105689556652,-1.1800390314552345,-1.18445717511325,-0.2101781475918945,-3.7913141143269993,0.415767916214335,1.9161741774370171,-1.0085134880412914,-0.40977644471944813,-0.17960701918387587,-1.2809126219262394,0.9376290541897179,-0.2048410841809336,-0.31370358871491083,4.879899782199536,-1.0312527964717948,0.8944237011673519,0.10327922090308313,-3.1025235646394385,1.6266899030656956,-1.3056974287384278,0.06672247639695032,-2.911592179684335,-0.0639490932147645,-0.8843119862895327,-2.2510301102560244,0.1978895893251006,-3.045844979253549,-1.1500390247771255,0.19045348239965307,-0.36227952058349294,-5.270671982553239,-1.4510360459041358,-5.834767747284764,0.9371277117023171,-0.09069810801179135,-1.4052802052994413,-3.341994710551866,-3.9928873852485305,0.08647690311367466,-1.0454678865286176,-1.1577156993592286,-0.6707264058971149,-1.1518663933162139,-1.539091146660384,-2.081555521792955,0.21348526015075117,-0.39546826268614654,0.09847596871607395,-0.4448186299755688,-0.8599880876097961,-0.9958602987385992,0.1020114025116105,2.0372847818066155,-1.3348669546781822,-3.4233649076023447,-3.0758437025253653,0.12368762993154732,0.26381637222423177,-0.4551637446757431,-5.1248820760983715,0.15146308644300616,-0.09848096184759608,-0.01796568323991484,-0.29119660809915726,-2.918473616438973,-0.05174698189233489,-1.2160497089227642,-11.12502916994964,0.21803699443257174,0.10232914023974965,-0.08078515180974406,-0.19151277565831476,2.839431099383469,-7.116842644329963,0.22502529613846264,1.4175704446981856,0.7130438716355122,-11.75191345987834,-10.652443872699365,-13.434693202904878,-4.669337897340096,-3.806059843992108,3.3542517849401965,-11.9247863443588,0.1292036823845339,-3.266206985856987,-0.9122718722435165,2.9778810234924222,-4.69463231877395,-0.7161406094077556,1.4176391574556608,-9.285218708880599,-0.04341530287806944,-0.02924271834028677,-1.8475717788010013,-29.33607058816329,-12.606828700768006,-8.055880145634072,-4.248094779846425,-1.3628839528840417,-3.271060704330373,-10.218004413444323,15.366860725341896,-0.6768962696718417,-2.8566237669809103,-6.585400084881903,-6.23742166762134,-8.894208038773948,-17.828634243063938,-0.1370722053735022,-29.16501872344189,-0.07151841802775127,-8.798392616194255,1.4305434845566487,0.19683880271915605,-2.371656275056719,1.2253642909821365,-7.931081677099967,-6.734879871775062,-2.3762362778965276,6.388680947372196,3.1536077778110805,-1.3585079403097486,-7.815973095243542,0.7931476801683081,2.0622280204356485,13.529291681651712,-0.22534927284686765,-13.572260779861177,2.9218728071348714,0.22550138296953812,-7.70085142779258,1.5495938817345765,-0.03749947712391046,-11.153206853421109,0.0703973062492614,1.4805036817663135,-5.684386804592055,-3.5965338004211773,14.689184027044764,-3.456919330980793,-9.370467054200601,-9.423671530681379,-5.369248956220817,2.637316635692444,-5.973264574194601,1.8416246254345445,-3.6841691621589936,0.15503516537499545,-11.261371756311341,-0.14173992723790044,-5.466425321728479,-6.24249319246547,-2.3316498103541323,1.0390762982520614,-7.3200347718863945,-1.0027764714195078,0.2133848422157021,-12.012611043119641,-3.8439752492026793,1.6238601618071375,-6.694997983986858,-2.495285493346837,-0.6752563691099527,-12.775388768769908,-6.401128200360671,0.8290157331265212,-10.22034905515601,-2.8494681123003414,-7.4030419245157715,-2.8756262325290933,-8.595675684077,-4.255701857412033,0.16058521645538862,-5.9488863203801134,-0.10542098749703843,-7.006105859008578,-1.8496404558152668,0.2307105573486811,-0.258398415779589,-3.4165657265282787,-2.6372037772042796,-9.096155061505257,-0.8551929316002261,-6.32289316096399,1.3167125969432556,0.7425400990183058,-3.7622733706335265,-0.5957439092130364,-64.4327022882661,0.16213413139977798,-0.009451085085434976,-5.997931590435254,-8.587925243796457,-5.107110845126457,-12.40766589772765,-3.6210267747139198,0.4940276317024774,0.7783655931983886,0.03228670819323686,0.7192226584665381,-5.608103983329326,6.136258541890153,-1.5976665387754512,-3.319087953811266,0.8096760594371833,-15.173069557614479,-1.3405474982514123,-0.1094556090240693,-5.9926052821841616,0.4785471495697248,-12.020032341248871,0.06055654544074648,-9.822636526674152,-82.5807992393713,-3.811108807941417,-8.636903312605687,3.031743515282211,2.0121146425446885,-25.898375961050583,0.18357549670909953,0.18838478489160784,-5.748668713621588,-3.0049141728692006,-1.7851971138219294,-2.502128948867758,-4.866299314309827,-6.235239785353738,-10.65481058001723,-5.449225465736567,0.4642382923849556,-7.722867039605233,-3.6968956944775266,-5.036117757288012,-0.5417548401291574,-3.8665926795295156,-19.26631836117151,0.13974386200944222,-2.4399215552901588,-0.011073180711646514,-6.903840873905292,-5.470377014482226,-0.43197528780373967,-0.3874257058594765,1.8727753698185385,-14.586500357830973,-7.756037320669312,-3.612557557513509,8.05307136186255,-0.636868379100036,-12.273844984815234,0.5277344988611931,-3.6551510928798407,-1.238054436778696,0.2754033021244609,0.013088361266232031,-6.878795814639092,0.7594306035441132,-2.0733899683995283,-3.701885868160637,-2.9832152159518333,-1.4855096566377821,-5.691845952302436,0.29209217701948936,-23.23257719359797,-2.8513057243499498,-20.266561563344844,-0.7127554633739475,-1.0395830005729305,-44.88282050014061,-12.979022617533497,-2.5724075181955266,0.5984274721696178,-1.3056922672474556,-0.9846355101607668,0.3014401570971642,-0.09828702647747108,-0.5767564925721129,3.259641336655561,-8.207081762488675,-1.4073225221549197,0.30591058391922704,-15.730936678546094,-3.998455088334649,-9.640351866408077,0.8040217780551708,-13.304734297359843,0.7304488644638849,-2.4216712755297944,-3.6906183804479324,-5.548441580935863,-1.4704916993683794,-21.098555395800844,-2.3414704994136866,-0.4289605350199563,-5.369914997105821,0.21486817085528553,-12.807790589109764,-1.1521550310686648,-6.290817468113727,0.14550857643995768,0.6304975655675469,-0.4221407875990261,0.09082336051478711,-1.17443052935185,-0.6313467285149502,-1.1150942651863933,-2.0461781933710106,-38.37430298700232,-2.8703918345988106,-8.13394747217621,-16.738112475046606,-0.2792783651060378,-12.579633387407862,-2.1340471571627857,-1.5457276560409332,-11.807085018239185,0.37938767771958637,-0.3429185390629115,0.3009805181099851,-0.1915766678547597,-5.6370451308281275,-1.8220470769157493],"Grad":[0,0,0.0006676244297663856,0,3.672036786581673E-05,0,0,0,0.00024052859032458842,0,0,0,0,0.0067057090330461646,0,6.0759823839791395E-05,0,-0.00013574577767877044,0,6.799877784509121E-06,0,0,-0.0003165575119338651,0,0,0,0.002419300044708881,0,0,0,0,0,0,0,0,-0.030997836642986974,0,0,0,0,0,0,-0.0024256506951038544,0,0.004581938859414413,0,0,0,0,0,0,0,0,0.0002930320891286142,8.799730625608532E-05,0,0,0,0.0003406209518236943,0.03487083414528277,0.0007139537029012807,0,0,0,0,0,-0.00048064711370249095,0,-0.003249701709998994,1.552966498047837E-05,0,-8.994688663332081E-05,-7.238768742988866E-05,0,2.7052579990666857E-05,0,0,0.000593705927240229,0,0.0009082696039290903,0,-0.005588526110450991,0,-1.7380050470659884E-05,0,0,0.0009362377826668282,0,0,-0.00011026478635633415,0.0005398088920718628,0,0,0,0,0,0,0,0,-0.004696664708324398,0,0,0,0,0,0,0.0008426953116196709,0,-0.007204059322904803,0,0,0,0,5.1659541568699304E-05,0,0,0,7.761303883320768E-05,0.00014791120470244898,0,0,-8.833775539699064E-05,0.0020113084023729655,0.008571861631715066,0.003482916917078972,0,0,0,0,0,0.013071380407557688,0,0.006737674700768969,-3.882416245119592E-05,0,0.00022486721658330203,0.003490077066599588,0,-6.763144997666714E-05,0,0,0.07442602022073687,0,-7.224484724646326E-05,0,-0.015414582023868036,0,-1.041108332531622E-05,0,0,0.01871074503075856,0,0,0.0002756619658908354,0.0074669875699365845,0,0,0,0,0,0,0,0,-0.32355393398585053,0,0,0,0,0,0,-0.005027498761739266,0,0.023987512584112705,0,0,0,0,-0.00012914885392174824,0,0,0,0.0003941942227409928,0.0007301883164449438,0,0,0.0002208443884924766,0.016590428788742135,0.3931186025422554,-0.003796860513975787,0,0,0,0,0,0.0024005191986477903,0,0.006176680329278403,-1.941208122559796E-05,0,0.00011243360829165102,0.002123080954629802,0,-3.381572498833357E-05,0,0,0.037458280974983396,0,0.0021838499473820776,0,-0.010513179732096582,0,7.294794259749864E-06,0,0,0.005904929684955893,0,0,0.0001378309829454177,-0.007153170018845598,0,0,0,0,0,0,0,0,-0.1756994252016979,0,0,0,0,0,0,0.008264420964660424,0,0.01531002814308626,0,0,0,0,-6.457442696087412E-05,0,0,0,0.0011718046773208507,0.00023309819883834398,0,0,0.0001104221942462383,0.00150459672749375,0.21254210286570502,-0.003469503799483778,0,0,0,0,0,0.003686148544701705,0,0.008271287100891122,-3.882416245119592E-06,0,2.2486721658330202E-05,0.0018598891057941605,0,-6.763144997666714E-06,0,0,0.02874274931288359,0,0.00030181409628824915,0,-0.006964430235690285,0,3.069358551807559E-05,0,0,0.00251847539633819,0,0,2.7566196589083537E-05,-0.0023609432156091164,0,0,0,0,0,0,0,0,-0.13457795313283583,0,0,0,0,0,0,0.003995087298494915,0,0.012069929185881378,0,0,0,0,-1.2914885392174826E-05,0,0,0,0.0005889509119024977,0.00017201580118259038,0,0,2.208443884924766E-05,0.0002949130262140593,0.16329969150251947,-0.0038655998922358186,0,0,0,0,0,0.0012622485276144412,0,0.004636394490234903,-1.941208122559796E-06,0,1.1243360829165101E-05,0.0008152025032510439,0,-3.381572498833357E-06,0,0,0.02112887579744468,0,0.0003904464040349096,0,-0.0013306709000155625,0,1.439963779611342E-06,0,0,0.002441771476620478,0,0,1.3783098294541768E-05,-0.0025113088347824414,0,0,0,0,0,0,0,0,-0.09321536487960787,0,0,0,0,0,0,0.00252419029883786,0,0.012583020087152516,0,0,0,0,-6.457442696087413E-06,0,0,0,0.0007253210468273453,1.4510089258225868E-05,0,0,1.104221942462383E-05,0.002219299198486426,0.11705327605198723,-0.004853688273590749,0,0,0,0,0,0.005884446405137965,0,0.014819355135713653,-2.2647428096530953E-06,0,1.3117254300692618E-05,0.003031950907023076,0,-3.945167915305583E-06,0,0,0.0526150769134491,0,0.00075470743190748,0,-0.00801424604519956,0,2.9622771163760072E-05,0,0,0.0072755747278483015,0,0,1.6080281343632062E-05,-0.005805679696813621,0,0,0,0,0,0,0,0,-0.24765582371197006,0,0,0,0,0,0,0.006487010450998867,0,0.0290831894840953,0,0,0,0,-7.5336831454353145E-06,0,0,0,0.0014385247526814563,0.00022465869335246488,0,0,1.2882589328727802E-05,0.005869889365363603,0.30855469310540845,-0.01053229837825928,0,0,0],"Rank":2,"ElementCount":448,"GradCount":448,"Dimensions":[7,64],"Strides":[64,1],"RequiresGrad":true},"Biases":{"Data":[-3.6377444622463684,-4.857838040526427,-1.2629284497243944,-0.6625954767511154,0.5518455962369464,7.300070271128794,-3.4911790547020467,7.076872056216812,-1.4639521717152397,-0.9679970983934256,7.660034747757917,-0.29076726815671156,-2.9640445882516686,4.770733080787532,-0.8639221413171226,-0.8619189924322589,0.5727171109625231,-0.03644105156259684,-2.8732344379560515,4.738454425815149,-1.9345315644185845,-2.6168407980775714,2.6921383198604496,3.805556320065249,0.6837806635516089,6.970734426666035,-0.17985219660488241,-1.4414734540690544,0.35513252973271053,-0.7419678211771791,-3.2333675353477425,-1.8033735628266803,-1.2363602373607854,-1.376081425522934,-1.5341104285342944,0.4421052230285214,0.2421606858056478,-1.8145871622069678,-2.279384645206443,-2.013264059816029,-1.2823711117082452,0.8826938087037248,-0.8210231345906194,0.4252981104320164,-0.21072279848064257,0.5921343981789821,-1.411859227236325,-0.17318370646774378,-3.995197600684741,17.505254348443327,-1.283242576864907,-0.517939797433708,-0.537323938944503,0.7239077708039494,6.078117350948383,-0.9188643978768934,-1.2393809126165682,2.8919956691991473,4.064898304871999,-1.0941367056431426,0.6106356331314605,-1.6964634447517504,-2.738545436989847,-1.261277030992539],"Grad":[0,0,0.006110800726897539,0,0.014787017049545308,-3.882416245119592E-05,0,0.00022486721658330203,0.003030462695613157,0,-6.763144997666714E-05,0,0,0.052479138085308345,0,0.0006560331805280446,0,-0.007986253132183508,0,2.8799275592226838E-05,0,0,0.007185828154082682,0,0,0.0002756619658908354,-0.005879546323875737,0,0,0,0,0,0,0,0,-0.24714117011575612,0,0,0,0,0,0,0.006457061229730557,0,0.02907569886405296,0,0,0,0,-0.00012914885392174824,0,0,0,0.0014606868198014547,0.00029020178516451736,0,0,0.0002208443884924766,0.005898260524281185,0.30788780730007737,-0.010450568915290986,0,0,0],"Rank":1,"ElementCount":64,"GradCount":64,"Dimensions":[64],"Strides":[1],"RequiresGrad":true},"Activation":"NNN.LeakyReLU, NNN, Version=1.0.0.0, Culture=neutral, PublicKeyToken=null"},{"NeuronCount":64,"LayerName":"NNN.Dense, NNN, Version=1.0.0.0, Culture=neutral, PublicKeyToken=null","Weights":{"Data":[-7.691881589050272,0.9039613218629218,-18.15507655753849,-1.682112226784628,-5.413201275734952,0.05266797904124948,-3.6962566753380055,3.872080249713929,-3.2898925000969204,-2.241877335073088,-5.337735849910934,-2.8265154178806045,0.46097636983245793,-4.894919699365799,-0.7019109053087487,-0.6683379789473238,2.1953202549747712,1.2521744911491242,-0.8492075788535351,-0.32956659170304653,-1.8158017487462692,0.7395194017735384,-1.6427200183474306,-1.6301310838876195,0.9154927006310153,-4.233254710530704,-1.1756876576363657,-0.08974516534741878,-5.1677219317612035,-4.5772387807911405,-1.7372787601541335,-5.865167560066791,-1.1611514897717095,-0.36297478628713115,0.2511844588208656,1.954142253992559,1.8094632171921445,1.2561060163674174,-6.829522881250995,0.46646107929673225,-0.21316504957771196,3.919769290312613,-2.7709356821254216,-3.188303363111879,-3.2024787667649237,-1.6872591994065085,8.255235866562064,0.06894989709924564,2.0933823403608653,3.2672354969858803,-0.0637813000593968,1.233778355776135,-1.7393754002606732,4.02837761136332,-2.176178766623354,2.558238463788122,-0.5680939914625219,8.842221386682656,3.654515865580119,0.17286375599839385,-0.8424564116301865,0.2441188359337347,0.6913525843266338,-0.9113692190933878,1.107283834513626,0.6159315354635222,1.2199809166543185,0.7690374838038433,-3.5948702233002647,0.19058176945176336,-0.26915109529337966,2.6771019101651796,0.14879812629939027,-6.9158776243618885,-0.9866973564282355,-0.813354639240072,-0.7133144334502727,-1.9200519979930484,-0.730316256240848,1.6272951180166695,-1.0593725587638272,0.10656027756495184,-2.544202134727641,-3.228911229165069,3.120064289487992,-5.699077588916855,1.0051654752771038,0.2588425753153335,-0.6913598876638941,-0.5230728154675113,-3.497216674078117,0.3230090749696522,-0.38995288875783607,-1.346438898551993,6.607818978475831,-1.7614712612254355,-1.8339652680578171,-0.9070854944264358,-3.8557816202746107,1.5868830570474517,0.6226770909957936,-0.6649326735999426,-0.7787280342566912,1.1989174271755592,-4.584005960809938,-2.1436966426738713,-0.16052448623756155,-0.7119040488897813,-4.952035210071568,4.760829126365954,-3.62840856431224,0.09862878300462871,-1.8977601959940789,-2.318923628697061,-0.6631003845151732,-1.202807510758551,-2.1985890671175614,3.300090369054146,-1.2383863642607844,-5.5375822426101,0.15485999345538862,-2.9031708614195506,-1.271300823737654,-4.53767370920967,-0.1733720919692188,0.12893532701049484,-0.7682959141228384,-2.5776948210536403,-0.47457253966687535,-55.99801535049655,-9.235794149455396,2.1239622486794385,-1.0936809261927143,-0.5460779822486097,-1.7302674543171803,0.11959193560454993,0.34692870539947757,-0.21774952922186483,4.597343571270787,-1.0807828834604318,-7.3094009903689035,5.613595308772832,1.0676753213543204,-8.12892068464836,-1.9136061614803515,-0.36080194976182,-0.5070343016987887,-1.4426029521516626,0.8145475513551306,-2.937921220965111,1.6390414229257828,-5.211910115909216,-1.173019256221303,-0.1021961428943574,-2.7266399879432237,-0.37948262888432766,3.5980972790013532,-1.411181479816482,0.31612447687111866,-1.9952823709735406,-1.2355746509481684,-0.6381506035418621,-0.8602497818798639,-1.9711234819479797,0.9413163792840739,-1.2959127807161626,-1.1122163048746154,0.5500906683305,-1.0686138670679073,1.1355868836766667,-0.4414955707100785,-0.22424356895125055,-1.2252462655705108,7.30430734519573,-0.6213581898287337,-0.08632656869729756,-1.3548513607492214,-1.9628430452824994,-6.274705876578565,-1.4642432636906466,0.7805347158082272,-0.1610634112454871,-0.8027223781683517,1.3999706116756538,-4.771350836443026,2.7062496102401234,1.5016487948655324,-2.304023724116901,-1.3607862529140153,-4.095763334141846,-0.07740380252871955,-1.378149817272716,2.7130941922693284,0.4738362985549532,-3.235028100383937,-0.6560705438941242,-2.7731183917655615,0.809551491087651,3.597815121309505,2.302827708341964,-0.7706760178325621,0.31050609519196654,-3.633174230919518,1.7217276614755967,1.2876540449637377,-2.602602152822503,-2.012114409476858,3.5263140616883475,-3.521079144000704,-1.6497775221419437,-0.06131500957501528,0.8042828650393069,0.8438062349570555,1.0697376838305046,0.7833682379948927,1.2730810965279304,2.903284474859756,-5.014405856794087,2.0345773113365375,-0.39384998654521136,3.746304374534311,0.4432483395998235,-2.020832914790049,-1.9967538914704495,4.077983011367297,-1.0866807895883999,-0.18022581069011667,-0.06141390206930566,-1.2463272055612518,1.6782741394243441,0.6050921531722089,-0.3287913040165883,0.2664793655603628,-0.5169353710103324,3.4363706648280274,-0.10583332834782713,3.469394282147921,-5.933476893439467,0.5648251208186538,-0.16082600786860096,-0.27420048523400126,-4.937474321380542,4.016313765197164,3.916412541172804,-1.5952055832220735,-3.087337360052023,0.02934304973625181,-0.06428693089024333,1.643811274721505,-2.7284712894728247,0.6886453078653141,0.18306080021081503,-0.521627040839527,-0.3861177664035802,1.0650384069814558,-0.003266927966093807,-9.342737808595674,-16.859521365943202,-7.681911589160528,10.483065005287765,2.107903893686944,-0.6933599056095109,-10.629950910019135,1.5545320585151343,-1.6469004407569456,0.26612229646895375,-1.6584420992889144,-0.6975195156228428,-0.9244733573200937,-1.1762713115224614,0.05759753253160977,-2.5294916437519928,-1.3182809196811363,1.953298452995985,-4.6079589344117675,-1.762718942158396,-0.0471273789137333,-5.789124713863837,1.085801544685261,-4.245313389326139,-0.5435984327519546,-1.6072830135673286,-2.802289717409278,-1.804688704561123,16.943955375097456,-1.6562669536814216,0.7384593759590625,-0.23329204440487714,-2.4612914721738015,-4.408292727698665,-4.191233958018151,-0.018822398465790324,0.030839071392743177,-1.7054759059445606,-0.3085274188428652,-4.396382418095792,-4.425629427258322,-0.6156444409858856,-7.921290608269754,3.9669148637788516,-2.664843357314185,-0.8221424399693217,1.9727152067131837,-0.001510858859603309,-0.8803618130020958,-0.8155967448647767,-1.0536802042872722,-0.2808909990127184,1.3363477052838106,0.8606267109325455,0.17541285817736674,-0.8882473553933774,-20.35060806754227,-0.8771415941239094,1.9070326861738836,-4.422020282677697,-2.401551410626236,-0.22580559973037634,-0.19105546320195127,-0.24730872103282514,-1.7461171354146778,2.1121663064509417,0.14394658363309987,5.516618378065782,-0.024143375748297478,-2.240840814445795,-6.060799999715532,0.5276367846534658,-0.8401972122473793,-0.3681589214155724,-13.490536028071302,0.21774180897564166,0.41525376675176284,-9.0453816835681,-0.15695411785110033,0.5309519226846015,-0.2684854047609132,-7.3408702682357685,-2.668366812865882,0.6181299546506556,-3.4213214037411204,0.7688821773129917,12.762293585409484,-1.4877600762504763,0.7371254065138506,-3.155852031378077,-3.5428672209498413,0.03474944092305768,-17.65368361212755,-0.5429206361677658,-4.107026701012858,0.7474653918571136,-1.6987762127313704,-1.8480877230715431,-1.6247333485133695,3.2746732176640134,-0.3922433624331956,-1.6021991439681063,-4.217960808650821,-1.6225527122860164,3.585496065460209,-5.1172920381607,-3.938331823680636,-3.277437013298886,2.5784327424104165,-1.1149711904295463,-2.0708182620899644,0.004302450625291577,0.11666413901211471,-1.1664411199248303,0.028330496068399914,0.06431767694669005,0.06599883442517568,1.3529055664973964,-4.273713446113941,-6.439389780507661,-1.2503506243889895,0.15837909064092284,-2.719839476342118,-1.0674634731365649,-1.6606739885906427,0.009734049540381422,-1.2715050287140737,-0.4247018603515499,-1.1973660012812273,-1.8346912418484247,3.421954263156393,-6.34532700664538,-1.4263244164232316,0.20791790182351927,1.1529091050553908,2.4434516290835275,0.46768286709693874,-9.945866884540598,-4.50453577431823,-0.48974267816525385,-5.037352105971309,2.6700100858987557,-0.9965866220906812,-3.5019417651660456,0.9139247900454153,-5.9757682083817665,-2.4218249380663472,-0.24039317098429105,0.6956385446190531,0.2726611275153977,1.0155360820767192,-3.946447203829094,-0.9786528560830204,-0.9722156537918067,-2.576226505641873,-2.024716283247623,2.2275405439508975,-1.0418928652393233,-4.534680737050038,-4.769372896985207,-0.9090476165201234,-1.6832495217484529,0.5076604277987125,-5.615902982968189,-1.4954939299925891,0.5143488765168591,-4.648269099870395,-0.9352483916110736,-1.6763525302129445,3.917375161712576,-2.197016868017169,-2.1394546030738795,2.274429846171596,3.0154668934696125,4.20474993771261,-0.03016921215751457,-1.8298506001531216,-1.8810757671563303,-0.9825737842169893,-1.5587014821298137,-2.503899638653048,-0.19550483324309365,-8.29086615751187,-2.5346612863879923,-26.89313857013938,-3.143873795069987,-1.5481793149732397,-0.1377943484832869,-1.8033108064318293,-0.15207520032318464,-1.1363224877134253,-0.6059001441836828,-2.2029731740090455,-6.511110178164139,-3.7411277886904264,-10.185481517652091,-1.8574483500370473,-0.48120799714238893,-12.28064271164065,-12.216973811771902,0.07279964644774235,-0.3616269697019918,-5.134273988344537,1.8730639313620507,0.4549049490855224,-8.368732596159495,-0.4339977726566913,-0.6441091706592152,-4.965083557461918,1.4168496231480627,-0.1659940207848673,-1.0321199964040213,-6.517579686839246,0.45589397008388466,-9.381311017194816,-1.0621103830087064,6.321035245464818,0.29650720012974235,-0.11951736468591288,-0.23355999522155163,4.327018901631777,0.019242338093607973,12.220281457374082,-0.38453287408946735,0.974537444901987,-0.9701739956519617,-2.143421967733036,-0.8119988067861083,0.05085264358483153,-0.11964263794045192,0.25681940516268226,-2.0955290023609896,-0.28186347731394595,-7.673610703000589,-0.47499479262285677,-0.3496939332105043,-0.9985765486653315,6.455442084603964,8.362302937677276,-0.2584671846177662,-5.395238649056673,-0.8342044810887203,-0.06374326828709098,-1.6302376149723414,0.6293527055356064,-5.358885984550763,-15.081447749350138,-6.072745396820534,1.0094748830940996,-8.31923208913878,-5.811728426422331,-0.13537870239819785,-0.5147608581248757,0.05404922296319705,-0.22890573193985025,-1.3397188583788868,-4.791671186155323,-2.5245713968657295,-2.4125787117003883,0.08700816848308679,-2.7333026428424687,0.11345664756732425,-12.37985635330515,6.162904545076005,0.049141904839197836,0.28633214720040684,4.531388316079742,-1.2255312925113935,-3.0419385028451056,5.739251531162104,-0.11996078338025823,0.03513711283648117,0.5102316044135856,0.13395788368310674,0.716672257174978,-4.3629894918327174,1.3579802079435872,-1.753085319534346,4.246644597241188,-2.828305488936715,-4.421413772362498,-4.668804802728125,-5.46892320137159,1.173385429742765,0.02655864373914665,-2.347766554159077,3.232891878582884,2.172628822181482,-0.725417365204132,-0.44574817701809627,-1.6554814779360794,-0.6993602170482497,-5.030214375112047,0.278666556133412,-0.4983907160367021,-2.6443991225784496,-0.23335887263768718,0.8469149782689867,-1.9118264972166836,-14.197454673071581,-2.131828030045508,0.010278796849277237,0.4078949498779166,-0.09946799971379985,-2.04984612110578,-7.467361603308809,-8.658608301864204,-2.2769184589798597,-13.109861143333017,1.490358285091255,2.3538871185651864,5.179781776898303,-0.5684981086534122,6.405757805856649,5.5881378265133135,-5.5209866102035985,-1.1536365455378836,-10.693601979051738,-1.226784162447961,-0.36882066471535924,-0.4214795418616726,1.5461381904220957,-0.6881981489189295,1.0033097646318678,-0.3946826020724601,-0.3289306367769701,3.7930121973505377,2.9046745329725048,-0.2617427085569432,-0.3425407380260245,0.35723745242466276,0.38803007127102357,-0.16253186934369054,-2.4039784088223066,-0.564975090120104,-1.1945143605939763,0.03467342470007483,-0.23173058805882843,0.13036818108091688,-0.01799134242875247,1.8006157231788933,-0.23856178305833542,0.43074435737336586,0.19208776178897682,2.1701293102317343,-1.2251199999932763,-0.4694153076248755,0.5689765613988872,-6.549873528050898,-0.9483658505034396,-1.0920101163325524,-0.4534435619365765,-1.5391370958311081,-0.7255858243403948,-1.0819054884712005,-0.1792692007792161,-0.15500879804222198,-0.22094275853993428,-0.8594155683061161,-0.8923693461977759,0.15514038822992615,-2.4277781043646116,-1.8723795405962296,0.8145627840761764,-3.4209978294765597,2.1020534372982436,-1.758742307744906,-0.24177587497444253,-0.6664485272932749,-2.355837993131733,-0.8440728075094378,-1.0300704167977581,-1.8852387628301068,0.75985927049085,0.3628851327310369,-3.281809837157347,0.8376318584319629,1.5813830109339975,-4.295964967069581,-0.3161112139244873,-0.7238944337926378,2.136103675710068,-1.501475237140437,-2.149740933121292,0.8241068903611931,-2.8703419504671697,3.2510840767116362,-4.1435492635775635,-6.668489594003188,-1.1898827164321515,-3.4112781185025876,-0.516113441598295,1.2461671251184898,1.3176893543785955,2.9597254664528196,-0.947604709891424,-3.4840235138946127,-2.663905751754418,-4.016562895501396,-0.9109993250212235,-1.4382409405547936,0.15484324807996908,0.09157067381324316,0.18766970055753723,3.0057828803873328,-0.9740829739335566,-15.212334534803464,-2.4561288848522578,-3.8832310704535518,-0.4757822854006822,-4.641912666349799,0.03851930392251789,-15.881442371329536,0.7262776030873089,5.842233286361362,-0.2550981909615476,0.18782526708222114,0.5591556805859188,-3.774268481953769,-0.23443115487029856,-1.9384291249704546,0.4191613098152005,-0.5794964536017417,-9.118081089613291,-1.5422914541696968,3.744515060733936,1.8372600555261618,-1.2407669397700842,0.36114432733171076,-1.9418593209638608,4.15370253416312,-0.2186487825664751,1.725952786964127,0.24376833882671906,-5.798856877292793,-1.8580959920335678,-1.6469344655667015,-0.3849006140437598,-1.4606874539736496,-11.583722184373514,-5.5217167188348935,-10.033780633819422,3.7173197039500416,-0.0874454628246763,-1.137966920343253,-0.28922824633595123,-1.6867744717296431,0.3107239498608678,1.4346183503855177,-0.712624797686256,-0.407045341682872,-3.6179838499186934,1.3688806966972158,-0.9942401390420884,-4.480056261097863,1.410258031821757,-0.48224415892824235,0.13666358711403392,4.836886105719475,-1.5910946860053636,2.9211115625825252,-4.644518649834581,-6.741519293313297,-0.6458546728801282,-7.1947215003609495,1.6974050326289414,-2.098705066201804,4.060775678187119,-5.304170176491996,3.588520376678924,-0.35048632476210234,-0.07376601990251974,-1.2392900358058923,7.369879182338591,-0.03595662343016642,0.3321425705182802,-2.155006571300601,-1.6521661809675054,0.5849649495991789,-3.35197424156911,-2.2412362293412538,0.4550851787192917,2.107938864368689,0.17023176659368805,0.750722712296267,0.2531420888793538,2.0523081236081375,-0.5074039211807382,-0.05152800475838934,-2.0259549101359364,4.35017799230773,2.8613931827504846,-0.8576422952882653,3.7850943072771397,-2.178497957050183,-0.001370904205480603,-2.566778576861581,0.9129798656613158,0.1498184598759159,-2.4026109166303895,-4.173873404348876,-2.2853440475781115,-9.406618936895267,-8.978317100070694,-4.415384272857028,5.757504491465558,-14.325281895358641,1.6901622893648098,2.186892514406077,-0.05142836179549103,-0.9129611418993948,1.2395902620323769,-1.3687210426054197,0.5169025597227748,2.0517610386714464,-0.03274348146774358,-0.7320563613383759,0.9228031068875904,-11.07103665241111,0.3254932237633785,0.5008336860482753,-0.2523707937873995,4.330655129709188,-0.178943796397631,0.7934386839299573,-6.099827648964317,-2.2989488607025566,-2.397450941862296,-0.9198782262447296,1.7412556384259037,-1.1917344226375433,-2.5533647300372504,-9.334707504993466,0.2530507168662577,-6.331641883885213,-0.3153981450527017,0.9318557910911629,-1.38293474846453,0.45894568195044133,-5.5121194329620815,-3.105662476543781,0.45702718805758197,-1.4568861447036836,-0.7851555074711937,0.49672396515851214,-5.921063881205213,-4.719990904511,-5.144207816095996,-0.9109990925023358,-0.6087631314371688,-0.026501380273068812,-2.305192006396627,-3.7803710935808588,-0.17063454976206172,1.2703739004713381,-1.3546641576637684,-1.2648867402971014,8.228610046910651,6.173764842326706,0.11164188214157837,-3.513188474401063,-4.0700173964685336,-0.7230001849616423,-7.752904197588672,-1.6958955754431555,6.982754933467035,3.220072600106757,-9.643973475721282,-3.458745134299099,-10.178348069376714,6.33937399901692,0.4336258834527476,-3.783493156386027,-0.024799532508428635,-1.6143317031658322,-2.40480341210841,1.2835244008407056,2.698021849318713,-0.9700115037528205,0.4724451784258411,-0.847630182510015,-0.8943750383144841,-2.325782029459734,-4.890353858437084,-0.23134463763380717,-0.4776981698049835,-3.3097727535616324,-2.4727244745529,-1.0582577618707338,-1.7509612843036955,-0.506558732176359,-1.3755362933848596,-0.18710056501160932,-1.6678697333981336,-1.0299993832742862,-0.47823402462663206,-1.3298516512483898,-1.1430917432730734,5.259618277194347,-3.861856867388355,-0.07431866363581603,-1.221434115055416,-3.1090415770659323,0.4741447854624391,-0.6017230250715795,-2.2334125986567765,-0.47634105903295565,-2.1801505496531157,-2.2124062615837206,-1.45693903434521,-0.3699246070995213,-0.17375473242973422,-1.644513343030083,-0.9160569356358954,-1.3127990279304214,-0.4811372935949005,-0.6295377883583818,-2.2124567268729347,-2.48775859761152,0.3409833399116377,-5.048409273122149,2.323996075556487,-0.4843532224133615,-0.13741722225993536,-0.19224373635576536,-2.2147487949191165,-2.302639621622518,-1.2625607374357921,-2.7694572009449394,6.904405908802504,-1.2339579713631306,-1.0626817343477117,-1.9598698792117488,0.013203573333156965,0.8484712880563047,0.5778633449690106,-1.3721665403092693,-1.368926049951798,-0.6341428915029322,-1.7370048707132695,0.2583289825050616,0.41284763702998295,-4.1387281399689,-1.9749525470531824,-2.2058357860205717,0.8668677140129508,1.9849760654553346,-1.2033740864341684,0.1896886772010559,-2.4500324763415864,-3.412750430730848,1.288540309547536,-2.2969869291987397,-4.00128428156727,-1.2849537975284477,-0.23517155384610244,-1.6505647893024473,-16.34379322606846,-0.30308801495720494,-1.72174877781193,2.8962762100124584,-0.4071847036841109,0.9048725603255754,-0.8818350376367496,-3.8467867825529467,-0.6090755646805494,1.2707381489929355,-3.2366136606800615,-2.155089465997796,-0.3304097367872065,-1.3178624243545618,1.1796020552372757,-0.31932157296240515,-16.83923052080436,0.2793359538531784,-1.5140191607338214,-3.6516774848336677,0.8035276238654716,-1.4792976770025579,-4.2009723750350245,-0.5013048838296422,3.3800342541991433,-0.7276024133491236,-0.4311068360537724,0.6473180900818116,7.513796472418353,3.5879673685406153,-0.15560647792194804,-6.85215419924714,0.6476316061595806,0.03674675275833149,-13.8089412294087,-1.9345864874437497,-0.24329925720398266,0.24023800820460478,2.625179835409654,-6.839335588803857,-5.3680584892017285,-3.001188563597665,-0.6618113961157036,-1.136638943617915,-1.500279250267963,1.2528581173353566,-0.6085673776221976,-3.1235664554826843,9.070234357916846,-0.357486250579187,-1.115416748985719,-1.3807259361179411,-2.9872182594272614,-2.3358736716423594,-1.0268278672215112,-3.874089280424858,0.038549237438245336,-5.668970340812783,-0.559219249830073,-1.6707319669076972,-7.234794267521236,0.8653082051593454,-1.567662874531743,-1.7308989233343588,1.7521521404595077,-1.2711671390902723,-1.2512435032573361,-1.2520016755915135,-1.3021088972933417,-1.5221577173993337,0.6536464112953153,-16.6862154867806,-3.9269343918814545,-0.9157625550093396,-8.01007829079943,-0.7440977775865368,-0.1986553908162772,-2.400471851453094,-2.2659923247214544,0.9106533927528261,3.208746349678483,0.23683553653544887,-2.719014662260777,-1.9723754836758847,-3.969239210614258,-2.2054219542803892,-1.9407779500490399,-2.7173919343523316,1.1206775204554096,0.5068806765470374,-3.687788158551454,1.0173291318490927,-3.2465211179126383,0.13104298254803254,-0.004641214356177769,-2.2935051384443867,0.11364613581329829,-0.8207670074824724,1.8257120648193592,-5.528037779376369,1.2335240988803482,1.113138676328655,-0.8191880484714568,7.6624459427629406,-4.642472341331377,-2.3095785529757715,-4.360669238351466,-1.3260037088141141,-3.8525203191728314,-7.21905499637787,-0.7983040230522992,-3.6681147129415845,-0.10939169610477041,3.7217155385300873,-1.634463641605851,2.7297473287276706,-1.780329860739453,-6.017759652090643,-8.042347488905982,-0.6895049927213539,-2.7780911576186074,11.940747262119126,-0.9838917185552343,0.4785398138713426,-1.007970782505089,-1.243718459933145,-0.48118937261116296,-2.2195494510318716,-5.336145404720087,-0.12161686158386346,-3.206128923742067,-2.9489960545024934,-0.7027076305858538,1.7937771294972589,0.2685456401971741,1.8305337987432695,0.4659034376921151,-0.10068864795344622,1.57368491137357,-4.520589551455216,0.9212515275010177,1.0277158721148567,-1.1316869307867627,-0.8099941214788806,-3.248915144439617,-0.3603914412269233,0.8864767499188586,-1.4118964863537675,0.2876378415570832,0.5209538566462301,-0.2718534098665545,1.2602620798858903,-4.176771668921764,-1.4589211340188195,-1.4673037511207117,-1.0364499724714717,-0.4009008322243461,-13.78319963348572,-0.1621580688732669,-1.4306554126866633,-0.9989539397653941,0.6854048030642725,-4.016577644997479,-1.678991381464264,3.4627523311232427,0.20556271385205058,-11.82557606672699,-5.19797640759242,-1.1582853768685424,-0.6811691929267544,2.637435577945737,-0.7828317079191991,0.05774392713988048,-3.529777862995608,-4.192176617098884,-7.831724207660142,-285.62939453023046,-2.7854809715814537,6.922950563002272,-9.382697231693692,-6.925104685184966,-5.899547419145722,1.172970064301958,-2.8487156086944943,-1.9950885395373705,0.7009406167027323,0.29868490113615453,0.43186490770423486,1.1127882755781764,-0.848350525339029,-5.413180170184199,-1.8168046008682959,0.22700868361181079,-4.416109051516298,-4.612532099955443,0.37032963503915933,0.9907064792205735,2.0560872936803984,1.0028807518217897,-0.32744738788518923,-1.7813351965687283,-0.7250958237309457,-7.05786085179901,0.15466711385789245,-3.145918053827531,1.4931449141603221,-2.842010303328216,-3.231109318564231,-2.2446069629639926,-11.407978004019268,0.03160468941122977,-1.43999016757317,-2.747548644244771,-0.847304934351668,-3.5082444380122384,-13.831570306334715,0.08869513844643465,-3.170655846874173,0.604502248514775,0.88454541197199,-1.2927486777860062,8.9225272728249,0.00037588158484748804,-5.988494061559259,-0.4728674286049666,-1.011969219565153,-6.46249784544741,-1.8508553172280833,2.3450123831194536,0.5971981673112128,2.118025070842319,-2.4465891698983597,1.2425311019832055,-0.8573638023868522,-0.9771814201783265,-3.5740402486925826,-5.379358113732737,0.6103440932230674,-0.158201706813506,2.261707753547138,5.764710437230078,-0.2640500959324518,-1.155056772485004,-1.534105997592429,-0.30136263266788416,-6.035083656375265,7.675985656346704,-0.6564222336129878,-0.15289765496544686,6.47363680434062,-3.9856690814138465,-3.377447675981923,2.64660638739612,-1.5986421643995952,-3.030647865029469,-3.2451445454118737,-1.9495988736986885,-5.192727932808681,-6.493669639127681,1.0019464661740598,-4.29296802350944,3.7472094684796673,0.24034676527401774,-12.630264918831363,-0.5433328997021651,-2.9499464734760017,-3.4628744937872367,-0.5133180844100091,-1.217357404586801,-4.382778679420649,-1.496138921483941,-1.8275460806361974,-2.214720117590986,-2.605735773994467,-0.9697448953252431,-5.121931770215285,-1.6266891723308274,-0.9924782715953124,-0.07834811495355,-1.2613869068539714,-0.7699646465047003,-1.208707040538259,-9.278486655694387,-1.104001180917965,2.730299871383533,-3.703571939066949,-0.016510533479257815,-2.1710616354749703,-1.8592062161436642,-12.446039505529676,-2.845321981086438,-7.170022544822859,2.767592426693775,-1.4891672175605097,0.35785145578152583,-6.099644494550359,2.514109389787426,-9.086892891198431,-3.759602699902154,-0.6830382735298712,-4.246948797230978,-6.9919883689364974,-3.7390501311360214,-8.871855906039373,-16.624762804133148,-3.930120344913445,-0.0726302962074886,-1.51536441967334,-0.32513250995761683,-10.741983354982004,14.699556315436645,-0.19316525713705554,-0.5923942370172058,15.705720477079804,2.854239539161116,-1.2803659791172357,19.408427900778197,-0.35662007664233014,-1.5026820093311084,0.30752226833055984,-2.168600577728346,-8.27494868612488,-0.4420965600394091,1.001299230392105,-0.6018470417310877,5.503037086622905,1.116130210674048,-8.973928667414421,-0.8072858186226199,-1.9649231827006113,-10.251538258595238,0.042252855805002855,-2.929203334740749,2.613645537290084,-2.5290805030987125,-2.240730389457534,-2.688273456962709,2.6683380111960124,-0.6986363554462632,0.14059928892874834,-0.5406673016506717,-0.5678342360143446,-0.25719936320600023,-0.0914497195736317,6.502218921926117,-4.853663723281161,-8.300625054153626,-0.4359157188654985,-0.020913497271019856,0.539525842923184,-0.03749481909879747,-0.4127660511508083,-1.5045993984424537,-4.1477761212277535,-6.004188681092471,-3.8351047747315765,-1.70260596286265,-0.4270153167985511,7.904864664153242,-0.4520118623257041,6.5563137912719895,5.366536168371342,-4.30414862323613,1.3741961397204716,3.425972993974351,-3.8296743567644187,-1.5963289299025891,0.43674890870753613,-3.2620896055714264,-12.231813132421788,-11.83486022860248,-2.885898340816391,-0.0988504948165409,-4.408383066673765,0.06771008135008785,-0.017854039544835745,-0.3664293073729081,-16.11435591399449,-0.9571596972516169,-2.06343551323384,-18.211622446681186,-3.24159191414294,-0.40612735511956616,-0.8896961072261671,0.013752577837989435,-2.3015109918820262,-0.507969522817863,8.759380224372642,-0.4798442870748318,-7.785060488504944,-0.3165822056817204,-1.6222822999452635,-1.0091839803176046,-3.1045047222999167,-1.6448604513477534,-12.173224366199799,1.6741706345225011,5.575048740247255,-4.424193222648351,-2.1934222099176504,-0.8394217102320437,-0.6432881994503376,-3.6621106187093777,-0.714247791971988,-2.040591408244852,-2.6706588611631172,-0.15482397491039546,-0.7062336207806297,-4.513416053485899,-0.944328811606307,-3.1200789670142823,-7.528658238930548,13.615313503354223,-26.44774950880213,-0.00797815593754243,-1.264877403003547,-3.1440340633694355,1.389642947241713,-2.122867997578828,-5.832364197979357,-2.7949694279289328,-8.903807399271443,-7.916926236974061,-0.8599588391437554,-9.477237848166528,-3.6835999817859504,-1.3816039384330452,-3.6317160108059645,-0.05338570117529663,0.3236051560766875,-2.449065113113916,-3.9687848346100694,-4.24276604654891,-1.9810617582289676,-2.6831854932342716,-1.0646809067808132,0.20792496443334527,-1.2812835541222956,1.5659507075246868,-3.3459826994075224,-0.041203547360264645,-8.340805222033763,0.7554492625003967,-0.07864347587235979,-3.85124735803108,-0.5654099379412815,-3.367865939851638,-2.164471883192557,1.0605257667295491,-0.0012877954306671328,4.638821111965641,-3.1463463488688617,0.03581358064249081,-4.12668495737429,-4.273234315093547,-0.5791687976333048,2.566005960886352,1.0625217197525396,0.1981307239060074,-1.0649860872418166,-3.3276795182315704,-4.49139730456093,-2.6001399384876085,-2.2381303435621454,-0.787797055597654,-0.6764958662915196,-4.542349149838236,-1.13652466708855,-0.16993435653417233,0.1181430681593326,-3.4540064208198737,1.0813841783757923,-8.15782238530155,1.4502924577962888,-2.589473032517239,-4.484694882918625,7.038906780759482,3.299545818908123,0.16107447023722363,0.38454663411896894,-2.4912987353338507,1.574015052201488,0.5262542465596234,-1.5011353292509695,5.0053057328023485,-0.7393070195528719,-6.1149610307521,-5.974150558197531,-7.754483713434966,3.0682347880798684,-1.3411389824456232,-1.3294648753103,-0.061749500712339804,-1.637143839958514,-0.4769435611464695,0.8846364080786628,3.3406644753375625,-1.8172186756570234,-0.15224893945205437,-4.416616279816772,-0.7040386568330189,1.1706942341176596,2.9499327526067773,-0.2561234498258075,-0.6323789029123127,4.030805200758186,-1.7589381574919134,-1.1252604070347598,1.8922259657079956,-2.5655208151451685,-1.504257698996347,-0.3993156059207652,-0.9475433696964763,-3.852785231996277,-3.3976269889421906,0.048319032574412286,-0.6748864048044366,-6.393895413491395,-2.219668194903293,-0.07318814950348106,-2.2970828700809394,-2.2105672345143272,-2.3218044499085355,-0.2877878127508142,-0.915271016960161,-0.4972893101567212,-4.61138398963655,-1.9356808153086063,-0.7184772002491925,1.5470869396834444,-2.0378813452075235,-6.3312173380703,-0.8878892749056808,-0.9406535748493373,-0.5388178794510704,-2.0552658581672842,8.173040701606272,-11.24689322948174,-3.4258526980443906,-0.7285157254388445,0.14670551448028724,0.5000479457567603,-0.4216126349480413,-1.8947071069244177,-3.5411998324179446,-5.738893592995017,-2.7459747400275556,-3.497058740515072,-0.5137548711391042,0.8345658307670246,1.066507764903196,-1.9921998184122474,-5.002393371156795,-0.019667049010673367,-4.709799982415382,-2.7914563009110314,-4.8568168058585135,-2.279552153310153,-1.631530985070976,-1.8257749342892433,-5.191439379960614,1.9077438041562345,-7.877096835485732,-0.7082886041700338,-1.354350620107104,11.814469399868743,-15.492580665226447,-0.9080078671576879,0.023565249145552327,-12.870740923745283,-6.569906005631319,-0.42749105352962774,-17.9131292856719,-0.30490032550452467,-1.4749570810448713,1.0716581458117922,-0.10873462787207193,-0.09686773801561113,2.298817475215895,6.883028124217274,0.011219591480554127,-15.919615164224222,-1.706237892621492,-3.9463296495022933,0.023251818660068146,1.688247237732798,0.20383842259597437,-1.8784376607609738,-0.3400458590206289,-18.20783088193965,-4.015863958902187,0.13475900411940378,0.10556983978929284,-2.080167887121318,-1.695235215871777,-1.802517215659733,0.34086655716531306,0.9711940331082541,0.420896708316097,-0.2883815092676676,-5.497637709927778,-2.086388335610674,0.673081981595021,-0.08297051573582298,-1.5121743843079247,-8.121064991672222,0.19910918956977122,-2.6013255826930926,-0.1221316060922217,-0.8544638491282842,-1.4146778740297323,0.2491708374665079,-1.8430479343934127,-8.513593922825294,-12.983664445792183,-0.9572172475506718,-14.675493825262878,-15.62798310615866,-0.7515001044663792,-3.9975714049857807,-0.07604946616304818,-0.024639887404397667,-0.997274507530756,0.139223280238495,-0.1732064891799703,3.469467955172877,4.390211985093844,-2.5894543495616236,1.4990160515691486,8.278051268363669,7.014201019438345,-3.4710522878115655,0.3619941743838129,1.4421061132744837,-3.167660208855732,3.4744165540463925,-4.733477425241095,-0.8146976409847866,-0.44836175769143616,-2.3509138182039013,-6.252329139080567,-0.15843517264199533,-11.08654370543171,1.53286058178765,0.8249816517919506,6.9396481909534895,-2.2782283382797424,-6.744116176881438,-6.890150088942469,-2.293869970448257,0.8932947356991384,-5.189355752209109,-4.070154302419775,-1.9767585321897898,-1.470412532709512,1.223726754619576,-4.145694231637427,3.1202636729011,1.2502181194274646,-0.966878905901451,-0.298233964927331,-0.21914505931516834,-0.7171563285953484,0.26557882466240285,-36.70253406150753,6.144811230022025,2.1630055791074514,-4.358104961567535,-7.129666097655929,5.024798524237754,-0.08144293347596075,-3.293571274404707,-0.9877798610016938,-10.879567188513,0.41175352369921675,-8.54257472120232,-1.2970087264421384,-2.5348120184517002,-6.903620451675477,2.3816358181159996,1.5815179805913875,6.653006686409776,-0.3887986214920608,1.9156438254779902,0.19288598069876192,-2.1345551355852717,0.17395360347402447,-0.03822755392960142,-0.7913681310405799,-3.9411071842015666,-6.706637208627439,3.641198611305937,-0.22926442831729524,-12.112007387448289,-6.607311610572298,-2.7803724294722834,-5.428490999858045,-9.382967454159003,-1.0709675297179388,-2.4005016936368553,-13.334081035255409,3.2400400151553157,0.043456316657344854,-1.5273581466565602,-2.6741673337078695,-0.12452754998382902,-2.6571297913068173,-20.97730232340848,-0.3453369612044616,-0.665926329798969,0.4124711923824153,-0.13937535808833473,0.8165425292723811,1.4009332159644952,-1.1476917487636438,3.0288723010719822,-0.12289169552457734,-22.941416281433465,-2.360547859568372,-1.397733059559354,-1.2862571372445177,-1.5355216281585584,-1.2562368591006032,-2.1384048656076917,1.27485016781417,0.34966979574405516,-1.2399153551066955,-0.01419094149702533,4.993610853259355,1.1454115019408269,-1.4087759612368151,-6.257839503481569,7.913716005205396,-7.5114897121030015,0.01696672311063801,-2.5276291742244976,-1.6717468678435132,0.08277293040770062,-5.308894065958184,4.225114703255689,0.665601091999421,4.967849271455399,2.629250819182296,-0.7103585455741483,-2.9025484919312947,-16.511265863054636,-2.0796031218024997,-1.3858721780975833,-0.319882617005334,1.0279911201838885,0.6458817632867739,-1.4313779641380697,11.4585435902818,4.194586667658838,2.9371336907499757,-6.2817924020333455,0.13239521732423143,-3.0082760268040474,-1.023171730005216,0.16407797288039908,-6.523880076426981,-4.680204013540942,-0.34971110319767096,-1.0093773725677868,-5.478334232072628,-1.0227337273017298,-1.7350324321994335,-2.070863719483202,-0.9838174609789999,-0.07357978448656033,-2.7825394171639646,0.06768717129554856,-0.3936395404998428,-1.3040414358188446,-0.7372349356336362,-1.2264445521463256,1.7216426502647073,-2.8149073542222895,2.8252931922943394,4.530676780451653,-0.2575093068416602,0.19407054331274895,-0.17805362284989731,-1.0352222891573268,-3.1632522179161264,-8.07645414104121,-4.2319223784206255,-4.40963525682314,0.9203246596425348,-1.762129668880593,-0.3851798746658144,-2.832716453076359,2.076343060774639,-2.3008461798091733,-6.209541716060037,-0.30670886025151045,4.188577857949063,-3.6464653878397537,0.033866031573189244,-2.393875212917493,0.7630858977109719,-10.800737475105173,3.415817989729511,-5.757817146258226,1.2496147250944467,1.2357972539787065,-0.391175904543185,-5.933149987339776,-2.3060122567771826,-1.676054868241868,-1.0758328583775472,-1.540243323735217,-10.491847646840846,-1.6624784757632856,-2.389093217627857,-1.248778551014929,-23.732673937596598,0.8558920119038824,-6.020030211140788,0.9176905507468355,-0.962276879903507,-10.284399254113561,6.32267467036769,-0.1670108197582941,-0.6157517724535738,1.4357554705848217,-5.121284860319841,-3.043762950543154,-13.247888527096936,-1.3652167754483708,-4.485277251706538,-0.20521015591386244,-4.201750678779323,-3.256152027949611,-0.9977620336246613,-1.7177390061698918,-0.7666139952542783,-4.307800159383855,-5.191769726295797,-11.39463574468214,-0.3773244540146172,-0.35057983228971407,-2.6309378741859986,8.04112825877496,-3.0887847099353904,-2.055957052846673,-3.4230402750518696,-0.977940267049428,-3.983929201452566,-3.180705043438072,-0.9506351172696341,-2.181907908029129,-1.8588107268585075,-1.3792767948656024,-0.32553499911628897,-0.09878224197086634,1.4564559637778758,-5.497454643647006,-2.661947527259116,-0.34822475103208106,6.086807176483193,9.990347098067458,-0.0795661572979009,-1.4674357123202446,-5.283480870531681,-2.788358775446565,-4.093742180906233,0.1313854284186231,-5.746659682129096,-7.631451691204171,2.9835986998506296,-2.6398480806743874,-10.391857569980461,-9.05684749241289,-2.014839022046419,-3.6390050336327615,-2.3111422166621725,-2.7930093672019773,-1.0445215731904627,-3.694960392741778,-0.3025492283018815,-3.307606284178966,-6.1758517602825584,4.524717398345326,0.8370460182371136,-24.562137130434557,-19.951924782551863,-1.8140168119074096,0.7179659398561039,2.6203522131814276,4.347613929961279,1.0765282360473865,-9.228927899618869,2.611187707550812,0.7988664599094449,4.513253389046803,3.9076016467040064,3.575666583138733,3.1741823440379924,-3.094749088704614,3.7808188961527436,-5.190837990136596,0.014828918207587076,-1.3777548423922386,4.642234879116387,5.196764307285425,-3.579643523445192,-5.973848020993997,0.8785835363992442,-0.05092493150800106,4.629996266890273,3.776386793271484,2.615342530651416,4.155693222044775,3.7214915051565405,0.011619072584876851,3.382832754766896,5.353702376856514,-0.09775427066996081,3.6202604263484024,-8.062252039516649,-7.399289211310628,4.2638164770895735,-5.036825989750169,3.483707452973584,-21.2515796139629,-0.004152899334347349,3.4456180376572694,1.3105293572621255,4.05263499672122,1.4539819279906798,-2.051796441007299,9.5956318250192,-10.418499057204818,-6.149545233500833,-1.0742223708754055,-4.859342719876067,-5.759649002709691,-0.4460157080487418,-5.195426586517973,-0.02612119746253658,0.572614110851834,-0.37505781855560144,0.1790633164472737,0.4316941314728122,-1.5062404799417588,2.028422933934831,-4.463028657975834,0.631925686826374,-4.8440866724415494,0.3830896877896692,-0.07251902539655963,0.6110350681813428,7.199705199474562,-0.46149103451229784,-2.306642805908925,-1.146673978182206,-3.3662071318676285,-1.0791655392123467,-1.1538644284120942,-5.693714298091541,0.2885738982797191,-2.3931301844840065,-13.032940061543954,-0.762279957408815,3.4269526889884494,-0.5010098539368962,1.6898129303861915,-6.023999575817775,-0.7571766018922849,-11.005544770926118,2.937935342058941,0.29341394086307915,-11.14787066883918,-6.4956728711086384,0.281322637639607,-2.3693002322355095,-0.07469910765832286,-1.0076202353045034,-0.7424898994191611,-1.278605827783801,0.41964670220554884,-0.8610447383523084,-2.0861131610125603,-5.517667639386495,1.2325317483208542,1.9204783892341513,1.2433956636376275,9.544660593848516,-5.9494396098913045,0.057260221761145286,-1.3361986759499669,-1.098008883007062,-0.9451493654190178,1.502229346673235,-0.9083856393186853,15.725137269314386,-4.69820271262949,-6.744763937684004,-1.2722429610407269,-4.500753606863308,-0.7430493069925269,-4.817983929098733,-0.053540350547139307,0.22357945940444257,1.916075162837143,0.6321632169421325,0.09025687275608311,-0.38552807314911947,-3.60250594977337,-2.5529818062774505,-0.57881427122648,-0.2275016377338872,-5.275263114613865,-4.475654884460425,0.08477792659363105,0.787573320483045,5.016575408228629,-0.9520149202460523,-0.6594370339458488,-0.6137749913866695,-1.469922089547264,-0.9035797443569046,-0.2758916583018735,-0.446405627732479,-0.6847677428587878,-0.9101142333142116,-7.6129300048311475,0.047173230279568455,-0.5081267209338384,-0.5826740972015454,0.6057125850302618,-0.5434884463735207,-2.3934148694919015,-12.208386954549272,-10.457276488341003,-0.49617397846165934,-4.751726920384926,0.8072743082018699,-1.2962541233178564,-3.8279659978067517,-1.9651245367418244,-6.117387920849705,-0.44913360359607113,0.4778844783260452,0.024022577699548017,-3.7122066168607004,-4.442497035495685,-0.14624714345527695,-0.3430768218133512,-1.4149835383303009,-0.9946500676571183,1.5506725842545008,2.601221080006647,-0.1747315427713409,-0.7778144320987534,-4.771212457547457,0.2642800330775366,-6.636624174077523,-3.362666255255868,6.422000069856801,-4.350961371428963,-3.312450452967508,-2.3424673986504843,-2.1447953764648107,4.83610882450916,0.7634406438169827,-2.4956964402734516,0.127604003285156,-0.9969502576835892,-0.09666843458653651,-1.6489392447655895,-1.8567073071488478,-2.9577277413844487,-3.137011485573421,-3.5439986631041203,0.48046686330020655,-5.704848061534905,1.117517370485242,-1.1844008528408712,0.5283013667149367,1.2081130175126151,-0.8315938093501694,2.1659872026763938,-1.2370697403002247,-1.239070023375015,-2.1332400211214133,2.346116226840225,2.9216769050700715,-3.9579286768179487,-3.816430135707392,-4.55425567191305,0.15439312555825008,-6.192059956020858,-0.21261314576387993,0.6204826314401568,-1.2778617860838366,-0.6734818519189733,-0.9001996801895532,-1.9585105048669968,-0.004236786941302791,1.7727309083919411,1.7861414226042773,-0.5527246234630069,1.9689140326146704,-3.6206413261639425,0.25414831193631804,-0.7538538204080251,0.899024575088063,-2.046297334475883,-0.7553180536173679,-1.1170364587470933,-5.957275495530033,0.42349599611188327,-3.0988431934336993,1.2906862473189047,2.044107587358672,0.010526021184151314,-0.032694801532848386,1.1785611737131567,0.29661559004447524,0.5481082376040185,-8.359210555198427,-3.215482080310706,0.7820048087895678,-6.573456632869003,-3.2331267762857627,-4.850724620354989,0.8906161024296972,-2.0419283894547657,0.13766414062127155,-2.488249678475188,-0.08231947010563996,-2.14596350045489,-0.672584941125669,-0.25248704686354767,0.04131943217339057,-4.217115104082025,3.4410388642626843,-0.35157069438526206,-0.14267794381617835,1.1387673676492442,3.475688100645651,-1.2870438462112472,-0.0010237366640709557,1.3314029822345719,-3.954755707601315,0.0833320192819411,-0.0735470328781322,-2.0516020698110284,0.6488855730394419,-3.6160517887429076,-1.8122761162896708,-6.917481980288309,-6.158154167070526,-0.6763789974934727,-2.515990411353027,1.1398457965387379,0.21992307972017544,1.816243955715598,-0.7251330059294759,-0.9906452804871663,-0.5514800800398282,0.07952888889353252,-3.0948958540585143,-4.723211585889091,-0.22512580046195765,-2.5545236799812336,-2.6784470254071038,-0.6039830709637642,-1.1783209303944508,-1.1956903345537067,-1.9965942936373742,-1.4855406357241692,0.16208984797268938,-0.38331775333379364,1.2314971390848013,-2.7042690199347015,-0.3850380077787744,-1.2293624000302634,7.530936939410392,0.9975262995391488,-0.4452126961927807,-1.4246431458898918,-1.3683105622579206,3.510378679336541,0.6325657692337404,-1.8282375889496973,1.5451852064669738,-2.2727761730052047,-1.2462898658126673,-0.08108042168823824,1.394781592783261,-0.3129595173312,-0.4484684268645798,-0.5058814045679523,-0.07132971871374094,-0.7741324798255648,-1.5715903506413074,-1.3868513551228472,0.8489912630444565,-4.628700684784399,-0.9825725712132931,-2.382353107910686,0.11083992796748358,0.323650673045703,5.056751956320303,-1.713765094926838,-2.770018982782666,-9.417259859898076,0.972962229429125,-1.6147716866868682,-1.6568866245136424,0.019314734400009234,-0.24238434796618874,0.11554968055689725,-1.3256197830773964,0.24851442837849302,-1.7393578875886229,-6.523281111121079,-0.5106129623146272,-3.1597936359408183,-1.1669478057243527,-0.7828036435990934,-9.171954825535265,-1.934608261570978,-1.5722619198114292,0.17436190447242447,-0.022420589264783543,6.173613714210061,2.674918913390905,0.4798276897199251,-5.193939411529676,0.12638243047979492,1.1906316922511535,-1.2760382722582881,1.580954743172042,0.44937084862162235,0.37151605228632856,-1.786787415197717,0.5890311247156239,-4.92698672824666,-1.325954408581511,-1.3552466286593998,4.890411702063124,-5.2070714918027,-0.027691688510176282,2.4159647887002658,-4.225370464192105,-5.775508933136856,-0.2826748710694108,-0.8347494684087904,-9.277965206442092,-0.942663500541247,-10.226675717320898,-1.6473251478720448,-2.012338831425829,-1.2731000553006644,-0.1073688019723822,-1.0793927476864758,0.05841429508443692,1.1222071174191204,-0.9036051077479824,1.7106225984483812,-0.13838360880477915,0.0654701094044023,3.4099454581837114,3.1567889344979516,1.2292067290568636,-2.4766059274011973,-2.353487148870078,0.6571379968027069,1.1418056261661829,-1.418725747472416,0.24633136200648656,-0.211306757014919,1.3135575888532356,-0.8794671150041061,0.2817957538812485,0.33416481029167094,-1.7151008597141435,-1.035407766576554,-6.551571988155712,-3.798343810215572,-1.358083126616192,1.0582427399926437,-0.9018732904945603,-1.6836794407402764,1.7051036028710242,-0.8103175954427309,-0.3684216591337043,-1.1444046205350904,1.1476387528884817,2.3956071482824592,3.3638603937479443,0.6191911768870741,-4.765295526254107,0.8463437040044339,1.8804905596967987,-0.11874088219232286,-0.20095410666026703,3.539804010161994,1.083970168557265,-0.3689810039621678,-4.485553557137273,0.8487094886170149,1.3436545057116585,-1.0239589449364048,-4.797038867240744,2.214141086427155,-0.37149606203152646,-1.8011674196362875,-1.168562250975765,-3.6383899407728713,-6.525447899387329,-0.08223840034121795,2.527907431969465,-0.7740019708767706,-4.228380979122824,-3.4549580592477662,1.6522526044749715,1.5228163395345504,-2.275142819286866,0.37535534793634345,-0.04046001292859499,-1.2968543227599323,-0.24945782244612863,-6.396153257045972,-2.662810822033969,-5.1468646400201585,-0.29370391075384633,-1.8402295620483224,-0.6239006222157928,-2.1048024895807895,5.309016265688972,-0.4536959415388566,-0.6318551382506981,1.734422377764097,-5.875264625933844,-1.470159080348414,4.528816283049825,-1.3709744686148944,-1.2475935418607675,-3.3439321135176723,-2.814210068755239,-4.121058707513116,-1.8554554387969198,6.280373110009525,-3.316009822186376,5.936062926181414,-3.1489113699704605,-7.087641058639949,-1.8680246134996676,-3.1055415045094343,-6.943145906914765,0.6310538602508875,-1.3474953665297076,3.6009049380824,-4.691169892033864,-2.8374028699602962,-1.4729087105640815,-4.330546596670391,-1.2992809073354847,-5.699644779675774,-4.793644268667316,-1.5698880678583074,-0.31492159293949135,-2.940626148601061,0.5704656661380356,-0.635386304339603,-7.057877179447892,-4.909627883393685,-5.121722385925109,-0.9211615553281731,-0.11059198425191794,-1.0543340204696674,-3.0134761997872213,-2.718555393769023,-3.611946431898517,0.09666434542256955,-4.57996052689565,6.293054470621386,4.271120112329888,-8.612108438703077,9.488867537693169,-5.042681422978773,0.050570022033837536,-0.34353789292663284,-0.4052427279304978,-3.9816095112994656,-1.519467835437451,-2.103461087660892,0.21234065675033295,-1.4194654441823946,2.7513042387923896,-3.622690312997619,-1.826738441766692,0.9768624658439102,-6.76819009188813,-0.873534159729768,-1.0907752752539663,-2.4553042817058808,-1.6591708008861348,-0.7719926556729351,-13.811915495315745,-0.7495882232652707,-0.5294726193742622,-0.3929135746757971,3.027447626512564,-0.1098478727976592,-0.2798714653876774,-6.413962419947754,-1.3285130442421567,-5.950937822337168,-0.39413455458246777,4.484257705599204,-2.3799794153889295,1.1264583543573832,-1.1605266390657352,-11.051783311505647,0.6537008665288757,10.178076404796764,0.49008738051016,-3.322874429255638,0.3316155850318385,-2.313532665990568,-3.5983351762138103,-0.03578913844237742,0.779596115823906,-1.4069686344139984,-1.6578353016177718,-0.7856195467920273,2.844368564595382,-2.262247402801789,-0.1999050516251256,-0.14233460306449436,1.8725148305876367,-9.686024400251119,0.07748523383256345,2.483165607116353,-4.306176148419386,0.4243117643268975,-0.03510796122853128,-0.7378036207110233,4.076541264839639,-8.833168322405132,-6.8806428239951565,-2.951741866346257,-3.9627782882670775,-7.5321761849102895,-1.7259243759951886,0.48193027668405997,0.239182047304156,-1.2138579515865535,-0.36926262913925734,-0.12590047372601326,0.061099936889652796,-1.4157019293588258,-2.4504881743325653,1.1833701123559381,-0.6375776036793556,5.3822375232186195,5.4678469631759565,-0.4783278404929151,0.02437280757734442,-5.190454802867406,-3.1521920446504446,-1.540846965945686,0.8682922909762335,-0.4218207437200184,-1.7395810863934182,-1.4360011774260353,-0.0863002737314787,-1.043997838771288,-0.8503359739499204,1.9422821888843256,-1.2024981147043086,-0.9845312906702863,-0.6927305138288913,-1.344003626348515,-1.5645251833409775,0.24790960444980195,-0.425136457510589,-0.44800281173175016,-1.4290849133343058,-2.139527372886339,-0.254206447289864,-1.5100813543109415,-2.162647026194139,-1.6877181009210431,-2.0994775910056798,-1.758349128096779,-0.2825443370947245,-0.2508678391188117,-0.1808066622257644,0.2795375732052795,-2.2838845229532807,-3.8513711756627003,-0.9808791287581614,-3.2070886684566418,1.1912278913715708,4.539679871589328,-0.1599509880706042,0.6846978783201538,0.1239221548495525,-2.827171507463893,-4.285574657740694,-6.245845460231809,2.120493548058184,-0.4737059751107371,-2.952194133597369,-0.779337047564103,-0.4641628702938613,1.2744423511939487,2.778364930346438,-0.28511059540768613,-0.28776037528857834,-5.3645106183644975,-0.48252349057006594,1.8383125371538183,-0.6509822377595293,-1.111168817055407,1.4080097152206639,-4.152696984265198,0.564681207418746,-0.9601558904942331,2.952067208161076,-0.04503693040430582,-0.14952231531659999,2.4572951256447593,-1.0985539801223254,-0.12464253000271827,0.44214716838292584,-2.2758293779564465,-0.8600370430705087,-0.09995322942226069,-3.655790491547483,-2.805171092348532,0.28821967737469084,-0.129457412684873,-2.1408765195363806,3.049514659668436,0.21270242987767546,0.3231021049651079,-1.3029306777036482,-0.6111805852446487,-1.3955300500605254,-3.0283118655876127,0.34968811651976556,-3.273372224718892,-3.084402450533679,-0.9786490710600333,-1.3727973743347273,-0.1188274689448176,-7.044756806747601,-1.096668486754942,-0.45137500414561427,-3.2480160568239858,-0.3530477381376321,0.46033013778558884,-0.31782857186367985,-3.318230040664647,-2.9860918831788736,-3.552183239218231,-4.563256687196842,-1.3344569460643723,-0.11846834113670836,-1.4820529660135953,-6.072402856695092,-0.7700965329762735,1.8666266314145117,-2.786368917667274,-0.5270244625627682,-1.4407175712532052,-6.817852251918604,-3.2566631177786323,-3.3944109833090934,1.5668566744083807,0.45672408700188255,-1.6775876443104392,-0.14228050203857234,-4.321209241510109,-2.0754085760669847,-0.7424334407466369,-0.337738559100657,-0.9715532172642785,-5.689524758851056,0.16395978072076364,-1.2864284128333112,0.3308574865638925,-0.9373852248542677,-1.3378616395172047,-0.5636391644207185,-2.7892707937981953,-0.2655820475671604,-3.473801500236139,-1.8491481580133458,-3.765603139330406,-2.241725378996484,-2.5988627514874003,-3.764172876865611,-0.21090741761954837,-4.029915024538079,1.72145272696756,-2.918120080534276,-5.069529020022525,-4.956825193191029,0.6791690290352703,-2.3450008667888653,-4.637698839806209,-0.6753699879290028,0.7972955675484072,0.1851300423588825,-2.6621598626918113,0.10763719365557964,-0.6192983847984425,0.13909336569441139,-2.772940978234009,-2.0076627266745772,-1.3918552542911113,0.666757006032011,-1.9085704128772503,-3.5819384693220595,-0.3759840625311397,-1.1892278026284693,-1.9706726855620362,-1.826356120358132,-3.1705370382491815,1.7395174013739017,3.4365547726949024,-0.10665676697452167,-1.8328657929997236,-3.2938079206304764,-6.362830170217373,-2.2666870746984547,-1.1943004594922157,2.360710018351027,-2.120358740781581,-1.0460057235090918,-2.619403195453575,-3.858479192736768,1.0319186790431263,-1.4251814407469243,-3.2786296127010344,-0.146638068453409,-2.7777896064287,-2.079851971585607,-0.24012249815963221,0.17245331726073093,-2.2492373067058984,1.3258325081660312,-1.7451468620672745,-0.044793471344244794,-0.12108304292467545,3.488704227172201,0.4010693143396236,-0.2721001570147129,-15.688711075065966,-0.6542475299817397,-0.5442931071427322,-4.507530617200848,-0.09525369972226984,0.1330744213472789,0.3112847595098693,0.9576034987335349,-0.13658890613010127,0.22974803836615812,3.2282522775791835,-0.31512189187242173,-5.861123851041957,0.2528830820874226,-0.721001957989256,0.7086053911295155,0.24868741412468653,-0.5790402470137389,4.749298427918375,-0.5710278395188009,1.9225144092656758,-0.5361910120430324,-0.6451883928472575,-0.9926503780984153,-0.14548794478045562,-1.2348383818879554,-3.0890774069105458,-1.4190630167868192,-1.1534495977436556,0.3411604680152051,0.04013454514872359,0.1167011210897058,-6.4916692508723886,1.4615917289123062,-2.324546115507497,-7.9889826316895896,1.0860328427791979,-0.22702802750480747,-0.7151759281209713,-2.9208575971774984,-2.56911219649349,0.9094376014242971,0.2740016925556806,-0.9908758515357877,1.068470205326141,-3.7635029637988024,-0.7198925313379118,-8.857954919518653,1.4398457297801903,-1.119321818159591,-1.1385112451416506,-0.11373688780643934,-1.015304067401874,-1.0647733810536317,-0.5337185545867656,-0.18109945366945762,1.0264573389574105,6.325446239643211,-0.1524926574197856,-0.2892920760764699,7.3368701271061765,-2.6936766522878437,-0.17126763527431663,0.24034046788906296,12.848152072356521,0.9241104994796848,-0.31288168643931713,2.1657023144668583,0.06427173236687735,-0.4438980229239542,-0.8102764106952183,-1.6947840269104484,-0.053753101115257815,0.0680743627158635,-19.35109479750214,-0.7579042171190047,7.1977099519041525,-0.31169672035953877,-1.9952268935800366,0.4015188257056502,-0.41390581663062087,-7.503858457967419,-4.580677280558813,-1.308499750138289,-4.001641059596788,-2.5390005892913154,-2.1313538886347816,-0.36021518665329116,-0.1482357245451919,-0.19218813366190113,-3.2793066532536024,-0.6965221022415579,-0.7084441592207795,0.2814947629134877,0.19992298206685544,-33.916957850967144,-1.432384062498513,0.8242103947671524,-3.960983060353123,-2.4014905626698773,1.5357151115438694,-0.3831600070882264,0.01485663213061298,-2.259665754293761,-0.19360982694163995,1.3913869587826706,-4.701933062844645,1.108273657309445,-52.401176080585664,-2.3634726807274347,-4.464093086964277,-7.137780876412951,-17.970430783602716,-10.019599974257597,-0.8746992532900142,-0.6774359347634089,-2.4165375932433375,-2.236206696364017,-3.8503891452993138,-15.240863250619347,-1.9228525816185569,-2.249198835841467,-18.78562531289155,-4.350142056519036,-12.671292255943492,1.5741906917247548,-0.27305809576681067,-3.0543769233836016,2.9228250289892745,-0.06388463363977212,-0.2242456333227279,3.195400065352444,-3.0965740108137925,-3.562382887102802,0.14101287729033699,-0.4059783542959634,-0.3320712924847296,-0.3005908877344534,0.8526654465710223,-0.6473060724809147,5.247813125695921,-0.13121073469752365,-2.971794668788153,-6.765626653429285,-1.4274376556555748,-22.238964025654003,-0.9668232665136836,0.09925717214002325,0.3458056210804647,-1.6565884715930348,-0.2869660654185516,-6.076146144897595,-6.167953565605614,-0.4927296088924974,1.2927921351029648,-1.2780224774371645,-4.53737001879145,-18.107911246606733,-8.919556943225704,-1.0788655441260109,-0.4498546705320098,-14.61104859637209,-0.3715650848265592,-2.644707723548292,10.307128859645132,0.007716675944418224,-5.8492961286564205,-1.3017512988877682,-0.9367615473828912,-10.993648157114585,-1.4607238127512654,2.7604417698564934,-0.7117049946239895,0.1338078778325801,-2.3623061732086326,0.7644360951338044,0.46249685183638334,-1.9715743729470903,-3.1556056755025312,-3.9849862860146517,0.7934728037410782,-1.9293899993722843,-0.6444495572551582,0.44794573213213107,-1.1440145721835886,2.1805193642867593,-2.849720751037574,-0.8063319662969689,-15.261900907224502,-12.788043258987273,0.1332988987392297,0.26426338873355715,-1.6656717361385434,-2.2009708109729655,1.2734978252615352,-7.649017131843772,1.384162072545209,0.08769577033404982,0.16308959251688376,-0.5144262508372898,0.91075958274764,0.6480169590372055,-47.82557297369923,-0.18627179853016823,-5.260203667414966,0.29034306425318196,-1.9009490549119825,0.5972244947104156,-0.15647289668854844,-0.4270571815333442,-5.39104942919377,-1.5431532504604075,-1.9360445566775721,1.2128470391501616,-0.8666363254763262,4.186142152177394,0.39468529668954494,2.6834510656451713,0.9792762590138517,-1.2655969811363696,-0.2781262333926007,0.48706720948377696,0.3010027936606778,-3.6882202565896645,-2.227120418060601,-0.8437922869587643,-1.4884532128192565,12.439418062858097,7.311920447156534,0.06005345177850502,1.0183045143401173,-0.7959234916056022,3.5362103202326454,-4.0594144205422165,-1.6108477189202677,11.9632237063402,0.011970363118636593,-12.64302575915509,3.0072566863347028,-3.2696283990334307,1.6476192921907322,9.331280878056635,-0.1205042023211572,-0.30117186990418865,5.2641369765144175,-0.6371027689244514,-11.471758206464335,-0.0630524808283954,-10.84611491818045,-160.6434175852106,-2.9671080807160344,-0.3586637279586809,2.6551748338781804,0.36925738219962656,-1.3907896803548214,-1.8259689766734428,-0.8363746569774696,-0.6814426405667015,-3.676148384279278,-1.3897588661553637,-0.8754677034361222,-2.6469981712888306,-0.4915191394248664,-2.7980574240238454,0.7966004089223707,-1.0414783203889526,-1.438269930555989,-1.9673528037344645,-0.05759735980193138,1.1750826473997793,-0.8184914878396681,-5.563763167636602,-0.34234904421214135,-4.8025143738633815,-0.24648409582354416,0.42034262484850116,-0.11773163337711022,-7.173160877268057,0.8296647215149838,-5.828588659482562,-6.104981661955633,-2.0998237472427044,-2.9936707133109257,-0.8104298206640731,-3.585828936170392,-1.1558855273184914,-1.965799997011657,2.138235511792323,0.9703832187966309,-3.9407464572040025,0.8043942617994532,1.2712469287771897,0.02131775540050017,-0.2635031383556254,-2.6130768712180505,-1.58348133163193,0.45646869411184865,-1.4196055069583082,-3.226168984727663,1.924288196831282,-1.1184502266066867,0.06765013990387296,-10.868793605293957,-2.381376530644829,1.2336193677262177,-4.75197716336696,-2.303027955284443,-8.326894587359302,-3.573315003986807,-2.9342120878697626,-0.7901867439480398,3.5106128957211142,0.20227408122701507,-1.9272628354259567,-0.7958966794645355,-0.68928184839467,4.069897417574632,-0.7838882100096407,-0.31241530297626124,0.0710723103569942,2.6420598849174617,0.23554292624087178,0.0868745329496809,-1.4800585331892002,-0.08737300738069756,0.5608101832767473,0.4887710663532259,-0.40435375474734897,-0.1499494854081865,0.0009223604453309573,-3.2088437077350918,-0.1549818229078601,1.0281305226296409,0.39130454592566133,-0.5240156417826445,-0.9552776359895414,-0.4044440370767568,-0.4202658775263579,3.083109007255589,-0.7124793758591214,-2.04577185926387,-0.9216697632220759,-1.0364981844086658,0.4084692248003916,0.41488357169394036,0.0768327960898917,-0.6136350061922415,-0.7066184239677227,-0.11508374862253146,-0.08703927405265388,0.4715367885320405,-2.064517509432727,-2.1463932795441725,-0.4123705123355806,-2.240267784965595,2.5048802678899165,-0.9668509129010842,0.058772280358016606,-0.5288739056905025,-1.7074370662882086,-0.3942908964840487,4.0967064125726615,-0.8251622943319831,1.4767290558473933,-9.069838539901287,-3.1941905556138517,1.0193813062631267,-1.2827021949938175,-4.181814405260385,-0.9497699421092725,-1.7466676889195987,-0.005916349335246929,-0.6672424647079596,-1.6535895892109473,-0.9112122895085979,0.1378557830343151,0.7122649186990286,1.7098623436211355,1.8581289346799126,0.6295645852964931,0.48868500173716106,1.3533212623081607,0.10790797951859415,-0.5103078399517136,2.2355174509098097,-4.404729912803249,1.0323293200060195,2.621832259868362,-2.142836146338689,-0.018385434313622325,0.7562835447642707,-0.8792114012522612,-1.2538880958825886,-0.9539570070363367,0.24356368423154476,-0.45187859580680656,1.723976450343773,0.7238622515399752,-1.1463669307336217,1.3389478554236682,-0.24062137600504976,0.1231672663994328,-3.0518085424250567,-0.2340384737725565,0.9899751011963703,-2.22418425166721,-2.836542475107035,-0.9477096982795106,0.14603419706347226,0.09645849904644248,-0.19059859115465203,-0.5390577876899578,-0.032891322509073596,-1.980335542642848,0.2566384559262611,-1.4345399056573447,2.0059644638103906,-2.718549755429666,0.8698634314947076,-1.0914813827723293,0.6451771319193629,-0.043638616521050645,-1.5945882021533961,3.624972828768594,1.1099923732256205,-0.7450918023706056,0.05235843958856837,-1.86686267697798,-1.351872982038296,1.0144627289675354,0.057402489926450924,2.140274603297527,-1.3659161039062486,0.5731859393958435,0.13700421524518927,-0.13220416452089997,-1.9877921128296312,-0.6900227468999909,-0.26621770782811593,-0.0754017866921476,-0.026432604331295864,0.24895883221547824,-0.09057093432304167,0.15714333100968964,0.16007202065426654,0.017106254437065434,0.07786664134746668,-0.05936146048181114,0.003207776861802607,-0.08444938718394594,0.07136223847515132,0.07827515380641137,-0.03711117799129701,0.2027237581969051,-0.0958987509356576,-0.09574793383261136,-0.07862513029102991,-0.038018993377805024,-0.1438672011470388,0.13598677657866493,-0.19853395800231408,-0.1089026158687876,0.020102282900882833,0.21968761628404743,-0.04205457895606298,0.008233899290075165,-0.10412427414235478,-0.10694360732873204,-0.11511985167932717,-0.37652678981073257,-0.22919159033284542,-0.33375172536245723,0.10326868673794877,0.0005610684201909917,0.0806172387393989,-0.07030723668642258,0.08965370443463755,0.06641571321158656,-0.22395920123545102,-0.08499843928617196,-0.11574664318569208,0.20145824930374315,-0.17867966418021114,0.134890506966112,0.006971755219778001,-0.11256619133848034,-0.00185688934834653,0.20664640699938158,-0.02985216871094847,-0.06812075070838793,-0.14277866359675703,-0.27658243265193266,-0.11155411129667697,0.04518892381337402,0.07872191762175895,0.029583593811788413,0.13068575768247198,0.2453833026173029,0.03145549591254253,-0.0908538215288818,-0.18537877281829027,-0.046553282980346326,-0.3923142273702177,-4.691321518247258,4.523204260202676,-1.2329075677956298,0.13251698773849777,-0.38171369617919537,0.3277994229428778,0.2236442449547494,0.017303947174969553,-0.08576154347219765,1.495950649941845,-1.1519588304363524,-2.14947526946121,-0.5146166128929934,-1.1178014719809095,-0.6734869748853076,0.29490327143479916,-1.562880299718643,0.26110012043108444,-0.7863630756871023,1.0891255156749777,-0.31677774357635846,1.907071805749997,-4.57647410025274,-10.35180834588438,-1.5413665938637893,-1.2403222995966647,-15.88119540315696,-2.5996863834257757,-1.1509337254341894,0.23925792212540947,-1.2228396891432056,-0.7236670466727277,-3.325442719266911,-2.2157484068599467,-0.34954085892927983,-0.6976930583613615,-0.8962752975412269,-1.1588884699350777,-0.22336391269330017,-0.7927316031640875,-1.6429692051356137,-4.595247039200571,-1.8683530054803321,-0.5788462010816604,-6.4109449577096,-1.8726600212260462,-0.17868684891308906,0.06231385757050138,-1.759836557469547,-3.025491092075871,-9.864826183917453,-4.081227458458639,0.8312288527486243,-0.42515303548964506,-0.3206833663009645,1.3529875887513398,0.5530923066186231,-0.656671121659981,-11.36307342795407,-1.9938499890392882,-0.07117318447050486,-1.2292078784186848,-1.663325067282981,-0.0455834713804756,-1.290317524791429,-1.7195997557563472,0.7995598091961739,2.7012730555070372,1.2995680531854081,-0.20474839881929882,-21.285635776955026,-1.0763663325842827,0.2693122379335541,-6.521809467099569,-1.7507940945538205,2.5715320662013346,-11.229554512070365,-1.2670809857346794,-0.7025870601987539,-3.496096388387482,-2.3284625209634964,-0.4526843597095629,1.6672809372028654,-3.9935110498645305,-0.1375676884765017,-8.80848148332908,-1.225701690280818,-0.838379870509304,1.4606110067243392,-0.13815758634471723,-2.3352465608783093,0.23677664926684083,-0.29848126981637935,-10.338001684372738,0.7022096400925668,-0.3605050931567846,-3.1689913652244135,1.3839696663779943,-0.6972437184384216,-1.3907918552784553,-0.24261614914836527,0.7494615851251362,-0.1185046466670532,-1.0205548447973245,-5.108314730313459,-2.0339587174831872,-0.28168617267956536,1.384975089680255,-3.707943979009484,-9.29603144265152,-0.079130534087088,-3.719634940154248,1.20469722109789,0.7793893382125682,1.0621367312194379,-2.8598688492792803,-5.674175329869897,-3.4059129778762136,-5.268946410502822,-4.6804432563173455,-4.32639635799902,-15.556243058659607,0.35077973795219825,-1.2360742797449202,-0.08735991467514055,-0.687977040027233,-0.9723885143305459,-0.31331965102566606,-0.9880591758361392,-0.2549844134547951,0.19299076083524042,0.6434007780853805,-0.7505678844008482,1.6247484387250546,-5.160560527399878,0.04634064214666111,0.17907949393282516,5.584259311813182,-0.47063625068806814,0.22011400190659056,0.14316721847205943,-0.06909218119223377,-0.030640076126501017,-0.09953742024350075,0.9078966353982949,1.7140287963602736,-0.20275029703144565,1.2682415331054533,0.3902242614465612,2.4021461466755163,-0.09571440288306016,-4.804781111167444,3.027238426649603,-0.7929691142077562,-2.2205543860244052,-4.25834165242702,-0.43377516067796057,-6.2217559271054546,-1.1438724846681283,-1.1217190028462263,2.624192058040239,3.994582501749185,-2.502514980470203,0.38776824094771917,0.07999179071503137,0.5843696329257493,-1.0031454092151313,0.7414956149721008,-1.1498351459078073,-0.5649971706085317,-0.2258131824259595,-2.9044599002217235,7.855826335287282,0.45939917818079073,0.10092920645687462,0.524426834228109,-2.9201972844970303,0.1400099525962492,-1.155279859904137,-0.7818566468496022,0.14939115277313922,-13.460334983215263,-6.01626284467242,-5.207286759562596,0.8191977900282538,-5.824635938306984,0.12906927278758482,-0.2928780148942445,-0.15794771744938058,0.7990771755455083,0.5706636708760541,0.6478150708914868,-0.4338285848783566,2.3803229938420696,0.6871479166422023,-1.1676728207213778,0.4008179891611587,4.906384620122724,-0.8568516106335072,0.6440620588702447,-0.8545463436776893,2.0536036834828097,-2.383243423500513,1.6634578531098587,-4.644224688054189,0.3818998603535851,0.2671354834823946,1.6051815191031766,-2.6736492922241073,0.48312212957156114,0.18574067874537717,-3.233448725629861,0.6782504766089378,3.080630017526371,-0.2978885841676961,2.597536969048735,1.6708564577438692,-0.9394261306991085,1.2921511675701558,-4.220889228384024,0.014275373276107077,2.8864608433291394,2.422232740087265,-0.12263994239621634,-2.443450376363711,1.840521712113589,0.11185479533225948,-2.857323817641146,0.24817119050961503,1.6674965464386988,-0.5243264775052386,-0.8484749948499228,1.750251057507074,-1.976279812918034,0.9116511626997239,-5.938888465358354,-8.76009476882641,5.524904764654099,-0.1405716179560702,-4.012321533993193,2.7417676796940773,2.693227960430353,-0.2706930533233105,0.7471679050440727,-5.903038987871583,-1.3205633169571374,1.771460893269299,-3.4511074625258473,1.9549429464452028,-3.486693413567861,0.7477563280660481,1.2234131241450514,-0.16250453437660708,-0.7367241677308582,1.3801453689503063,1.634002285115325,-4.945311962055863,-7.839383394720409,-9.441689351184953,-2.160271218081197,0.0307675554404924,-3.0538572395618604,-14.46191568376273,-0.3134372446191209,-0.7797996474173686,15.01954436747526,-0.06829900237210677,0.9109988068142684,-5.929680494652358,2.334744807171649,3.3045619383022387,-0.9261401666448928,-1.0258235049900917,0.4265059790683126,1.0954106422342254,-0.7578157610662811,-0.9227870073007426,-10.375298127980559,4.080459119102806,-3.5377433587971168,2.581031356784487,3.0019284187322683,-0.4118468906079328,1.5575170537019751,-0.3613119346207498,-15.052829227258956,-0.609449377506629,-0.23267454182087577,-0.30828082167633575,-0.25130890116903803,0.16389619873083236,0.12846020524212706,-0.8563167174968153,2.176512093785426,2.017834435200692,-2.531402176486379,-9.264731442163026,-0.23871498263414268,-0.18585613296875975,-0.8235265910293,9.645038045942291,-10.775562421537417,0.01815120419089833,3.0858858505470983,-0.9861860838166793,5.034476081742519,-1.893661784684781,0.30282572508824646,-2.4414028277830035,4.243245132974372,-4.3623951555203755,2.3122482420179233,-11.663315375473296,9.67266711488838,-0.23626196002477975,-0.4882576026640361,-0.09648059407158087,0.08273219722358725,-0.5654403213749947,-9.886218516112482,-9.63992345743517,-6.610562477999988,0.09861317184463653,-3.0930712328508276,-0.04637572726813519,-11.317031546061346,6.970061465762144,-0.05058418772093221,-1.4550503865943505,5.533599038962642,0.8815175607607034,-1.081105223437005,6.668672884488062,-0.6403423314769463,-0.3275336603740207,-0.30960463756585505,-0.8273044997735897,-0.2110700510486736,-0.2725885546264501,0.851943767582657,-0.8520720406634607,2.961920800869239,-3.10810910429097,-4.525359464066776,-2.09283950379264,-1.3137555636381253,-1.4637977206839328,-0.04632756125882474,-1.1417086994637726,3.1750012444649025,-1.553364713671415,-1.5843390441875558,-3.5908290067358397,-7.573583438232338,-0.9464443123872308,-1.3910677973121484,-1.2326825066762788,-1.6363041448706845,-0.05441502292094934,-0.6776955837243245,3.858799669383535,-2.7062271418622683,-14.113316224359028,-5.522999228206098,-0.11995104720594349,0.12697411401966296,-0.07763568114608403,-1.164117417860007,-3.09707539764849,-1.5335998052786208,-2.676480311553017,-2.3304995653515292,-0.1707883832403875,0.906134777581782,3.0776650919657804,-0.550989952279932,3.3729728629313183,4.766650452627622,-1.1380159721687473,-4.222236018851103,-6.282289946494294,-4.441146194146179,-3.694862238116741,-1.4029566717287612,-0.18476435146389877,3.596259246718702,-1.4387910586263397,3.239386473276793,0.22215170013503305,-9.179331248929481,-20.19331421845141,-0.7756459110801687,-0.8277982833914554,-18.67591470521754,0.7891626135171355,-3.3106194049500073,-12.532386810878705,-2.4525995699646286,1.0374813892492798,-7.696736175093482,-9.060530772563453,0.10827033561707862,0.5074551938629529,-2.673131645881547,-1.0449025765915516,-7.247331061077144,0.7574833329387566,-3.1383572202893064,-0.7737016533276095,2.1079070802807753,-0.43830202053273964,-12.703133690568743,0.5893333164921575,3.5728254458212967,0.06254159342434364,1.8229713899265647,-1.9323180658671588,2.2070709467628533,-1.6848964362036165,2.7621418058580227,-4.204102814798643,0.6859435652822419,0.904327230443531,-0.7232184898205432,-20.42329480596904,-1.649648950195513,-2.1539160593004536,-1.635182047705242,2.0153508750220084,-10.638802010988085,-0.08591239689443163,1.2901252715572349,-0.2810525362668625,0.5115472559783669,3.1192481669102636,0.9821763463416322,-11.190236433482982,-24.049831913529328,-29.785541275034266,-4.550029141640963,-0.19435077346281596,-16.726205925983006,-1.2279775982191539,-0.1074564804150624,-0.1158938606603101,-0.33456556458443987,-2.492143271528916,-1.7424845409077394,-2.6034282771429202,-1.3630904141449454,4.023062030493267,-2.3784876588635115,0.165630342282836,-0.596400180737046,3.898303687385102,0.0761564505183108,-2.9328569673742177,-2.352352886985071,-3.365856851883219,-1.0933563289608368,1.2992385094889944,0.3532678429452057,-1.4916126021698266,-1.1583461516233942,-0.5099244831075919,-0.3136948499116467,-2.9179059755976247,-1.3717269539848527,-3.8316300500676617,1.3679469646960971,-0.09323998131305948,0.4718939472585056,1.0350189515604504,-1.21251059104389,0.7253125495774181,-1.1686698503954736,0.19358569762152839,-2.0861676395718285,-3.4595175877895983,1.2785741866251705,-0.6879179196544394,2.0908757514915512,-0.13890262187149466,-0.5903102301345784,-0.022920406972753476,-0.5036999975813709,0.3353219093348381,0.3982753757899698,-3.8297118074564485,2.3966400589569097,1.5119145862682553,-0.0007917934557309218,1.9008070061855185,0.7173532806095516,-0.2025915215874228,1.3624252100245602,3.600288360875133,-2.872166095959116,-0.781548547374545,-4.5617799600995435,-0.9313644198378045,-1.7886164426238955,-1.5081121264262598,-0.48951865648224513,-0.3946287897856116,-1.2206834726575837,0.7506973280338666,2.075240466727405,-0.13858816333716878,-0.7219725320594345,0.16426055272376727,-0.6156327862055782,-8.315770322407468,1.9783219666673526,-2.964503926114559,-0.2686984208436361,-0.5134318677973366,7.459665591113667,3.930053450215303,0.33043735168761584,0.036693220028449866,-5.863938639915207,-0.17967845773859686,-3.097775794688432,-0.7313029925764001,0.7457813507399199,-1.5644971208121732,-0.8198354108504577,-0.6410972537380444,-2.020995981253191,0.3263883294855189,5.952858491923757,-1.2186890607035223,-3.9478937271400985,-1.6869028392762522,-1.574603778002563,-0.7903643058986252,-2.035345955354672,-1.9178274981485726,8.950028301373129,-3.5917689983038197,-4.5287107191678,-0.7970244274326153,-1.4543075401811334,4.500713269708355,-1.5819719686854767,-0.36800544360842075,-0.8217731436503044,0.3108978401843431,0.2871645750034825,-0.1591408689093756,-1.6532957882958832,0.6833295748775213,-0.30080977966118533,-0.6307488239887599,-4.350511202948106,1.3448317773524763,6.173466678964166,-0.18637559615014115,0.8001215145974832,-2.9154086068644167,-2.6554478791198304,-0.2508202926442218,-0.5121382857038878,0.3840288020741914,-3.0797524863803383,-3.6467426678828807,-7.851352419215935,-0.5853474764110523,0.06008949922771286,-0.2877218645072888,-0.8853219578207253,-2.012884641075947,0.32973946560235895,-2.3616085858289,0.5022805951191259,-2.5184157949492905,-1.927091795739869,-1.9571028648995075,-12.0029618057875,-1.9003256525430374,-3.101081033603105,-4.959829443085152,-1.2877686067280332,-1.9198516871717084,-15.300835845252857,-2.669240101322735,-3.606896423845247,-14.520829472482701,-5.37072469492926,-0.7825361395650107,-4.226745636855602,1.9450627991676928,0.5548228610379321,-3.941704043244736,-13.368700501180099,-3.360419892093027,1.8077823973863487,-0.21732073359227108,-1.583950135916748,-1.590789188161023,-3.428317091594853,0.22615027312237299,-24.23840519056771,-0.43451719936604427,-11.033749833247098,-2.030589069494227,-0.0007347526816310146,-3.8052852804872135,-1.0159442381830808,-0.12268882251654226,2.3381673731034645,0.4294886173721916,-3.4650711985413993,0.711503685119647,0.14198106796636423,-11.149200475707739,3.1679850470684427,2.407260701100091,-0.4737170273821094,6.339996185810461,-1.9259922150242073,-0.06527583242627653,0.8254421484613275,2.1846864317643524,-2.239602949630574,-1.6410074327412691,-2.356165537509907,-8.381393153968933,-10.204429165742853,1.919916952530988,-1.1443602811834028,-6.323825368624761,-10.447002376760246,2.1870558409813228,3.6792005677337056,-0.34325882812975667,-0.18156967638592714,2.165021246729079,-11.594726311150108,-3.975978947165966,-4.7458648221941075,0.21779301853201183,-5.986481259281831,0.3626664752028684,-10.487456299762767,13.661060271969124,-3.145365122581223,0.6998984289063148,-120.121005572749,0.7538914939537931,-0.04504800798043861,-159.60715683187172,-1.3536690632416961,6.820161081149987,-5.859611039564796,-1.8525977909672833,-6.062969745053394,-5.417908186847221,3.726411862191776,-1.7267886851491645,-4.9356806461232425,5.438545025356428,-11.285229949070068,-2.4837835207358023,8.613462555623578,-5.473218378098383,0.4019943268664539,-1.8675018222773365,2.838728067660921,-0.11806168172402082,-3.085893775072053,-3.38872469740267,-3.448417245195106,-11.28818541515178,-1.8936935333392948,-2.7755084424090035,-2.5547368423597403,-2.8010130651306446,1.9976865563292021,20.28102681823134,1.0156151874696613,-10.595381887379732,0.1517752646059822,-0.19517946333455627,0.4798647827869223,0.09963030515909431,3.5194845438448934,3.8208444092307494,7.138947172346884,-2.1144953205045747,-2.006053659481574,-5.429015778297725,-1.6677666924843504,3.31234763561924,-5.286215158574473,-41.48451707318648,8.494811301467845,-12.048683067843799,-3.902055422104491,-8.95986003777652,-6.701943429878907,-1.3542802934503249,-9.385050737513845,-3.061244990627999,-2.4367090833038603,0.5793671931192936,0.1719935107073602,0.6165366403646283,2.0061406515473594,-4.348615293984178,-3.0950214876614064,-0.6698979905494623,0.611367646098088,-1.8511288743623278,-2.5318880590702117,0.3049064281035335,-2.4932083292600256,-4.411838274481021,-0.8629965450855925,-0.2570864820709916,-3.2376168869190582,-5.219187739456471,-7.156872302221318,-2.8641290314527494,-3.1749515933275116,-2.4458411280226557,-13.910356428941402,-0.4619415988645021,-0.3712099356379228,1.2078242114983755,-0.8117901287797736,-1.0239144880460003,-4.151848140751637,-3.6023092087669917,-1.9459451684033187,0.018604638056641726,-10.82888048202367,-0.5879460218359545,-2.251696180781236,0.1373290084382532,-1.864998533733081,-1.1776394264218353,-3.350198542203486,-1.803113833013717,-1.2065258305100797,-8.757152508929828,-2.778934880186119,7.000607196693081,0.8269080108306665,-0.15944010012264173,-2.6425954914717553,-1.8321669568478005,1.407133122958144,-0.3150032863569082,-0.1272285603098939,7.065888021379159,-6.022631769905858,-3.4238055667975744,-4.617964651657896,-7.566586620393911,8.434183564381085,-5.617935775056659,0.21689982046195727,0.656745239103202,-2.4915471379174847,0.05351781406991366,-1.384751739144112,1.8212683277621757,-2.8488178330381464,-9.05821703463064,-5.227209631782692,0.37510317736606597,-4.404181659881974,0.01931270984143618,-0.10179670348815407,-0.4266344696589362,1.8708280483749187,-0.6219088889846188,-2.4045252769461043,1.6989144993189347,-2.2424559969100053,0.4214113260437163,-5.210364239232539,-3.646495148155601,-2.965728528261733,-1.9065765462409272,0.9568508800669512,-2.4087394351270484,0.43997454460542285,-0.3073645633956631,0.38126222711483515,-3.297438150549157,-0.029932996826904455,-7.704324900376986,-18.47133573774717,-0.8331318737592345,-0.5154286538253625,-12.500001901495603,-7.341100641787855,-1.5201871866122354,-2.7065584685075326,-9.25630563091174,-1.1341469124014896,-1.9541778893626596,-0.34215885058430406,0.7565230197200079,0.9634392465249142,2.2147222073732076,-0.6093233566571976,-5.082174598942764,-6.033219393506377,1.4292129831027924,-1.8844573663041904,-0.026976148878838563,-2.228171619583673,0.21704681379678123,-0.6389310390524331,1.1739333997650936,0.4451522127935664,-0.22808707877278755,-0.17103682639626847,-0.2806482358319304,-28.465378823865144,0.9819192829302891,-0.5302685594207854,-0.4697162756255371,-0.8531166186730299,0.5433206516470908,-1.302870924621622,-1.088949792559763,0.7775521163888546,0.1542108004677931,-0.09843658377279613,-4.9516118664320175,-5.220511336662871,-1.1197769485867792,-5.90722790269725,-10.538760381536553,0.6780663763901978,1.9093740197739986,3.8541491851858845,3.3645605456240926,-1.8811305207429934,0.7936777537195396,1.1033318886527639,-1.281511157547354,2.7749138814789442,-0.049112668403996404,0.37570425130526597,2.130211639918411,-4.301964900264911,1.3769077773486669,-2.1122302453796107,-1.973648605063143,1.2113691534878155,5.865426528570862,-0.009017688946558243,-0.20325334559728317,4.820786922521567,1.098153629156998,-5.240331320120797,-1.028069062621333,1.7340305745532187,-4.4409265856654,1.9998392933981037,-1.7780066706803022,-0.05093111741992923,1.6284235239386786,1.5286137453229964,0.1309049288314643,-1.624716682885276,-0.6555363456406089,2.66111773319077,-1.0051183772259509,-4.433616657327148,6.9900556508605565,-4.809622727176106,0.05262562351202661,2.7843621812061765,2.3337141270275947,-2.871906153628835,1.1400000462009614,-0.2977348514387907,6.996504858019149,2.4778427336126527,-9.300248773049178,-1.1578795869961676,2.6226976358619174,-9.323769925577926,4.277310993782418,-2.198741534334619,0.1505815489952789,-0.3242450961117314,-0.9162954847881589,0.37450643820547913,-0.24469809629548275,-0.03625730098864581,-3.3929771863076628,-0.9169988384809515,0.03952179199392823,-3.3842640707317537,2.1756083786936427,-2.6043840367532263,-0.0012772092054722853,4.7484975893550665,-1.733443792775876,-1.7637124322005175,-4.039418631936497,-0.2605427215034111,-1.0707876552922393,-3.9425913547564777,1.1761550241024694,-1.0044406786276894,-0.005407257146952744,-5.041985634367181,-1.4591734277609962,-4.3115016928118495,-0.6192698485352682,-2.798177145666571,-1.154944279501583,-0.8037309705496881,0.08751354225869312,4.227855117755575,-0.36840220656273387,3.3676581890222366,-2.164762669807916,-1.5472462906486153,-0.04212878482619121,-1.5932907861057861,-0.03827930547477918,-2.3312378926945345,0.41755533755540025,0.12332566553776965,0.023775676383108107,-3.5727501084289637,-3.7148623146442232,-0.4954353222956604,-0.7369026959069374,1.5493825791789217,4.398079711320278,-3.2624872500737414,-0.17944489462024316,-0.5455914788265553,-2.6491315819827217,2.8236645495620762,-0.5731500930008151,-0.440720746054419,-7.433628939470676,-8.963553273366367,1.2253230260974093,0.4759815617745082,3.189907282357165,2.582089596251905,-1.2995684224611654,-0.1225985850453808,-0.09742779065645234,-0.22298713888423916,-1.5666585562336226,-6.239643002396311,0.1149363887911193,-0.059160016725718,2.0956990704659746,-3.726568256858937,-0.4077870776564035,0.8748903392282961,2.6355846159744853,-1.4668681896723514,0.010771247018104422,-0.9768701145498754,-2.0808384966125937,-0.46238214359081986,0.9231248075602675,-0.7000656671921195,-0.028937958173189636,-0.8055850793712743,1.7631667467111578,-0.39068774283250324,-0.5540216256796286,-1.1153405343542853,-0.4914071342177148,1.0383025575992177,-0.10776712191614349,0.5469439679463753,1.4027135342166632,-1.151189376328949,-0.8751178506865951,-0.03182024965600263,-0.2653764048518118,1.177209092882954,-3.519697357935185,-1.4894730768713744,2.7193485854901867,1.7178963569784886,0.06335481330378397,-0.47909634562052633,-2.8811627757020775,-0.5275212971131858,0.9934956134243474,-0.15044913187974598,-3.870801861241283,-0.015508900675561819,-0.4475844285249837,0.07313014783462556,0.3546812385271356,1.0884321999295086,-0.1716414210156711,-1.2268097554024202,0.3998539383940544,0.07596711046107785,-0.9318766267869558,-3.3065027795920097,-2.4109682867414404,-0.9871971188872771,0.08410234853719109,-0.33459391159762925,1.7085247564616306,-0.14474841804697577,-1.474738943532455,-1.7815531627551289,0.16696704795929806,-0.18100521472975317,-1.6517261174114841],"Grad":[0,0,0,0,0,0,0,0,0,0,0,0,0,0,0,0,0,0,0,0,0,0,0,0,0,0,0,0,0,0,0,0,0,0,0,0,0,0,0,0,0,0,0,0,0,0,0,0,0,0,0,0,0,0,0,0,0,0,0,0,0,0,0,0,0,0,0,0,0,0,0,0,0,0,0,0,0,0,0,0,0,0,0,0,0,0,0,0,0,0,0,0,0,0,0,0,0,0,0,0,0,0,0,0,0,0,0,0,0,0,0,0,0,0,0,0,0,0,0,0,0,0,0,0,0,0,0,0,0,0,0,-0.002734738557337358,0,0,0,-0.001630799570943377,0,0,0.0003539718162536028,0,0,0.00023215904753491766,0,0,0,0,0,0,-0.00510965393202857,0,-0.003286317128801703,0,0,0,0,0,0.0021969158200758213,0,-0.0014362484771784224,0,0,0,0,0,0,0,0,0,0,-0.0006398192199860399,0,0,0,0.0011786238411956235,0.003092101335885146,0,0,0,0,0,0,0.0039677285412333995,-0.002125800180722025,-0.0007984303106874637,0,-0.0014116330328305575,0.008132031812439832,0,0,0,0,0,0,0,0,0,0,0,0,0,0,0,0,0,0,0,0,0,0,0,0,0,0,0,0,0,0,0,0,0,0,0,0,0,0,0,0,0,0,0,0,0,0,0,0,0,0,0,0,0,0,0,0,0,0,0,0,0,0,0,0,0,0,0,0,0,0,-4.703389971820713E-05,0,-0.0035263744221064293,0,0,0,0.022601553175333144,0,0,0.02445990100830993,0,0,-0.022863521702350464,0,0,0,0,0,0,-0.033225681074419394,0,-0.009038694664665467,0,0,0,0,0,4.231020071578057E-05,0,-0.0162698537545118,0,0,0,0,0,0,0,0,0,0,-0.011038935113647412,0,0,0,0.009430783898124169,0.0024025664403215436,0,0,0,0,0,0,0.022233890739794857,-0.019710131541951788,-0.013749758730551256,0,0.009788006928767226,0.010212972833054125,0,0,0,0,0,0,0,0,0,0,0,0,0,0,0,0,0,0,0,0,0,0,0,0,0,0,0,0,0,0,0,0,0,0,0,0,0,0,0,0,0,0,0,0,0,0,0,0,0,0,0.0003008539665401739,0,0,0,0,0,0,0,0,0,0,0,0,0,0,0,0,0,0,0,0,0,0,0,0,0,0,0,0,0,0,0,0,0,0,0,0,0,0,0,0,0,0,0,0,0,0,0,0,0,0,0,0,0,0,0,0,0,0,0,0,0,0,0,0,0,0,0,0,0,0,0,0,0,0,0,0,0,0,0,0,0,0,0,0,0,0,0,0,0,0,0,0,0,0,0,0,0,0,0,0,0,0,0,0,0,0,0,0,0,0,0,0,0,0,0,0,0,0,0,0,0,0,0,0,0,0,0,0.00022251833514368751,0,0,0,0,0,0,0,0,0,0,0,0,0,0,0,0,0,0,0,-0.001176826703967232,0,-0.012062104208156075,0,0,0,0.044103949227401955,0,0,0.04871430181338985,0,0,-0.041666761457832505,0,0,0,0,0,0,-0.07814963825827312,0,-0.02190935610938659,0,0,0,0,0,0.00039881143689669536,0,-0.03530681341985874,0,0,0,0,0,0,0,0,0,0,-0.02928502945858026,0,0,0,0.023125393681204014,0.007899267709383413,0,0,0,0,0,0,0.0572985476101003,-0.0459027124311999,-0.02899897337930669,0,0.008373859286066574,0.03954101351746809,0,0,0,0,0,0,0,0,0,0,0,0,0,0,0,0,0,0,0,0,0,0,0,0,0,0,0,0,0,0,0,0,0,0,0,0,0,0,0,0,0,0,0,0,0,0,0,0,0,0,0,0,0,0,0,0,0,0,0,0,0,0,0,0,0,0,0,0,0,0,0,0,0,0,0,0,0,0,0,0,0,0,0,0,0,0,0,0,0,0,0,0,0,0,0,0,0,0,0,0,0,0,0,0,0,0,0,0,0,0,0,0,0,0,8.59268908844783E-05,0,0,0,0,0,0,0,0,0,0,0,0,0,0,0,0,0,0,0,0,0,0,0,0,0,0,0,0,0,0,0,0,0,0,0,0,0,0,0,0,0,0,0,0,0,0,0,0,0,0,0,0,0,0,0,0,0,0,0,0,0,0,0,0,0,0,0,0,0,0,0,0,0,0,0,0,0,0,0,0,0,0,0,0,0,0,0,0,0,0,0,0,0,0,0,0,0,0,0,0,0,0,0,0,0,0,0,0,0,0,0,0,0,0,0,0,0,0,0,0,0,0,0,0,0,0,0,0,0,0,0,0,0,0,0,0,0,0,0,0,0,0,0,0,0,0,0,-0.000753159368328411,0,-0.0043813251297195824,0,0,0,0.02444165195257322,0,0,0.03303832225556487,0,0,-0.025903923581789213,0,0,0,0,0,0,-0.04115513332100989,0,-0.009355532906541265,0,0,0,0,0,0.004153756937443755,0,-0.018163840241541326,0,0,0,0,0,0,0,0,0,0,-0.018988696512645613,0,0,0,0.01338668644233362,0.002898694542746321,0,0,0,0,0,0,0.03261451231541069,-0.02512138311605742,-0.014942083521727744,0,-0.0012279809917611064,0.021737492199744027,0,0,0,0,0,0,0,0,0,0,0,0,0,0,0,0,0,0,0,0,0,0,0,0,0,0,0,0,0,0,0,0,0,0,0,0,0,0,0,0,0,0,0,0,0,0,0,0,0,0,0,0,0,0,0,0,0,0,0,0,0,0,0,0,0,0,0,0,0,0,-0.00019177912894590899,0,-0.008849632813621895,0,0,0,0.014791574433048392,0,0,0.019722189084026117,0,0,-0.015330269743979563,0,0,0,0,0,0,-0.042486581979793346,0,-0.015251670262696585,0,0,0,0,0,0.002562010005075778,0,-0.01724970359634818,0,0,0,0,0,0,0,0,0,0,-0.014153336623761005,0,0,0,0.011720254151676168,0.007589407138371028,0,0,0,0,0,0,0.032242127670251086,-0.023356638338197983,-0.013371879759063622,0,-0.00091818298868006,0.033400472073318394,0,0,0,0,0,0,0,0,0,0,0,0,0,0,0,0,0,0,0,0,0,0,0,0,0,0,0,0,0,0,0,0,0,0,0,0,0,0,0,0,0,0,0,0,0,0,0,0,0,0,0,0,0,0,0,0,0,0,0,0,0,0,0,0,0,0,0,0,0,0,0,0,-0.007333714293469501,0,0,0,0.0062589393365325464,0,0,0.011262498931898984,0,0,-0.007075307168546502,0,0,0,0,0,0,-0.017865356160737457,0,-0.004970846710773418,0,0,0,0,0,-0.0007828139262598911,0,-0.00669805131171177,0,0,0,0,0,0,0,0,0,0,-0.008693870566858192,0,0,0,0.005935808888733276,0.0019190196004240261,0,0,0,0,0,0,0.015673834218316543,-0.010432583108813282,-0.005102777006721431,0,-0.005476378619144212,0.016037127009599788,0,0,0,0,0,0,0,0,0,0,0,0,0,0,0,0,0,0,0,0,0,0,0,0,0,0,0,0,0,0,0,0,0,0,0,0,0,0,0,0,0,0,0,0,0,0,0,0,0,0,0,0,0,0,0,0,0,0,0,0,0,0,0,0,0,0,0,0,0,0,0,0,-0.00013160902085766448,0,0,0,0.0021362139034018257,0,0,0.0010559025809963078,0,0,-0.0021906695177903042,0,0,0,0,0,0,-0.004466779883190791,0,-0.0024284619825426863,0,0,0,0,0,0.0005203807687441835,0,-0.00234558087278225,0,0,0,0,0,0,0,0,0,0,0.00038476370641986216,0,0,0,0.0009109256299306142,0.0015280941515273955,0,0,0,0,0,0,0.0017817090526738126,-0.0021181054221543357,-0.0019420174472879169,0,0.003950109403199871,0.0012758421104144425,0,0,0,0,0,0,0,0,