{"Layers":[{"NeuronCount":32,"LayerName":"NNN.Dense, NNN, Version=1.0.0.0, Culture=neutral, PublicKeyToken=null","Weights":{"Data":[{"Value":1.27502812863899},{"Value":1.57993816057056},{"Value":-0.8867554749414309},{"Value":-0.895408309900363},{"Value":0.24749805581259746},{"Value":1.3681760932037383},{"Value":-0.48157099217042104},{"Value":2.33580989715187},{"Value":-0.6884238413750666},{"Value":1.7976963521642542},{"Value":-0.27102222968799355},{"Value":0.8124236346598706},{"Value":-0.664057557406915},{"Value":-0.055736007207078754},{"Value":-0.9029516697953878},{"Value":-1.824139041564518},{"Value":0.07148887976334667},{"Value":0.05577887867958255},{"Value":-2.1108473081573735},{"Value":1.7515187597860966},{"Value":1.5746332234617266},{"Value":-0.7822334089765743},{"Value":1.670393473850787},{"Value":1.2495003068727994},{"Value":-0.4781860049608297},{"Value":-0.8669792793120206},{"Value":0.7735541825647932},{"Value":1.7532026622973351},{"Value":-0.4578040841252871},{"Value":2.1292349721506048},{"Value":1.107754151218558},{"Value":1.13439361333032},{"Value":0.03454797220737281},{"Value":0.8315097232645517},{"Value":1.1240523431400442},{"Value":0.32269251193187526},{"Value":0.7147775172315382},{"Value":-0.18881805290865852},{"Value":-0.6766864556082892},{"Value":0.09092072390615397},{"Value":1.2144284234434677},{"Value":0.5784518481075631},{"Value":1.617820365699037},{"Value":0.6250451781951789},{"Value":-0.1422829853554029},{"Value":0.2188429565022821},{"Value":-0.8090586423461824},{"Value":0.8224858779772859},{"Value":0.6037647898447438},{"Value":0.30130268079038997},{"Value":0.00797203757173004},{"Value":0.8087783390066055},{"Value":0.020018166094913283},{"Value":0.04347566915578878},{"Value":0.3645666740823008},{"Value":-0.061616940442483004},{"Value":0.5504321388163074},{"Value":0.6257446021029323},{"Value":0.2975248254168436},{"Value":0.07809401270161503},{"Value":-0.4635430887921093},{"Value":0.1277208175279174},{"Value":-0.043847242359510145},{"Value":-1.306758216926198},{"Value":0.8829566425828625},{"Value":2.2825750902236965},{"Value":-0.5936716058702235},{"Value":-1.5219936583572773},{"Value":0.19148409564485744},{"Value":-1.2724282422182875},{"Value":-0.424909961183024},{"Value":0.41938020837376955},{"Value":-0.4841880889805155},{"Value":0.581378239746863},{"Value":1.07175531489001},{"Value":1.4764531200510564},{"Value":0.3979664482828726},{"Value":-0.29274763948500204},{"Value":1.0360728207787329},{"Value":0.7071012968918357},{"Value":-0.7255732839821032},{"Value":1.1875893493076073},{"Value":-0.525860991843542},{"Value":1.2277759562086321},{"Value":0.5188472291817969},{"Value":0.7987166622780862},{"Value":0.7633407343219603},{"Value":0.9897080400805968},{"Value":-0.46820088652412506},{"Value":0.6351258914003326},{"Value":-0.6379904067039165},{"Value":0.4635470263575404},{"Value":0.4552182510038761},{"Value":0.37036620324089026},{"Value":-0.09681767080280913},{"Value":0.5033869718911316},{"Value":0.6894474669545443},{"Value":-0.6418867831573557},{"Value":1.0578153530284358},{"Value":1.1090892386159172},{"Value":0.10093777959485828},{"Value":1.1897961030807531},{"Value":-0.26432004997539305},{"Value":-0.015098044077797561},{"Value":0.721505745555198},{"Value":-0.28068107022494376},{"Value":0.40671726460645125},{"Value":0.13026187003294673},{"Value":0.17044381593093866},{"Value":-0.014822927473074196},{"Value":-0.9029033002008695},{"Value":0.026891467242658035},{"Value":-0.9274665515109435},{"Value":-0.13213199734766579},{"Value":-0.6286609593622872},{"Value":-0.04037499655616285},{"Value":1.2284292441455933},{"Value":0.38877534913574424},{"Value":0.3831005456845737},{"Value":1.0751583444532735},{"Value":-0.2155521924432198},{"Value":1.2149689870267646},{"Value":0.4089198184000876},{"Value":-0.5963222726806159},{"Value":1.0322645476026633},{"Value":0.7436335087095471},{"Value":-0.33664091293492504},{"Value":-0.6660404146953316},{"Value":0.6940400465763031},{"Value":-2.2410002771732693},{"Value":-1.7876936581366405},{"Value":1.4590195113741395},{"Value":1.7012418769415993},{"Value":-1.4424942973468409},{"Value":1.8743900433247986},{"Value":0.1937241884409402},{"Value":-0.5057511056884544},{"Value":0.2771790859163365},{"Value":0.7122505900794257},{"Value":1.304445406186895},{"Value":2.3513229352488634},{"Value":3.289755535636216},{"Value":0.998395762927637},{"Value":0.19040392003531176},{"Value":1.769648122609922},{"Value":2.2031122170046373},{"Value":-0.9748489709838789},{"Value":-0.28726848254190973},{"Value":0.35125442759285863},{"Value":-1.8424213572857842},{"Value":0.8878657118204727},{"Value":-0.03666554230695748},{"Value":0.6623858619438301},{"Value":-0.46140376003994743},{"Value":2.187168845675767},{"Value":0.13260583590334374},{"Value":2.5841583613115837},{"Value":-0.8107538024288088},{"Value":0.18768426661412393},{"Value":-0.33970499255292774},{"Value":0.4851481820850342},{"Value":-0.5559103694888567},{"Value":1.7952691584815408},{"Value":0.6968721976669033},{"Value":0.35184680957364456},{"Value":-0.7066858603743321},{"Value":0.37004613950661036},{"Value":-0.014183542812466027},{"Value":0.6075271755520816},{"Value":0.13649734399629482},{"Value":-0.6533944697837657},{"Value":-0.6390105979865279},{"Value":0.12810669818388498},{"Value":0.019623423951017918},{"Value":-1.5227183718786503},{"Value":-0.6554681993815475},{"Value":-0.6561724562386886},{"Value":-0.3641515882737405},{"Value":-0.42342671656416575},{"Value":0.233734273382988},{"Value":0.201297108146815},{"Value":0.5180648279225879},{"Value":0.26218791546770087},{"Value":-0.056429320397976296},{"Value":0.12243651818092395},{"Value":0.9197477975488815},{"Value":0.9480306407969441},{"Value":-0.2827640618371395},{"Value":1.463235059420147},{"Value":-0.8466936380969817},{"Value":-0.46934134880120537},{"Value":0.7555668370571339},{"Value":-0.09851708119760688},{"Value":-2.255468366219372},{"Value":-1.9412749690523081},{"Value":-0.3465192394657952},{"Value":-0.30681937256643754},{"Value":1.1978764334642305},{"Value":1.4903643030501692},{"Value":1.2699229080986791},{"Value":-0.27009342295028904},{"Value":1.1697804833293988},{"Value":0.009017458334564531},{"Value":0.8103779540501289},{"Value":0.5182066611919012},{"Value":0.5402817771364998},{"Value":0.20634329185742484},{"Value":-0.6875803871435067},{"Value":1.3532573393421257},{"Value":1.7084876743186732},{"Value":-0.0004358923993304605},{"Value":0.1516678771588941},{"Value":2.3022921658308584},{"Value":-1.295780229590079},{"Value":0.3713959539838248},{"Value":-0.42165917066133346},{"Value":-0.15096714545678772},{"Value":0.5795671324333077},{"Value":-0.3203590111522438},{"Value":0.7897202128339341},{"Value":-1.4133978938622362},{"Value":1.9602025488419113},{"Value":0.44467100397973186},{"Value":0.5642204753111388},{"Value":0.319704333122361},{"Value":-1.1682781311117565},{"Value":0.5859727284150893},{"Value":-1.430364547210318},{"Value":0.8194740348378959},{"Value":1.3837101066418274},{"Value":0.32340944144826234},{"Value":0.04192748549227588},{"Value":0.03601403810306454},{"Value":0.0278880868505915},{"Value":0.9698254749077405},{"Value":-0.200059072771231},{"Value":-0.030621205914406986},{"Value":0.4332548017075244},{"Value":0.6319587749085075},{"Value":-0.9629574665667907},{"Value":1.197078823355727},{"Value":-0.6731786631296139},{"Value":0.06556077595463153},{"Value":0.39420694756119756},{"Value":-0.5616613933891089},{"Value":-0.5862522204912736},{"Value":-0.4291101380807057},{"Value":0.525867104316345},{"Value":1.52293398689588},{"Value":0.2739844283123487},{"Value":0.9442590367080317},{"Value":-0.19839857719576384},{"Value":-0.43485499000915323},{"Value":-0.41813408803771723},{"Value":0.5992616168064416},{"Value":0.2599387034209455},{"Value":1.1014673936326207},{"Value":-1.1303499568146258},{"Value":-0.4575148847110176},{"Value":0.9003513360725032},{"Value":0.27230889514126516},{"Value":1.2075824329787261},{"Value":1.4034929008886854},{"Value":-0.11631298118563717},{"Value":-0.3618583794471742},{"Value":0.2768322137800411},{"Value":-0.60026571669545},{"Value":-0.37889528985127596},{"Value":-0.043092715242223294},{"Value":0.1735593494176655},{"Value":1.4066734296372883},{"Value":0.1536658637806375},{"Value":0.5924253222206944},{"Value":-0.12332652684935938},{"Value":0.409645213508422},{"Value":1.275919309611556},{"Value":-0.7299678696235373},{"Value":-0.8521244826112426},{"Value":0.9622842536433769},{"Value":0.9272076222988633},{"Value":-0.05168366088609258},{"Value":-1.5895133067764398},{"Value":0.7125984059366369},{"Value":1.486549833720209},{"Value":0.34622634251695544},{"Value":-0.05007599611902699},{"Value":1.2079634666133168},{"Value":1.662204567169967}],"Dimensions":[9,32],"Multipliers":[32,1],"Rank":2,"ElementCount":288},"Biases":{"Data":[{"Value":0.7583312185491251},{"Value":-0.026294845089178846},{"Value":1.5248646134472166},{"Value":0.6418379702372056},{"Value":0.14894671775882917},{"Value":1.0812153566543903},{"Value":0.8861940622201789},{"Value":1.289104541279227},{"Value":1.810789356250067},{"Value":0.8806953198218592},{"Value":1.3200866958160056},{"Value":0.7849904592151814},{"Value":-0.1955608720384568},{"Value":-0.27845602886169635},{"Value":1.0269829901425958},{"Value":0.8592368080792634},{"Value":0.27103677744140664},{"Value":0.2572002125947051},{"Value":1.6534231034984557},{"Value":0.7886466128627089},{"Value":0.7587156922290547},{"Value":1.6954756459932718},{"Value":0.9182171865993178},{"Value":1.0778579037275355},{"Value":0.9868762023149317},{"Value":1.3344098443453931},{"Value":0.4364803978753414},{"Value":1.2508810777134731},{"Value":0.27509236382155955},{"Value":0.3472382322453489},{"Value":0.9226494166721606},{"Value":1.332035128550026}],"Dimensions":[32],"Multipliers":[1],"Rank":1,"ElementCount":32},"Activation":"NNN.LeakyReLU, NNN, Version=1.0.0.0, Culture=neutral, PublicKeyToken=null"},{"NeuronCount":9,"LayerName":"NNN.Dense, NNN, Version=1.0.0.0, Culture=neutral, PublicKeyToken=null","Weights":{"Data":[{"Value":0.003685778999637156},{"Value":0.7435243736550265},{"Value":0.301324340245501},{"Value":0.4709533277166985},{"Value":1.1832761786922357},{"Value":0.4170195553614006},{"Value":0.8748751008384069},{"Value":-0.4246136382495229},{"Value":0.4590894051194376},{"Value":0.2588780545087153},{"Value":1.719532332018602},{"Value":0.8397898867966009},{"Value":-0.4973013065922245},{"Value":-1.8233891348563993},{"Value":-0.6170051930019137},{"Value":-0.5775975507213592},{"Value":-0.9860638543469858},{"Value":-0.5815840725437794},{"Value":-1.3464290846050975},{"Value":-1.2706733907766685},{"Value":-0.17960427966634637},{"Value":-1.3536989258655994},{"Value":0.23168078572961398},{"Value":-1.1474534353497745},{"Value":-1.3830493292888535},{"Value":-1.5733545978854233},{"Value":-1.182629730248675},{"Value":1.414305434671677},{"Value":-0.42477801339069704},{"Value":0.021846337849064906},{"Value":0.2922431154640318},{"Value":-0.6138108712908804},{"Value":0.5960622376095828},{"Value":-1.2070398683070551},{"Value":0.19098607171829513},{"Value":-0.7812524047724327},{"Value":0.8066194863553428},{"Value":1.0383395080485593},{"Value":-0.22557919017690103},{"Value":0.512392261907176},{"Value":0.34129271736469036},{"Value":0.04089876285563105},{"Value":1.1099322995236152},{"Value":0.6096102160594781},{"Value":0.43659943166784626},{"Value":0.43447181033975135},{"Value":-1.2999569300611766},{"Value":-0.02919819553740447},{"Value":-0.16333497398324454},{"Value":0.9452350859662545},{"Value":-0.6998502558184738},{"Value":1.3212575436328948},{"Value":0.7046038940777978},{"Value":0.05838525516493447},{"Value":1.1794219283328957},{"Value":0.4180062558755758},{"Value":1.4297093049954939},{"Value":0.3372327198380181},{"Value":-0.12616821483605736},{"Value":0.06387084083643614},{"Value":0.15268783827089613},{"Value":0.5900757292298902},{"Value":0.16334244929055225},{"Value":0.08842784728945789},{"Value":0.04210866542561119},{"Value":0.38052045233605075},{"Value":1.6186902175335083},{"Value":1.100137970259185},{"Value":-1.11889364604043},{"Value":0.07298299103800672},{"Value":-0.11527115260743724},{"Value":0.9169927004183457},{"Value":-0.002682788219745686},{"Value":-1.5340052595847598},{"Value":-0.07420102167127625},{"Value":-0.47918483540400586},{"Value":1.1155139071384161},{"Value":-1.556456565565938},{"Value":-0.9960789046708554},{"Value":-0.6814611079230428},{"Value":-0.7050217430463869},{"Value":0.5666736311743935},{"Value":0.3917459345992838},{"Value":0.8679493378106778},{"Value":1.8661549096800523},{"Value":0.9811795562943313},{"Value":-0.5060547622184881},{"Value":-0.08687038483425442},{"Value":0.3063788973634071},{"Value":0.538874264481115},{"Value":0.4009515180307498},{"Value":0.5597530612032784},{"Value":-0.9250489639382249},{"Value":-0.9868313214852034},{"Value":0.7452660695753133},{"Value":-0.7610646142513307},{"Value":0.013064864564939358},{"Value":-0.045189293645448214},{"Value":-0.4226317765913423},{"Value":0.028679044093940474},{"Value":0.46650452876659976},{"Value":0.8699365353240343},{"Value":-0.5005664570320669},{"Value":0.8465674892532868},{"Value":0.5833958307619717},{"Value":1.2799461580884044},{"Value":0.6803735199620947},{"Value":0.3660003154272101},{"Value":0.769513733607126},{"Value":-0.04839349642286305},{"Value":0.9444115807284205},{"Value":0.45181587301707504},{"Value":0.2128979877423401},{"Value":0.8577910755556898},{"Value":1.0220409851142165},{"Value":-0.4677776926162867},{"Value":-0.006790568081731366},{"Value":1.1156237344977926},{"Value":1.0167253615675875},{"Value":0.8421151842070851},{"Value":0.12737572054690288},{"Value":0.3383629856402194},{"Value":0.29225525600171764},{"Value":0.9530036522398929},{"Value":-0.02242511507517707},{"Value":0.6456601144783759},{"Value":1.2032266011769026},{"Value":-0.3799447812481372},{"Value":0.02931697036269567},{"Value":-0.3045593734764692},{"Value":0.11357547316814011},{"Value":0.569048204489828},{"Value":1.2688571829466642},{"Value":0.6433461267426166},{"Value":-0.3688014873276885},{"Value":0.6745393053160351},{"Value":-0.8107082489411902},{"Value":-0.5372058334573091},{"Value":0.029208384679214747},{"Value":-0.13497881294613148},{"Value":0.5244160833900784},{"Value":-0.2536500544041451},{"Value":0.5281680689885944},{"Value":-0.5965795400099421},{"Value":0.18696376759853592},{"Value":1.0355703203165765},{"Value":1.285070538724425},{"Value":-0.6583706962009308},{"Value":-0.6028184722473643},{"Value":-1.3030658955356957},{"Value":0.0905874426907387},{"Value":0.25718506402702973},{"Value":1.0069612642707408},{"Value":-0.06446889269225757},{"Value":-0.294141532340354},{"Value":1.7608417373224305},{"Value":-0.53429871683865},{"Value":0.7012682569643346},{"Value":0.3115684301117064},{"Value":0.9394920644561529},{"Value":0.5956825477164076},{"Value":0.4104961629923611},{"Value":-0.0020840539922626685},{"Value":-1.0234828538296319},{"Value":-0.44609295980488},{"Value":-1.4739204158777086},{"Value":-0.1875728106535299},{"Value":-0.6772482828210029},{"Value":-0.4157628643836648},{"Value":0.6087337810319912},{"Value":-0.4179609828994238},{"Value":0.5577952158994552},{"Value":0.8724005532968786},{"Value":1.1544020657377898},{"Value":-0.013903480641075149},{"Value":1.225526147765057},{"Value":0.8947545141830433},{"Value":0.5861341820011802},{"Value":0.12118831831605804},{"Value":0.2464374624755112},{"Value":1.155996016020368},{"Value":-0.08503456936788188},{"Value":-0.20995331183713392},{"Value":1.3547762311200737},{"Value":0.929056517566631},{"Value":0.18367589404235113},{"Value":1.0275231565494691},{"Value":-1.476946595083832},{"Value":0.1920115074494332},{"Value":0.45068034380123284},{"Value":-0.388443250947901},{"Value":-0.42064473546068126},{"Value":-1.3946948238283672},{"Value":-0.0402742827322601},{"Value":-0.2350570994561841},{"Value":-1.0524437560318731},{"Value":-1.533256126107784},{"Value":0.10231065619688924},{"Value":0.9643327903058663},{"Value":0.5259312383520105},{"Value":0.8355510439582653},{"Value":-0.09540373957810183},{"Value":1.3741797578484496},{"Value":0.762689038264172},{"Value":1.026302608499891},{"Value":0.016893209421232732},{"Value":1.589109668169914},{"Value":0.07700630688846254},{"Value":0.2343354982097797},{"Value":-0.19796004019440175},{"Value":-0.8269934529032003},{"Value":1.4702477638613487},{"Value":0.9494918576258511},{"Value":0.5292669902974734},{"Value":-0.7593487909812145},{"Value":0.2010088378347956},{"Value":-0.23505715243529773},{"Value":0.7939041401637811},{"Value":-0.7115151773058987},{"Value":0.034800118864412435},{"Value":0.4440939311965221},{"Value":-0.8940467920043859},{"Value":-0.4264563853359704},{"Value":0.07673471598029313},{"Value":-0.03893650160800986},{"Value":0.3083025970331703},{"Value":-1.057763424913117},{"Value":-1.1049860159090168},{"Value":-0.13151530805740164},{"Value":0.5548843678269796},{"Value":-0.5964416923090732},{"Value":-0.7413514328861188},{"Value":-1.0526560695556428},{"Value":0.7316460609429097},{"Value":0.3731504326143915},{"Value":1.1028779613469575},{"Value":-0.32631897885025934},{"Value":0.8873293962461529},{"Value":0.23687991296519206},{"Value":0.05699339977303655},{"Value":-0.19869687508842168},{"Value":-0.16867911650521764},{"Value":0.9200345835905988},{"Value":0.6605619057374865},{"Value":0.43513595734410887},{"Value":0.7688910385228215},{"Value":0.40274392686722493},{"Value":1.188375983808807},{"Value":0.04125442773532151},{"Value":0.17978017971723106},{"Value":1.5557499492816618},{"Value":0.41420729266782413},{"Value":0.8089433646184565},{"Value":-0.48814085491818393},{"Value":-0.13322388036029328},{"Value":1.453060665067778},{"Value":-0.23543956653969117},{"Value":1.1454179350934806},{"Value":0.6647339086455336},{"Value":-0.30525964923031645},{"Value":0.19013670882011832},{"Value":1.4390153089343964},{"Value":0.6469586202969753},{"Value":0.029212981015051005},{"Value":0.9825092723883325},{"Value":0.6390012008457963},{"Value":-0.1662688386663716},{"Value":1.0807222776055316},{"Value":-0.11139235001971946},{"Value":-0.4984036532026614},{"Value":0.35774992882519013},{"Value":-0.1494762830599308},{"Value":0.24771899020805602},{"Value":-0.6295445936911852},{"Value":0.8546074873149543},{"Value":0.12862321404394073},{"Value":1.1655191861500989},{"Value":0.9441623937614052},{"Value":0.7045308132549176},{"Value":-0.5601487236879358},{"Value":-0.36702157633691196},{"Value":0.476336759373511},{"Value":-0.11559489756836051},{"Value":0.8143444764485053},{"Value":0.09086975925652374},{"Value":0.424468812365726},{"Value":0.7435691966667631},{"Value":1.1692100242153218}],"Dimensions":[32,9],"Multipliers":[9,1],"Rank":2,"ElementCount":288},"Biases":{"Data":[{"Value":0.10677613977712594},{"Value":-0.3938870117886966},{"Value":0.05546749260105234},{"Value":-0.11108024457817724},{"Value":0.6405123572841194},{"Value":-0.300876720034721},{"Value":-0.12741232364620764},{"Value":-0.26149350320556214},{"Value":0.23879373567686138}],"Dimensions":[9],"Multipliers":[1],"Rank":1,"ElementCount":9},"Activation":"NNN.Linear, NNN, Version=1.0.0.0, Culture=neutral, PublicKeyToken=null"}]}