{"Layers":[{"NeuronCount":32,"LayerName":"NNN.Dense, NNN, Version=1.0.0.0, Culture=neutral, PublicKeyToken=null","Weights":{"Data":[{"Value":0.005383463909168892},{"Value":-0.30188206915564064},{"Value":0.47609255735037265},{"Value":-0.1063115246469466},{"Value":0.2147593623074763},{"Value":-0.08244163857616592},{"Value":-0.7024666785987873},{"Value":0.4472554062396078},{"Value":0.5093873517741719},{"Value":0.4345883502926957},{"Value":-0.3995122721106382},{"Value":0.30452119838865177},{"Value":-0.1664421238774184},{"Value":0.2792050123064212},{"Value":0.13357934619441122},{"Value":0.5017112409560729},{"Value":0.11179221508444528},{"Value":0.9201638826597213},{"Value":-0.7330152365115624},{"Value":-0.635402709973364},{"Value":-0.048824608040243},{"Value":-0.07189538151319873},{"Value":0.21727380062334678},{"Value":-0.3757313822468509},{"Value":-0.6614707263948485},{"Value":0.5609308601367949},{"Value":0.2947269998877097},{"Value":0.35444891164225684},{"Value":1.0319890463345773},{"Value":-0.7146862440091336},{"Value":-0.09365891835703888},{"Value":-0.45481951142549476},{"Value":0.7647977618060429},{"Value":-0.5298145467871833},{"Value":0.24858545735697388},{"Value":-1.145765882708259},{"Value":-0.8107168035248181},{"Value":-0.8197699285086456},{"Value":0.9970684471715555},{"Value":-0.10280292269739673},{"Value":0.15612807061353148},{"Value":-0.7348056860354538},{"Value":-0.2203619968235453},{"Value":0.08797020168912632},{"Value":0.0027452739212161996},{"Value":-0.07883439184467056},{"Value":0.3839145876168489},{"Value":0.5442855321292325},{"Value":0.1416334173525867},{"Value":-0.19058070649718314},{"Value":0.20953969738840317},{"Value":-0.6259112986947278},{"Value":-0.25734545501274464},{"Value":-0.32715400249729},{"Value":-0.5828527938882531},{"Value":0.14668810060576623},{"Value":-0.7090167406958421},{"Value":-0.19339674811382354},{"Value":-0.13728413970669484},{"Value":-0.13991837317509245},{"Value":0.21823848467256973},{"Value":-0.41293166762111566},{"Value":0.08114675039677405},{"Value":-0.08528074689015552},{"Value":0.22818944562592972},{"Value":-0.16870771778783886},{"Value":1.0854828400297216},{"Value":0.05212635113754804},{"Value":0.11699406187357043},{"Value":-0.5488466528251384},{"Value":1.3084212268191264},{"Value":0.228845738891717},{"Value":0.6504032707338948},{"Value":-0.10292463978007946},{"Value":0.8954793081917024},{"Value":0.33075827217288867},{"Value":1.214697451776431},{"Value":-0.052849684333388734},{"Value":0.25750068781829594},{"Value":-0.3016119094018149},{"Value":-0.16304615220770594},{"Value":-0.6923507836354232},{"Value":0.4492372698521269},{"Value":-0.47803129473589484},{"Value":0.6743795472688919},{"Value":-0.5723814920651803},{"Value":-0.34416565241010705},{"Value":-0.9124204698104522},{"Value":-0.3330565778546344},{"Value":-0.18081168772531123},{"Value":0.3527020645101264},{"Value":0.4355263431059119},{"Value":0.3204798874814262},{"Value":-0.6805531338154546},{"Value":-0.31347592080675124},{"Value":0.20595166199862905},{"Value":-0.11622555699444584},{"Value":-0.04776537681297635},{"Value":-0.20064629408328674},{"Value":0.3162077242116219},{"Value":0.1875831119333826},{"Value":-0.22969004160231413},{"Value":0.056083843533518085},{"Value":-0.41272677745037045},{"Value":-0.4468377945858077},{"Value":0.5901244592660335},{"Value":-0.2912381547827197},{"Value":0.004804307767636837},{"Value":-0.3802288139531044},{"Value":0.23191823762349695},{"Value":-0.284172551983266},{"Value":-0.7613010002807111},{"Value":0.02450880101964932},{"Value":0.34938794792514144},{"Value":0.3955204949842125},{"Value":-0.19991488519214978},{"Value":-0.44800249220272775},{"Value":0.39606232091292487},{"Value":0.25525937386160313},{"Value":-0.17996928827490277},{"Value":0.16895160884897914},{"Value":0.2750557577996343},{"Value":0.828350600582577},{"Value":-0.2863979769314973},{"Value":-0.24138515311927844},{"Value":0.7175208554300824},{"Value":0.5584833054507498},{"Value":-0.4666986080558433},{"Value":0.5438097459255533},{"Value":0.8260988811452583},{"Value":-0.07842118816069307},{"Value":0.2074350030363311},{"Value":-0.7988835312093928},{"Value":-0.16450920544169997},{"Value":-0.14625807944544322},{"Value":-0.15203300934615735},{"Value":0.571115939846776},{"Value":-0.554660815486746},{"Value":0.7784890329962255},{"Value":0.8370624571921896},{"Value":-0.9205088165570573},{"Value":-0.18368664926220857},{"Value":-0.20112494712098256},{"Value":-0.029170612628040313},{"Value":-0.6477719449321876},{"Value":0.27011929756375963},{"Value":-0.11816966458249631},{"Value":0.005924162779703267},{"Value":-0.10230289655795449},{"Value":-1.0993033253660354},{"Value":0.488541667437298},{"Value":0.012486554860066248},{"Value":-0.35135585750767323},{"Value":-0.24476578230711887},{"Value":0.6483496718628582},{"Value":-0.5308437058301381},{"Value":0.3818548886391966},{"Value":0.632402911988628},{"Value":-0.1047721071112616},{"Value":0.19955084910946308},{"Value":-0.3057462222516044},{"Value":0.12985595691709453},{"Value":-0.5957545463141249},{"Value":0.06363667080822293},{"Value":0.12748893530032815},{"Value":0.048029134208998805},{"Value":0.343450969118824},{"Value":0.2636928085098679},{"Value":-0.33981441076421043},{"Value":-0.4803403366538228},{"Value":-0.1285802260970904},{"Value":-0.07425150251045363},{"Value":-0.05993322316667569},{"Value":0.2603668021529198},{"Value":0.06445513999077503},{"Value":0.005641225709085335},{"Value":0.08313722083163079},{"Value":-0.5054488903016797},{"Value":0.40366345394090253},{"Value":-0.3801489550719871},{"Value":0.2500616121508374},{"Value":-0.005841863653126901},{"Value":-0.6023413272681355},{"Value":-0.11959350942070582},{"Value":-0.10117091198136009},{"Value":0.0025111498059625205},{"Value":0.5807711388945008},{"Value":-0.8372983134388522},{"Value":-0.8196061220628258},{"Value":0.5191630401925776},{"Value":-0.9486129428121063},{"Value":-0.07998414103799469},{"Value":-0.20065533864004229},{"Value":-0.1505179617556498},{"Value":-0.48892036793646737},{"Value":-0.4133613122181026},{"Value":0.29953158301030414},{"Value":-0.045400464446528774},{"Value":-0.07477994067872874},{"Value":0.027956133330126434},{"Value":0.12086693728228472},{"Value":-0.16266261663886206},{"Value":0.28878805471512714},{"Value":-0.3665593931166293},{"Value":-0.4195230327195774},{"Value":0.10242352618173861},{"Value":-0.22846671119621922},{"Value":0.1014657744633452},{"Value":-0.5976102807583902},{"Value":0.6827541156033191},{"Value":-0.1246547812143407},{"Value":-0.27346548208059146},{"Value":0.16680748738611142},{"Value":0.2627262977822861},{"Value":0.23659242430807745},{"Value":-0.09368551763772737},{"Value":0.42246004054204556},{"Value":-1.3343302013060605},{"Value":-0.5562129941439461},{"Value":0.387937394350916},{"Value":0.10795328768104068},{"Value":-0.5258180691040789},{"Value":-0.3652370719344313},{"Value":-1.2134059510478123},{"Value":-0.3177668329721613},{"Value":0.957010693596741},{"Value":-0.4413116609790552},{"Value":-0.3106250537472316},{"Value":-0.802550979335267},{"Value":0.6178830819209739},{"Value":0.23852066251642856},{"Value":-0.20851104258191427},{"Value":0.5554811787778434},{"Value":-0.6141151011108427},{"Value":0.09618803701313582},{"Value":-0.0951881162306125},{"Value":-0.3485050685472854},{"Value":-0.8693322644913186},{"Value":0.2903409669308688},{"Value":0.2223750916092356},{"Value":0.17447176376791124},{"Value":0.28034127597455705},{"Value":0.21265534202691289},{"Value":0.18539326758680696},{"Value":0.5731495288775891},{"Value":0.24178023398349718},{"Value":-0.03334302406834794},{"Value":0.9735748216014068},{"Value":0.09592037037006512},{"Value":-0.3601806251423642},{"Value":-0.43055443264171955},{"Value":0.3624603652641225},{"Value":-0.09647465332581295},{"Value":0.42036772778018777},{"Value":-0.6901412234967327},{"Value":0.10199139120454263},{"Value":-0.3491773945543013},{"Value":-0.07436221417075582},{"Value":-0.3448978148230032},{"Value":0.503656313650901},{"Value":-0.0979525744925622},{"Value":0.2701511374256343},{"Value":-0.14475385059359067},{"Value":0.5080139803674283},{"Value":-0.17600831930367622},{"Value":0.336817577111198},{"Value":-0.47781880008458577},{"Value":0.35923986131434055},{"Value":0.6931847302775287},{"Value":0.2997595103071182},{"Value":0.1604198836310858},{"Value":-0.22587500069518934},{"Value":-0.38252580181330864},{"Value":-0.025683768339044673},{"Value":-0.5774238957880597},{"Value":-1.6446515456105746},{"Value":-0.20033053287327238},{"Value":-0.5902874130737062},{"Value":-0.2681534488571619},{"Value":0.034451469098030235},{"Value":-0.46360427350822553},{"Value":-0.6024086842761714},{"Value":-0.8444123521748333},{"Value":0.4529378955308454},{"Value":-0.20862229944483132},{"Value":-0.32398742331645825},{"Value":0.023635139609031675},{"Value":0.24369850737328438},{"Value":0.10164378769265908},{"Value":-0.7133542550660013},{"Value":-0.5364394731036897},{"Value":-0.40730679052433194},{"Value":-0.2519776851168384},{"Value":-0.6729634539644477},{"Value":-0.4273861134613815},{"Value":-0.4507648152069233},{"Value":1.2424773159982319},{"Value":-0.5424482720930858},{"Value":-0.1456578506059121},{"Value":-0.39485986735833406},{"Value":-0.24055143522877795},{"Value":0.5641497756129102},{"Value":1.4246034894704183},{"Value":0.8641988401415336},{"Value":0.49415099377006283},{"Value":0.7799500600365065},{"Value":0.21014129512293714},{"Value":0.5229818295662244},{"Value":0.05047893554152975},{"Value":-0.8505557304993865},{"Value":0.8885649002517133},{"Value":0.27666024703048103},{"Value":-0.4147872727481765},{"Value":-0.3192730881783944},{"Value":0.637371197529566},{"Value":0.8781721213086237},{"Value":-0.8575021974695218},{"Value":-0.24814063511574003},{"Value":-0.6427641549378923},{"Value":0.38766861050350954}],"Dimensions":[10,32],"Multipliers":[32,1],"Rank":2,"ElementCount":320},"Biases":{"Data":[{"Value":-0.2243097890625102},{"Value":0.03187279289904658},{"Value":0.05556980698835649},{"Value":-0.6212049579749647},{"Value":-1.3526914445380098},{"Value":0.2369439581319526},{"Value":0.1335481803589116},{"Value":0.2535520440282071},{"Value":-0.07549401255752759},{"Value":0.10734484267725189},{"Value":-0.07945140756326878},{"Value":-0.03211208627284579},{"Value":-0.48936943376797454},{"Value":-0.2773165498819869},{"Value":0.12406708738787608},{"Value":0.06324520499256912},{"Value":-0.27459191201971556},{"Value":0.0981172314375463},{"Value":-0.22101687755182567},{"Value":0.09231023500772216},{"Value":-0.06803977691399},{"Value":-0.3299449856573923},{"Value":-0.36411114995896476},{"Value":-0.24036966868456835},{"Value":0.10867553152886375},{"Value":-0.40584653194546616},{"Value":-0.0824003231039286},{"Value":-0.10500967707425872},{"Value":0.8408787500646698},{"Value":-0.25487931859193413},{"Value":0.05297527864664591},{"Value":-0.10598958394434972}],"Dimensions":[32],"Multipliers":[1],"Rank":1,"ElementCount":32},"Activation":"NNN.LeakyReLU, NNN, Version=1.0.0.0, Culture=neutral, PublicKeyToken=null"},{"NeuronCount":9,"LayerName":"NNN.Dense, NNN, Version=1.0.0.0, Culture=neutral, PublicKeyToken=null","Weights":{"Data":[{"Value":-0.11048442175533714},{"Value":0.5673613261174951},{"Value":-0.09799881450429386},{"Value":-0.15864923585729365},{"Value":-0.4824502593772546},{"Value":-0.31256075821106827},{"Value":-0.007453731547337342},{"Value":0.8322830032001952},{"Value":-0.2739065547214316},{"Value":0.12022714870651544},{"Value":0.6488192441995976},{"Value":-0.34923694678241274},{"Value":-0.09964971037379744},{"Value":-0.20450966608173618},{"Value":-0.505549272579751},{"Value":-0.24179945943383063},{"Value":-0.4830269697000174},{"Value":0.009028114037933202},{"Value":0.38254035085272153},{"Value":0.6068234981201243},{"Value":0.972001054022966},{"Value":0.13393507929704102},{"Value":-0.27143843748574614},{"Value":-0.3082968627040766},{"Value":-0.17118989818772973},{"Value":-0.16648889732511804},{"Value":-0.165291596783649},{"Value":-0.02213845489312884},{"Value":0.3657867743683105},{"Value":0.33620770784771015},{"Value":-0.3411713883830886},{"Value":0.20868483565315088},{"Value":0.2824934263186918},{"Value":-0.5586817632918971},{"Value":-0.1260004361105607},{"Value":-0.16567994362060215},{"Value":-0.06143203344569488},{"Value":0.5886088339370968},{"Value":-0.591700935287552},{"Value":0.34371691598387333},{"Value":0.6485086468674439},{"Value":-0.4773574278289917},{"Value":-0.20158599193455431},{"Value":1.1737010273048172},{"Value":-0.6025827733282917},{"Value":0.11526470929944431},{"Value":-0.16667609276621725},{"Value":0.5058384022159533},{"Value":0.15268517265928552},{"Value":0.040196493278860365},{"Value":0.48732640609644934},{"Value":0.2688224134773894},{"Value":0.5473800928377719},{"Value":0.2007551834896026},{"Value":0.19486093076746064},{"Value":-0.2868309206859299},{"Value":-0.062423970049263075},{"Value":0.015000793503264984},{"Value":0.13698613942789284},{"Value":-0.41731317088357184},{"Value":0.25486020851386776},{"Value":-0.1268481721064395},{"Value":0.03308701856434086},{"Value":-0.05020733772352171},{"Value":0.2099454561437597},{"Value":-0.030085655771179432},{"Value":-0.1522463732850447},{"Value":-0.3548424651196592},{"Value":-0.25415037606612956},{"Value":0.3647852581520126},{"Value":-0.3230158064376512},{"Value":-0.2038347006721329},{"Value":-0.0250470080416149},{"Value":0.6950702480148183},{"Value":0.6247539949900685},{"Value":-0.3890630047060191},{"Value":0.08173172158511319},{"Value":-0.27108876499053275},{"Value":0.34631232452547706},{"Value":0.06760466446582156},{"Value":0.5569858574673444},{"Value":-0.3798544271310636},{"Value":0.03536644468233849},{"Value":-0.4521092372473702},{"Value":0.07133034610313925},{"Value":-0.23804136146915847},{"Value":-0.674948092564633},{"Value":-0.04523135594576464},{"Value":0.05517592300788683},{"Value":-0.2737058950131343},{"Value":-0.09136953159545683},{"Value":-0.40092233310734315},{"Value":0.5394759453836374},{"Value":0.02093727102738588},{"Value":0.2921081603166465},{"Value":0.07266548341711415},{"Value":0.44453860910176224},{"Value":0.29169988284335374},{"Value":-0.1460427022942481},{"Value":0.3030600744428008},{"Value":-0.8967633409685939},{"Value":-0.3227937181331371},{"Value":0.006686014698937575},{"Value":0.8826629553447646},{"Value":-0.389859922594836},{"Value":-0.27105848273048094},{"Value":0.10250843190140366},{"Value":0.38774836583654015},{"Value":-0.10353359671789146},{"Value":0.08942852411639922},{"Value":0.31175288929898076},{"Value":-0.1817497037591639},{"Value":0.02026183329900275},{"Value":0.6698440590452596},{"Value":-0.37983864242640336},{"Value":0.08437614559028592},{"Value":0.43990788188656693},{"Value":0.08570616747038627},{"Value":0.18562213763506719},{"Value":0.547054923544528},{"Value":0.07426048115680921},{"Value":0.5876679164851328},{"Value":0.29819889404935035},{"Value":-0.09151604291231269},{"Value":0.41223334524482425},{"Value":0.22522612346327425},{"Value":0.07164902454330868},{"Value":-0.17520167780142637},{"Value":-0.1517711419553897},{"Value":-0.8698594569390873},{"Value":-0.20706804019201078},{"Value":-0.3740874784699407},{"Value":0.10304156372797273},{"Value":-0.30541397049105},{"Value":-0.5563330651633639},{"Value":0.21572444233868607},{"Value":0.03990207975954033},{"Value":-0.05224308553944983},{"Value":0.4170596552019424},{"Value":0.3391998992907874},{"Value":0.6078891226906955},{"Value":-0.4104018667881239},{"Value":0.15283591986331924},{"Value":0.4918544255463015},{"Value":-0.5331694620599787},{"Value":0.09421813647675073},{"Value":0.32972917220660813},{"Value":0.07165211922311228},{"Value":0.4979879583239951},{"Value":-0.4260116031260159},{"Value":0.07624841840709098},{"Value":-0.9939371727470884},{"Value":-0.3008516228695146},{"Value":0.1275158035525799},{"Value":-0.24811377681117575},{"Value":0.14708441871894168},{"Value":0.10389829243057519},{"Value":-0.44090362596790345},{"Value":-0.21482349700803088},{"Value":-0.05649287602736667},{"Value":-0.2866707192458818},{"Value":-0.1217899519922152},{"Value":0.55454414125107},{"Value":-0.13387709085056396},{"Value":-0.22739859378482294},{"Value":0.02167919553087664},{"Value":0.2328959230316938},{"Value":0.2972569793632318},{"Value":-0.7559641248172454},{"Value":0.005950435799098628},{"Value":0.3902225514558329},{"Value":-0.03741078127246325},{"Value":-0.15919388226348552},{"Value":0.08298130605196845},{"Value":0.4238414598646642},{"Value":0.09809478386628713},{"Value":0.062069742377279996},{"Value":-0.27053039650390803},{"Value":-0.2958737221890658},{"Value":0.43840629416535687},{"Value":-0.25665301726640916},{"Value":-0.03547596186962418},{"Value":-0.22196653240722536},{"Value":-0.2521732327820523},{"Value":-0.22062098454105208},{"Value":0.30659405849097543},{"Value":-0.009913898413170419},{"Value":-0.10046117460260347},{"Value":-0.14276538665174454},{"Value":0.5111828696490734},{"Value":0.058661412388523},{"Value":0.18095257957507319},{"Value":0.35471428744634936},{"Value":0.5479119613701058},{"Value":0.2346769618812145},{"Value":0.16236384845692742},{"Value":0.1349598422019923},{"Value":0.42193085390189106},{"Value":0.7645932387168367},{"Value":0.3492225442268909},{"Value":0.19986363781695463},{"Value":0.17123515157491798},{"Value":0.5807643209469631},{"Value":0.2851211823176686},{"Value":0.2532178747419745},{"Value":0.1650174022804964},{"Value":0.0683481078006102},{"Value":-0.647635852050646},{"Value":-0.0020364954637498846},{"Value":-0.31765659238533955},{"Value":-0.5429803767035054},{"Value":0.0942397167101126},{"Value":-0.3114333303162842},{"Value":0.24515261644029207},{"Value":0.5610581877900855},{"Value":-0.034114802136958895},{"Value":-0.03943370883772493},{"Value":0.06329422683665659},{"Value":-0.1806342391791887},{"Value":-0.6785414814813043},{"Value":-0.32262882005135585},{"Value":-0.604412706154225},{"Value":-0.20917885494911131},{"Value":-0.46378222107253997},{"Value":-0.11482962674448288},{"Value":-0.48155172881736164},{"Value":0.0039315698960815625},{"Value":0.12659440376231465},{"Value":-0.5339896685971851},{"Value":-0.028202667386480192},{"Value":0.08862438791912823},{"Value":0.644865157885212},{"Value":0.32822276597053},{"Value":0.39887435883451466},{"Value":-0.3996043612601635},{"Value":-0.13916761066393415},{"Value":-0.5769298937730183},{"Value":0.3138904284456227},{"Value":-0.14728717200017283},{"Value":0.22958438044397125},{"Value":0.3755004659487121},{"Value":0.38122118941543637},{"Value":0.34294757395715864},{"Value":-0.13602405915632604},{"Value":-0.16861274887313005},{"Value":-0.4082359421099699},{"Value":0.678614808642847},{"Value":0.3662809995684175},{"Value":0.07456700936190212},{"Value":0.1632218242951224},{"Value":0.35431359944172675},{"Value":0.10573470758223953},{"Value":-0.4769643867503947},{"Value":-0.3434395678651253},{"Value":-0.5239894513297428},{"Value":-0.35789096327374936},{"Value":0.057195923489084685},{"Value":0.14458371090832364},{"Value":-0.27893512608245574},{"Value":-0.2460167929366557},{"Value":-0.20250904128938252},{"Value":-0.06867995917951084},{"Value":0.19727675195299124},{"Value":0.3019622125881383},{"Value":0.1720135229964884},{"Value":0.10087194291121855},{"Value":0.4202344623607683},{"Value":-0.0512531209253825},{"Value":-0.20378198418724122},{"Value":-0.5183094848025182},{"Value":0.16317872108497303},{"Value":0.16214148110162377},{"Value":0.2905688554485202},{"Value":0.4009026541066855},{"Value":-0.00031553113277613294},{"Value":0.33643185456856417},{"Value":0.2651706019456883},{"Value":-0.13229989815203844},{"Value":0.32421701996568886},{"Value":0.4347471340407284},{"Value":-0.040658204781241936},{"Value":-0.07042020204983956},{"Value":0.7326864228324609},{"Value":-0.26968284797262854},{"Value":0.32957145667579374},{"Value":-0.16901372827215638},{"Value":-0.12513834338753155},{"Value":-0.5316792485113755}],"Dimensions":[32,9],"Multipliers":[9,1],"Rank":2,"ElementCount":288},"Biases":{"Data":[{"Value":-0.1626715569461628},{"Value":-0.4094136442451305},{"Value":-0.16359277728632193},{"Value":-0.011045916099418338},{"Value":-0.16175228404117287},{"Value":-0.12393247914156917},{"Value":-0.1335227173260714},{"Value":0.14063424739015967},{"Value":-0.3597093712196395}],"Dimensions":[9],"Multipliers":[1],"Rank":1,"ElementCount":9},"Activation":"NNN.Linear, NNN, Version=1.0.0.0, Culture=neutral, PublicKeyToken=null"}]}