{"Layers":[{"NeuronCount":16,"LayerName":"NNN.Dense, NNN, Version=1.0.0.0, Culture=neutral, PublicKeyToken=null","Weights":{"Data":[{"Value":0.05592648629009544},{"Value":-0.17999352478141037},{"Value":0.05650164117238599},{"Value":-1.5259375236505044},{"Value":1.3721841106739014},{"Value":-0.047795547608904136},{"Value":0.9144513849928052},{"Value":0.30361903800510054},{"Value":-1.0021662771853042},{"Value":-0.03178293725518406},{"Value":-0.10418123141776489},{"Value":-0.06837175647396065},{"Value":1.4485278543799143},{"Value":0.059216327642235556},{"Value":0.12527067160536653},{"Value":-0.2645151714851581},{"Value":-0.0201180009617892},{"Value":-1.0943964448056203},{"Value":-0.03243143444725973},{"Value":0.7387820324513031},{"Value":0.7330665624531992},{"Value":-0.6623297695105766},{"Value":-1.795501831206618},{"Value":-0.25106222042370424},{"Value":-1.639232481859773},{"Value":-0.009354872323959486},{"Value":0.17579214516602729},{"Value":0.21516814626911895},{"Value":-1.027651820427899},{"Value":-0.035271676907438425},{"Value":0.7171535074163787},{"Value":0.7328802677622245},{"Value":-0.258523054975106},{"Value":-0.024549433240123868},{"Value":-0.1815680547145041},{"Value":1.5238795242351364},{"Value":-1.3742515220085938},{"Value":-0.15219203630439102},{"Value":-0.8729896679335829},{"Value":0.4117133248667422},{"Value":0.9940726642074117},{"Value":0.017747850314169283},{"Value":-0.7953289760099278},{"Value":-0.015919367550264994},{"Value":-1.5203990386609585},{"Value":-0.24903952708629765},{"Value":0.46958210957617963},{"Value":0.6510506742208712},{"Value":1.0106398049817877},{"Value":-0.008894330292855803},{"Value":-1.555661744454368},{"Value":-0.7697481871802591},{"Value":-0.7400515643279365},{"Value":0.970895835311284},{"Value":1.832600357421126},{"Value":1.6727453362126774},{"Value":1.685966011759392},{"Value":1.0357217433982393},{"Value":-0.10648355359357817},{"Value":-1.8079498611259888},{"Value":0.9971327576671045},{"Value":1.1529253027650304},{"Value":-0.5118911686558556},{"Value":-0.24218328731539066}],"Dimensions":[4,16],"Multipliers":[16,1],"Rank":2,"ElementCount":64},"Biases":{"Data":[{"Value":1.269785647128832},{"Value":1.2692658193399722},{"Value":1.7519679219105917},{"Value":0.06972877852932784},{"Value":0.0071042273031328255},{"Value":1.6887233289878099},{"Value":0.07660633961227926},{"Value":0.2683738220103553},{"Value":0.22257082030670744},{"Value":1.1456375277932238},{"Value":0.9795890992356041},{"Value":2.061655236936111},{"Value":0.23439375244121924},{"Value":1.4099996205893521},{"Value":1.678882489456409},{"Value":1.6804945046947881}],"Dimensions":[16],"Multipliers":[1],"Rank":1,"ElementCount":16},"Activation":"NNN.LeakyReLU, NNN, Version=1.0.0.0, Culture=neutral, PublicKeyToken=null"},{"NeuronCount":16,"LayerName":"NNN.Dense, NNN, Version=1.0.0.0, Culture=neutral, PublicKeyToken=null","Weights":{"Data":[{"Value":0.3995351348349768},{"Value":0.7460715990811237},{"Value":0.3652483281630096},{"Value":-0.7867884858483297},{"Value":1.3270504175195914},{"Value":0.352462214833979},{"Value":-0.12641377535307283},{"Value":0.9751378344438378},{"Value":1.2761764916867733},{"Value":0.7896421514252774},{"Value":1.5450162704599333},{"Value":0.5252486640182026},{"Value":-0.19251212854275837},{"Value":-0.11074378705213929},{"Value":-0.2558605967304104},{"Value":-0.0008666768492868745},{"Value":0.5749994610097986},{"Value":0.9289742607541549},{"Value":0.19765651744387674},{"Value":-0.023251382489471194},{"Value":0.9862748178190384},{"Value":0.47794041871375686},{"Value":0.4434429960876359},{"Value":0.7309083673430612},{"Value":-0.09353034090624876},{"Value":0.2928572777646048},{"Value":0.4267893228824886},{"Value":0.6508018451615672},{"Value":-0.8559734659643273},{"Value":-0.5003843175546691},{"Value":0.8784889539521512},{"Value":-0.6367479826955346},{"Value":0.8780448899369607},{"Value":-0.3858908409673422},{"Value":0.8898454331767268},{"Value":1.1688675635522927},{"Value":1.3197987973658722},{"Value":-0.023667795769787756},{"Value":-0.11358397458803168},{"Value":0.776947871670974},{"Value":1.130768117742833},{"Value":-0.5235166484259138},{"Value":1.0158665458407794},{"Value":0.7468458146704517},{"Value":1.2647895185839673},{"Value":0.4381385549329701},{"Value":-0.018917155403734127},{"Value":0.02748470159493849},{"Value":0.4449630730140335},{"Value":0.6413950241207222},{"Value":1.0946566855904352},{"Value":0.7170824839559367},{"Value":0.7289808274165694},{"Value":-0.26526699188324726},{"Value":-0.29431188875120606},{"Value":1.0502392444826594},{"Value":0.7810722702204067},{"Value":0.5833070612649208},{"Value":0.8055646751107547},{"Value":1.383577339227594},{"Value":-0.23135565139994274},{"Value":-0.7975047555832294},{"Value":0.03843747865625532},{"Value":0.09220298323467435},{"Value":1.1447516122387271},{"Value":0.7005573657877856},{"Value":-0.004930301941733611},{"Value":0.6467080849413075},{"Value":0.9812300483659714},{"Value":-0.4412043335259389},{"Value":0.05432703554736438},{"Value":1.1037012909883608},{"Value":0.796475126102957},{"Value":0.525386612491389},{"Value":1.3134150720556133},{"Value":1.3417557732536511},{"Value":-1.879130253019829},{"Value":0.4793965833957134},{"Value":-0.19561263338575832},{"Value":0.7652716800815912},{"Value":0.7077380564510736},{"Value":0.03964468981814572},{"Value":1.2229173829622468},{"Value":-0.22339047238886783},{"Value":1.155279464541147},{"Value":0.7145250431650529},{"Value":-0.6086364450104053},{"Value":0.8727805256874039},{"Value":0.7888508081181492},{"Value":1.115476607100061},{"Value":0.880677424677508},{"Value":0.6967276193304929},{"Value":0.25145604412832623},{"Value":-1.1778431916934682},{"Value":-0.4303605687288872},{"Value":-0.29629388215143837},{"Value":0.13461698124905241},{"Value":-0.22902080166733452},{"Value":0.06310646444497532},{"Value":0.8996194930108088},{"Value":1.2355106068139028},{"Value":-0.4676806020000254},{"Value":0.3217423434951128},{"Value":1.0824333580647878},{"Value":1.2445649390125604},{"Value":0.6870304693106835},{"Value":0.2084869276972612},{"Value":0.9829466862673831},{"Value":-1.142432851583425},{"Value":-0.8699809873023454},{"Value":-3.607895670639553},{"Value":0.3633955719933319},{"Value":0.1009374687523028},{"Value":0.44525326326669656},{"Value":-0.038434347415097055},{"Value":-1.6082387934221418},{"Value":0.6307123825773616},{"Value":0.15177757312943163},{"Value":-0.16392411166022428},{"Value":0.29426865297065563},{"Value":-0.298327413929834},{"Value":0.586037252868792},{"Value":0.585436730997481},{"Value":-0.24033831190345245},{"Value":-0.20021937301154974},{"Value":0.15786009932679998},{"Value":-0.305527693178061},{"Value":-0.11238793471992932},{"Value":0.977000997587383},{"Value":0.39201739775463446},{"Value":0.8917039776823985},{"Value":0.3572628237208189},{"Value":1.0693130848105044},{"Value":-0.8797800689668283},{"Value":-0.17994372889859567},{"Value":0.5247147695435905},{"Value":1.2627188994311402},{"Value":0.7071732602404394},{"Value":0.7966719694440619},{"Value":0.5962285603945104},{"Value":0.21255210728315224},{"Value":-3.991519643288256},{"Value":-0.9088473075650365},{"Value":-2.2157919490800935},{"Value":0.5990559264308993},{"Value":1.0527688862254667},{"Value":0.5823605640360786},{"Value":0.45975069068145263},{"Value":0.9926033150948605},{"Value":-0.2716859608039865},{"Value":0.23113856100912453},{"Value":1.2603322482463344},{"Value":0.486725648854194},{"Value":1.2401355569058068},{"Value":0.8391162321739223},{"Value":1.3525303988960165},{"Value":0.20722417361967246},{"Value":0.26021300068535336},{"Value":-0.32530725117280834},{"Value":0.020162113885993326},{"Value":0.28194999135408455},{"Value":-0.3389712292411332},{"Value":0.6951609061766192},{"Value":0.6370972670529609},{"Value":0.6477763408600855},{"Value":0.09725753747906205},{"Value":-0.2586054282115995},{"Value":0.5283863408188918},{"Value":-0.011752288388522603},{"Value":-0.0764594113837326},{"Value":0.4745985579290946},{"Value":-0.10431421711596271},{"Value":-0.36461665599943643},{"Value":0.7407360522660705},{"Value":0.3335505392710513},{"Value":0.24046312836316117},{"Value":1.1765072110385126},{"Value":0.40783977929759324},{"Value":1.206357120846422},{"Value":0.8455531408144327},{"Value":1.5584522738946376},{"Value":0.018919815721570712},{"Value":-0.22519074565260702},{"Value":0.8393639221043998},{"Value":1.1119792622720464},{"Value":-0.7111386669286728},{"Value":1.5166350211591184},{"Value":0.8224010018015087},{"Value":-0.21439666889805},{"Value":0.3644129068363483},{"Value":-0.604870809563297},{"Value":0.33693428817638055},{"Value":-0.06732557516726559},{"Value":0.2772953460738263},{"Value":0.05072693182398694},{"Value":-0.9417143165995265},{"Value":0.25693607581613936},{"Value":-0.3226646988353641},{"Value":-0.30288308334694425},{"Value":1.0105889170292497},{"Value":0.18981737494504106},{"Value":0.46779830199803674},{"Value":0.7381025822536024},{"Value":0.9173721380962827},{"Value":-0.9840839829271405},{"Value":-0.1796956873418774},{"Value":-1.2140112497289408},{"Value":0.35079271772472265},{"Value":1.2629575989059163},{"Value":0.3846709106093742},{"Value":0.4139473175930359},{"Value":0.5551186454625828},{"Value":0.7127482540276399},{"Value":0.1897933016571294},{"Value":-0.5734664676307994},{"Value":0.10420413057599041},{"Value":0.8015035053853721},{"Value":1.1274834723059564},{"Value":0.29022330748830405},{"Value":0.4154249531620246},{"Value":0.8040590977224186},{"Value":0.7134524829323402},{"Value":0.40732092942101683},{"Value":0.0010540977487267515},{"Value":1.130898467457587},{"Value":-0.5279935087116437},{"Value":0.9934069535523993},{"Value":1.442505171797979},{"Value":1.1935496183639704},{"Value":0.14723528337043554},{"Value":-0.3086657794208996},{"Value":1.7638450953402682},{"Value":1.6295807229791013},{"Value":0.05407267672744514},{"Value":0.5759773857205951},{"Value":1.0705548674357637},{"Value":-0.19119763828604974},{"Value":0.845429591857404},{"Value":0.6552268425654209},{"Value":0.20858166466993686},{"Value":0.7667671093576868},{"Value":0.33302919174106804},{"Value":0.8310247019590548},{"Value":0.8345815006445907},{"Value":1.1276548278055587},{"Value":-0.33284111227740815},{"Value":0.5556689558153701},{"Value":1.2544919558485657},{"Value":0.8679776778810139},{"Value":0.207866009478645},{"Value":1.138890462617302},{"Value":0.9090601975914415},{"Value":0.06212064360621633},{"Value":-0.366573661855105},{"Value":0.6062579986350517},{"Value":0.05794134391469664}],"Dimensions":[16,16],"Multipliers":[16,1],"Rank":2,"ElementCount":256},"Biases":{"Data":[{"Value":1.1283072392905638},{"Value":0.08761938978114428},{"Value":1.1915993234440767},{"Value":1.0150456177972829},{"Value":1.52632289793773},{"Value":0.4319526187383911},{"Value":-0.06361925017504583},{"Value":1.0549578108204212},{"Value":1.4824128377444838},{"Value":1.252075513514417},{"Value":1.4571469881555537},{"Value":1.1575355317130607},{"Value":0.36541125970622795},{"Value":0.32854198754798136},{"Value":0.5218091084269253},{"Value":0.2939780037605862}],"Dimensions":[16],"Multipliers":[1],"Rank":1,"ElementCount":16},"Activation":"NNN.LeakyReLU, NNN, Version=1.0.0.0, Culture=neutral, PublicKeyToken=null"},{"NeuronCount":4,"LayerName":"NNN.Dense, NNN, Version=1.0.0.0, Culture=neutral, PublicKeyToken=null","Weights":{"Data":[{"Value":0.7281259628047497},{"Value":1.0605023463092664},{"Value":0.47194042840007006},{"Value":0.6859585830138983},{"Value":0.5162656156357243},{"Value":0.12771501894345152},{"Value":-0.4215979612994664},{"Value":0.7427602832377345},{"Value":0.2674577262815401},{"Value":1.0272220448981946},{"Value":0.7056503460849903},{"Value":0.47439129849003686},{"Value":1.1632087493196561},{"Value":0.8905305809343461},{"Value":1.022631347715187},{"Value":1.123958313715083},{"Value":0.6373494796576956},{"Value":1.1072037360804723},{"Value":1.0394612509112275},{"Value":0.5896252604632304},{"Value":0.5074087582424208},{"Value":-1.3284452724147875},{"Value":-0.7595781843593947},{"Value":-0.6873202545792723},{"Value":0.36012326338460127},{"Value":0.2384710535107415},{"Value":0.051048640343183085},{"Value":-0.1680893390477943},{"Value":1.1083052884882207},{"Value":0.696683296100632},{"Value":0.5446509617397269},{"Value":0.7664257692276134},{"Value":0.8463894057023594},{"Value":0.7794850730260148},{"Value":1.4983324473883557},{"Value":0.5408157900706108},{"Value":0.7119083777266206},{"Value":0.8544619494927088},{"Value":0.9936380566492484},{"Value":0.7185058075201994},{"Value":0.7645033767971955},{"Value":0.6501135257712832},{"Value":0.9067747652827624},{"Value":1.4161903746135025},{"Value":1.347884924304083},{"Value":0.5400364443745425},{"Value":0.6698508758010893},{"Value":1.0942878651956118},{"Value":-1.0779627777549412},{"Value":0.6131787424443784},{"Value":-0.28724392762293854},{"Value":-0.3163717839511622},{"Value":0.7675537730540959},{"Value":0.17627686826671676},{"Value":-0.08684851865814833},{"Value":1.116644395239507},{"Value":0.19126640380026688},{"Value":0.778059599448276},{"Value":-0.37830568132054265},{"Value":1.5499220649718923},{"Value":0.5575203399087428},{"Value":1.1804343526120258},{"Value":1.0005340463698262},{"Value":0.2588846247345379}],"Dimensions":[16,4],"Multipliers":[4,1],"Rank":2,"ElementCount":64},"Biases":{"Data":[{"Value":0.08308148914340069},{"Value":0.6108631177314354},{"Value":1.2116854659860432},{"Value":0.7990409514193904}],"Dimensions":[4],"Multipliers":[1],"Rank":1,"ElementCount":4},"Activation":"NNN.Linear, NNN, Version=1.0.0.0, Culture=neutral, PublicKeyToken=null"}]}